{"learner":{"attributes":{},"feature_names":[],"feature_types":[],"gradient_booster":{"model":{"gbtree_model_param":{"num_parallel_tree":"1","num_trees":"100"},"iteration_indptr":[0,1,2,3,4,5,6,7,8,9,10,11,12,13,14,15,16,17,18,19,20,21,22,23,24,25,26,27,28,29,30,31,32,33,34,35,36,37,38,39,40,41,42,43,44,45,46,47,48,49,50,51,52,53,54,55,56,57,58,59,60,61,62,63,64,65,66,67,68,69,70,71,72,73,74,75,76,77,78,79,80,81,82,83,84,85,86,87,88,89,90,91,92,93,94,95,96,97,98,99,100],"tree_info":[0,0,0,0,0,0,0,0,0,0,0,0,0,0,0,0,0,0,0,0,0,0,0,0,0,0,0,0,0,0,0,0,0,0,0,0,0,0,0,0,0,0,0,0,0,0,0,0,0,0,0,0,0,0,0,0,0,0,0,0,0,0,0,0,0,0,0,0,0,0,0,0,0,0,0,0,0,0,0,0,0,0,0,0,0,0,0,0,0,0,0,0,0,0,0,0,0,0,0,0],"trees":[{"base_weights":[-1.128464E0],"categories":[],"categories_nodes":[],"categories_segments":[],"categories_sizes":[],"default_left":[0],"id":0,"left_children":[-1],"loss_changes":[0E0],"parents":[2147483647],"right_children":[-1],"split_conditions":[-1.128464E-1],"split_indices":[0],"split_type":[0],"sum_hessian":[2.1049707E4],"tree_param":{"num_deleted":"0","num_feature":"5","num_nodes":"1","size_leaf_vector":"1"}},{"base_weights":[-1.1133572E0],"categories":[],"categories_nodes":[],"categories_segments":[],"categories_sizes":[],"default_left":[0],"id":1,"left_children":[-1],"loss_changes":[0E0],"parents":[2147483647],"right_children":[-1],"split_conditions":[-1.1133572E-1],"split_indices":[0],"split_type":[0],"sum_hessian":[1.926357E4],"tree_param":{"num_deleted":"0","num_feature":"5","num_nodes":"1","size_leaf_vector":"1"}},{"base_weights":[-1.1000838E0],"categories":[],"categories_nodes":[],"categories_segments":[],"categories_sizes":[],"default_left":[0],"id":2,"left_children":[-1],"loss_changes":[0E0],"parents":[2147483647],"right_children":[-1],"split_conditions":[-1.1000838E-1],"split_indices":[0],"split_type":[0],"sum_hessian":[1.7643004E4],"tree_param":{"num_deleted":"0","num_feature":"5","num_nodes":"1","size_leaf_vector":"1"}},{"base_weights":[-1.0885456E0],"categories":[],"categories_nodes":[],"categories_segments":[],"categories_sizes":[],"default_left":[0],"id":3,"left_children":[-1],"loss_changes":[0E0],"parents":[2147483647],"right_children":[-1],"split_conditions":[-1.08854555E-1],"split_indices":[0],"split_type":[0],"sum_hessian":[1.6112946E4],"tree_param":{"num_deleted":"0","num_feature":"5","num_nodes":"1","size_leaf_vector":"1"}},{"base_weights":[-1.0771896E0],"categories":[],"categories_nodes":[],"categories_segments":[],"categories_sizes":[],"default_left":[0],"id":4,"left_children":[-1],"loss_changes":[0E0],"parents":[2147483647],"right_children":[-1],"split_conditions":[-1.0771896E-1],"split_indices":[0],"split_type":[0],"sum_hessian":[1.4759167E4],"tree_param":{"num_deleted":"0","num_feature":"5","num_nodes":"1","size_leaf_vector":"1"}},{"base_weights":[-1.0671104E0],"categories":[],"categories_nodes":[],"categories_segments":[],"categories_sizes":[],"default_left":[0],"id":5,"left_children":[-1],"loss_changes":[0E0],"parents":[2147483647],"right_children":[-1],"split_conditions":[-1.06711045E-1],"split_indices":[0],"split_type":[0],"sum_hessian":[1.3466049E4],"tree_param":{"num_deleted":"0","num_feature":"5","num_nodes":"1","size_leaf_vector":"1"}},{"base_weights":[-1.0580369E0],"categories":[],"categories_nodes":[],"categories_segments":[],"categories_sizes":[],"default_left":[0],"id":6,"left_children":[-1],"loss_changes":[0E0],"parents":[2147483647],"right_children":[-1],"split_conditions":[-1.0580369E-1],"split_indices":[0],"split_type":[0],"sum_hessian":[1.2284042E4],"tree_param":{"num_deleted":"0","num_feature":"5","num_nodes":"1","size_leaf_vector":"1"}},{"base_weights":[-1.049973E0],"categories":[],"categories_nodes":[],"categories_segments":[],"categories_sizes":[],"default_left":[0],"id":7,"left_children":[-1],"loss_changes":[0E0],"parents":[2147483647],"right_children":[-1],"split_conditions":[-1.049973E-1],"split_indices":[0],"split_type":[0],"sum_hessian":[1.1207129E4],"tree_param":{"num_deleted":"0","num_feature":"5","num_nodes":"1","size_leaf_vector":"1"}},{"base_weights":[-1.0412581E0],"categories":[],"categories_nodes":[],"categories_segments":[],"categories_sizes":[],"default_left":[0],"id":8,"left_children":[-1],"loss_changes":[0E0],"parents":[2147483647],"right_children":[-1],"split_conditions":[-1.0412581E-1],"split_indices":[0],"split_type":[0],"sum_hessian":[1.0188563E4],"tree_param":{"num_deleted":"0","num_feature":"5","num_nodes":"1","size_leaf_vector":"1"}},{"base_weights":[-1.0354916E0],"categories":[],"categories_nodes":[],"categories_segments":[],"categories_sizes":[],"default_left":[0],"id":9,"left_children":[-1],"loss_changes":[0E0],"parents":[2147483647],"right_children":[-1],"split_conditions":[-1.0354916E-1],"split_indices":[0],"split_type":[0],"sum_hessian":[9.281872E3],"tree_param":{"num_deleted":"0","num_feature":"5","num_nodes":"1","size_leaf_vector":"1"}},{"base_weights":[-1.0284214E0,-1.0395594E-1,-1.0156857E-1],"categories":[],"categories_nodes":[],"categories_segments":[],"categories_sizes":[],"default_left":[0,0,0],"id":10,"left_children":[1,-1,-1],"loss_changes":[1.4257812E-1,0E0,0E0],"parents":[2147483647,0,0],"right_children":[2,-1,-1],"split_conditions":[5.4E1,-1.0395594E-1,-1.0156857E-1],"split_indices":[2,0,0],"split_type":[0,0,0],"sum_hessian":[8.455383E3,4.467625E3,3.9877578E3],"tree_param":{"num_deleted":"0","num_feature":"5","num_nodes":"3","size_leaf_vector":"1"}},{"base_weights":[-1.0226423E0,-1.0355403E-1,-1.0079688E-1],"categories":[],"categories_nodes":[],"categories_segments":[],"categories_sizes":[],"default_left":[0,0,0],"id":11,"left_children":[1,-1,-1],"loss_changes":[4.1259766E-1,0E0,0E0],"parents":[2147483647,0,0],"right_children":[2,-1,-1],"split_conditions":[5.4E1,-1.0355403E-1,-1.0079688E-1],"split_indices":[2,0,0],"split_type":[0,0,0],"sum_hessian":[7.690138E3,4.055614E3,3.6345242E3],"tree_param":{"num_deleted":"0","num_feature":"5","num_nodes":"3","size_leaf_vector":"1"}},{"base_weights":[-1.0182972E0,-1.0308649E-1,-1.00607745E-1],"categories":[],"categories_nodes":[],"categories_segments":[],"categories_sizes":[],"default_left":[0,0,0],"id":12,"left_children":[1,-1,-1],"loss_changes":[3.90625E-2,0E0,0E0],"parents":[2147483647,0,0],"right_children":[2,-1,-1],"split_conditions":[5.2E1,-1.0308649E-1,-1.00607745E-1],"split_indices":[2,0,0],"split_type":[0,0,0],"sum_hessian":[7.009573E3,3.414483E3,3.5950903E3],"tree_param":{"num_deleted":"0","num_feature":"5","num_nodes":"3","size_leaf_vector":"1"}},{"base_weights":[-1.0114347E0,-1.02556184E-1,-9.9543345E-1,-9.95732E-2,-4.6230923E-2],"categories":[],"categories_nodes":[],"categories_segments":[],"categories_sizes":[],"default_left":[0,0,0,0,0],"id":13,"left_children":[1,-1,3,-1,-1],"loss_changes":[4.189453E-1,0E0,2.0263672E-2,0E0,0E0],"parents":[2147483647,0,0,2,2],"right_children":[2,-1,4,-1,-1],"split_conditions":[5.4E1,-1.02556184E-1,2.9E1,-9.95732E-2,-4.6230923E-2],"split_indices":[2,0,0,0,0],"split_type":[0,0,0,0,0],"sum_hessian":[6.3671714E3,3.34811E3,3.0190615E3,3.0165044E3,2.5570369E0],"tree_param":{"num_deleted":"0","num_feature":"5","num_nodes":"5","size_leaf_vector":"1"}},{"base_weights":[-1.0079877E0,-1.0214368E-1,-9.926656E-2],"categories":[],"categories_nodes":[],"categories_segments":[],"categories_sizes":[],"default_left":[0,0,0],"id":14,"left_children":[1,-1,-1],"loss_changes":[1.796875E-1,0E0,0E0],"parents":[2147483647,0,0],"right_children":[2,-1,-1],"split_conditions":[5.4E1,-1.0214368E-1,-9.926656E-2],"split_indices":[2,0,0],"split_type":[0,0,0],"sum_hessian":[5.792408E3,3.049777E3,2.7426309E3],"tree_param":{"num_deleted":"0","num_feature":"5","num_nodes":"3","size_leaf_vector":"1"}},{"base_weights":[-9.9913156E-1,-1.0178492E-1,-9.811135E-2],"categories":[],"categories_nodes":[],"categories_segments":[],"categories_sizes":[],"default_left":[0,0,0],"id":15,"left_children":[1,-1,-1],"loss_changes":[7.7685547E-1,0E0,0E0],"parents":[2147483647,0,0],"right_children":[2,-1,-1],"split_conditions":[5.2E1,-1.0178492E-1,-9.811135E-2],"split_indices":[2,0,0],"split_type":[0,0,0],"sum_hessian":[5.2619717E3,2.5536677E3,2.708304E3],"tree_param":{"num_deleted":"0","num_feature":"5","num_nodes":"3","size_leaf_vector":"1"}},{"base_weights":[-9.94505E-1,-1.0142305E-1,-9.723227E-2],"categories":[],"categories_nodes":[],"categories_segments":[],"categories_sizes":[],"default_left":[0,0,0],"id":16,"left_children":[1,-1,-1],"loss_changes":[1.1113281E0,0E0,0E0],"parents":[2147483647,0,0],"right_children":[2,-1,-1],"split_conditions":[5.4E1,-1.0142305E-1,-9.723227E-2],"split_indices":[2,0,0],"split_type":[0,0,0],"sum_hessian":[4.7915806E3,2.512575E3,2.2790056E3],"tree_param":{"num_deleted":"0","num_feature":"5","num_nodes":"3","size_leaf_vector":"1"}},{"base_weights":[-9.86059E-1,-1.0076394E-1,-9.619242E-2],"categories":[],"categories_nodes":[],"categories_segments":[],"categories_sizes":[],"default_left":[0,0,0],"id":17,"left_children":[1,-1,-1],"loss_changes":[1.2993164E0,0E0,0E0],"parents":[2147483647,0,0],"right_children":[2,-1,-1],"split_conditions":[5.4E1,-1.0076394E-1,-9.619242E-2],"split_indices":[2,0,0],"split_type":[0,0,0],"sum_hessian":[4.3543955E3,2.2773364E3,2.077059E3],"tree_param":{"num_deleted":"0","num_feature":"5","num_nodes":"3","size_leaf_vector":"1"}},{"base_weights":[-9.810596E-1,-1.0032089E-1,-9.5430136E-1,-9.5479086E-2,-2.586841E-2],"categories":[],"categories_nodes":[],"categories_segments":[],"categories_sizes":[],"default_left":[0,0,0,0,0],"id":18,"left_children":[1,-1,3,-1,-1],"loss_changes":[1.3925781E0,0E0,3.7145996E-1,0E0,0E0],"parents":[2147483647,0,0,2,2],"right_children":[2,-1,4,-1,-1],"split_conditions":[5.5E1,-1.0032089E-1,2.9E1,-9.5479086E-2,-2.586841E-2],"split_indices":[2,0,0,0,0],"split_type":[0,0,0,0,0],"sum_hessian":[3.9639832E3,2.1488047E3,1.8151785E3,1.8135297E3,1.6487911E0],"tree_param":{"num_deleted":"0","num_feature":"5","num_nodes":"5","size_leaf_vector":"1"}},{"base_weights":[-9.757823E-1,-1.0046156E-1,-9.4856024E-1,-9.490193E-2,-3.3296417E-2],"categories":[],"categories_nodes":[],"categories_segments":[],"categories_sizes":[],"default_left":[0,0,0,0,0],"id":19,"left_children":[1,-1,3,-1,-1],"loss_changes":[1.8798828E0,0E0,2.1362305E-1,0E0,0E0],"parents":[2147483647,0,0,2,2],"right_children":[2,-1,4,-1,-1],"split_conditions":[5.2E1,-1.0046156E-1,2.9E1,-9.490193E-2,-3.3296417E-2],"split_indices":[2,0,0,0,0],"split_type":[0,0,0,0,0],"sum_hessian":[3.6082627E3,1.7348375E3,1.8734253E3,1.8714882E3,1.9371014E0],"tree_param":{"num_deleted":"0","num_feature":"5","num_nodes":"5","size_leaf_vector":"1"}},{"base_weights":[-9.707361E-1,-1.00212194E-1,-9.411203E-2],"categories":[],"categories_nodes":[],"categories_segments":[],"categories_sizes":[],"default_left":[0,0,0],"id":20,"left_children":[1,-1,-1],"loss_changes":[2.1115723E0,0E0,0E0],"parents":[2147483647,0,0],"right_children":[2,-1,-1],"split_conditions":[5.2E1,-1.00212194E-1,-9.411203E-2],"split_indices":[2,0,0],"split_type":[0,0,0],"sum_hessian":[3.2853904E3,1.5790876E3,1.7063027E3],"tree_param":{"num_deleted":"0","num_feature":"5","num_nodes":"3","size_leaf_vector":"1"}},{"base_weights":[-9.6659493E-1,-9.968939E-2,-9.382583E-2],"categories":[],"categories_nodes":[],"categories_segments":[],"categories_sizes":[],"default_left":[0,0,0],"id":21,"left_children":[1,-1,-1],"loss_changes":[1.6320801E0,0E0,0E0],"parents":[2147483647,0,0],"right_children":[2,-1,-1],"split_conditions":[5.2E1,-9.968939E-2,-9.382583E-2],"split_indices":[2,0,0],"split_type":[0,0,0],"sum_hessian":[2.9893435E3,1.4281326E3,1.5612108E3],"tree_param":{"num_deleted":"0","num_feature":"5","num_nodes":"3","size_leaf_vector":"1"}},{"base_weights":[-9.5710224E-1,-9.574268E-1,-3.395639E-2,-9.6500166E-2,-9.1047406E-2],"categories":[],"categories_nodes":[],"categories_segments":[],"categories_sizes":[],"default_left":[0,0,0,0,0],"id":22,"left_children":[1,3,-1,-1,-1],"loss_changes":[2.211914E-1,8.959961E-2,0E0,0E0,0E0],"parents":[2147483647,0,0,1,1],"right_children":[2,4,-1,-1,-1],"split_conditions":[2.9E1,3E0,-3.395639E-2,-9.6500166E-2,-9.1047406E-2],"split_indices":[0,0,0,0,0],"split_type":[0,0,0,0,0],"sum_hessian":[2.7232388E3,2.721258E3,1.9806436E0,2.3263896E3,3.948686E2],"tree_param":{"num_deleted":"0","num_feature":"5","num_nodes":"5","size_leaf_vector":"1"}},{"base_weights":[-9.502494E-1,-9.882203E-2,-9.0899193E-1,-9.097084E-1,-1.4058667E-2,-9.225714E-2,-8.472083E-1,-7.758049E-1,-9.365419E-2,-7.8698784E-1,-1.7369545E-1,-7.962323E-2,-4.0328514E-2,3.1842332E-2,-5.7766985E-2],"categories":[],"categories_nodes":[],"categories_segments":[],"categories_sizes":[],"default_left":[0,0,0,0,0,0,0,0,0,0,0,0,0,0,0],"id":23,"left_children":[1,-1,3,5,-1,-1,7,9,-1,11,13,-1,-1,-1,-1],"loss_changes":[2.9885254E0,0E0,5.3356934E-1,1.8341064E-1,0E0,0E0,6.582489E-1,7.149811E-1,0E0,1.1836243E-1,8.975663E-1,0E0,0E0,0E0,0E0],"parents":[2147483647,0,0,2,2,3,3,6,6,7,7,9,9,10,10],"right_children":[2,-1,4,6,-1,-1,8,10,-1,12,14,-1,-1,-1,-1],"split_conditions":[5.4E1,-9.882203E-2,2.9E1,3E0,-1.4058667E-2,-9.225714E-2,1E0,9.4E1,-9.365419E-2,1.4E1,9.6E1,-7.962323E-2,-4.0328514E-2,3.1842332E-2,-5.7766985E-2],"split_indices":[2,0,0,0,0,0,4,2,0,0,2,0,0,0,0],"split_type":[0,0,0,0,0,0,0,0,0,0,0,0,0,0,0],"sum_hessian":[2.480059E3,1.2795156E3,1.2005433E3,1.1992413E3,1.3019953E0,9.831411E2,2.1610027E2,1.2548539E2,9.061487E1,1.228958E2,2.5895905E0,1.1895473E2,3.94107E0,1.2629038E0,1.3266867E0],"tree_param":{"num_deleted":"0","num_feature":"5","num_nodes":"15","size_leaf_vector":"1"}},{"base_weights":[-9.471093E-1,-9.863771E-2,-9.046537E-1,-9.0543145E-1,-1.3981672E-2,-9.0675935E-2,-5.215003E-1,-1.4657468E-2,-7.355006E-2],"categories":[],"categories_nodes":[],"categories_segments":[],"categories_sizes":[],"default_left":[0,0,0,0,0,0,0,0,0],"id":24,"left_children":[1,-1,3,5,-1,-1,7,-1,-1],"loss_changes":[2.8834229E0,0E0,5.2789307E-1,8.7402344E-2,0E0,0E0,3.8495994E-1,0E0,0E0],"parents":[2147483647,0,0,2,2,3,3,6,6],"right_children":[2,-1,4,6,-1,-1,8,-1,-1],"split_conditions":[5.4E1,-9.863771E-2,2.9E1,1E2,-1.3981672E-2,-9.0675935E-2,1.02E2,-1.4657468E-2,-7.355006E-2],"split_indices":[2,0,0,2,0,0,2,0,0],"split_type":[0,0,0,0,0,0,0,0,0],"sum_hessian":[2.263818E3,1.1645104E3,1.0993076E3,1.0980073E3,1.3003167E0,1.0928657E3,5.141593E0,2.480579E0,2.6610138E0],"tree_param":{"num_deleted":"0","num_feature":"5","num_nodes":"9","size_leaf_vector":"1"}},{"base_weights":[-9.3683124E-1,-9.825497E-2,-8.9484185E-1,-8.961444E-2,-5.157575E-1,-1.5170351E-2,-7.281582E-2],"categories":[],"categories_nodes":[],"categories_segments":[],"categories_sizes":[],"default_left":[0,0,0,0,0,0,0],"id":25,"left_children":[1,-1,3,-1,5,-1,-1],"loss_changes":[3.079956E0,0E0,7.421875E-2,0E0,3.593471E-1,0E0,0E0],"parents":[2147483647,0,0,2,2,4,4],"right_children":[2,-1,4,-1,6,-1,-1],"split_conditions":[5.2E1,-9.825497E-2,1E2,-8.961444E-2,1.02E2,-1.5170351E-2,-7.281582E-2],"split_indices":[2,0,2,0,2,0,0],"split_type":[0,0,0,0,0,0,0],"sum_hessian":[2.0614238E3,9.7616504E2,1.0852587E3,1.080183E3,5.075774E0,2.5018482E0,2.573926E0],"tree_param":{"num_deleted":"0","num_feature":"5","num_nodes":"7","size_leaf_vector":"1"}},{"base_weights":[-9.325596E-1,-9.759249E-2,-8.864408E-1,-8.8736E-1,-9.4555095E-3,-9.013239E-1,-8.19188E-1,-9.0338655E-2,-4.223124E-1,-7.452927E-1,-9.105195E-2,2.1633038E-3,-6.946468E-2,-7.5662065E-1,-3.408034E-1,-7.636132E-2,-1.6087946E-2,3.109346E-5,-6.0903914E-2],"categories":[],"categories_nodes":[],"categories_segments":[],"categories_sizes":[],"default_left":[0,0,0,0,0,0,0,0,0,0,0,0,0,0,0,0,0,0,0],"id":26,"left_children":[1,-1,3,5,-1,7,9,-1,11,13,-1,-1,-1,15,17,-1,-1,-1,-1],"loss_changes":[2.899292E0,0E0,5.8795166E-1,1.3928223E-1,0E0,3.6462402E-1,4.5323944E-1,0E0,6.335403E-1,1.9215012E-1,0E0,0E0,0E0,2.7171707E-1,4.1149193E-1,0E0,0E0,0E0,0E0],"parents":[2147483647,0,0,2,2,3,3,5,5,6,6,8,8,9,9,13,13,14,14],"right_children":[2,-1,4,6,-1,8,10,-1,12,14,-1,-1,-1,16,18,-1,-1,-1,-1],"split_conditions":[5.4E1,-9.759249E-2,2.9E1,3E0,-9.4555095E-3,1E2,1E0,-9.0338655E-2,1.02E2,1.4E1,-9.105195E-2,2.1633038E-3,-6.946468E-2,9.5E1,1.8E1,-7.636132E-2,-1.6087946E-2,3.109346E-5,-6.0903914E-2],"split_indices":[2,0,0,0,0,2,4,0,2,0,0,0,0,2,0,0,0,0,0],"split_type":[0,0,0,0,0,0,0,0,0,0,0,0,0,0,0,0,0,0,0],"sum_hessian":[1.881291E3,9.5919965E2,9.220914E2,9.209019E2,1.1894671E0,7.541956E2,1.6670625E2,7.5007983E2,4.115836E0,9.721276E1,6.949349E1,1.9148734E0,2.2009628E0,9.3717606E1,3.4951568E0,9.235182E1,1.3657798E0,1.9782562E0,1.5169005E0],"tree_param":{"num_deleted":"0","num_feature":"5","num_nodes":"19","size_leaf_vector":"1"}},{"base_weights":[-9.161138E-1,-9.7170375E-2,-8.5766274E-1,-8.586279E-1,-9.074527E-3,-8.6021185E-1,-4.5410374E-1,-8.7494925E-2,-7.892243E-1,-8.25424E-3,-6.9095984E-2,-6.4654255E-1,-8.295985E-2,-7.246148E-2,-3.990049E-2],"categories":[],"categories_nodes":[],"categories_segments":[],"categories_sizes":[],"default_left":[0,0,0,0,0,0,0,0,0,0,0,0,0,0,0],"id":27,"left_children":[1,-1,3,5,-1,7,9,-1,11,-1,-1,13,-1,-1,-1],"loss_changes":[4.7440186E0,0E0,5.477295E-1,1.5020752E-1,0E0,1.8786621E-1,4.1910183E-1,0E0,3.5394287E-1,0E0,0E0,4.572258E-1,0E0,0E0,0E0],"parents":[2147483647,0,0,2,2,3,3,5,5,6,6,8,8,11,11],"right_children":[2,-1,4,6,-1,8,10,-1,12,-1,-1,14,-1,-1,-1],"split_conditions":[5.4E1,-9.7170375E-2,2.9E1,1E2,-9.074527E-3,3E0,1.02E2,-8.7494925E-2,6.1E1,-8.25424E-3,-6.9095984E-2,5.9E1,-8.295985E-2,-7.246148E-2,-3.990049E-2],"split_indices":[2,0,0,2,0,0,2,0,2,0,0,2,0,0,0],"split_type":[0,0,0,0,0,0,0,0,0,0,0,0,0,0,0],"sum_hessian":[1.7154772E3,8.7125006E2,8.4422705E2,8.4304645E2,1.1805869E0,8.386362E2,4.410228E0,6.850843E2,1.5355194E2,2.2418618E0,2.168366E0,3.761935E1,1.159326E2,2.7134096E1,1.0485252E1],"tree_param":{"num_deleted":"0","num_feature":"5","num_nodes":"15","size_leaf_vector":"1"}},{"base_weights":[-9.1497236E-1,-9.7229235E-2,-8.5538125E-1,-8.570766E-2,-4.576019E-1,-1.3451929E-2,-6.740219E-2],"categories":[],"categories_nodes":[],"categories_segments":[],"categories_sizes":[],"default_left":[0,0,0,0,0,0,0],"id":28,"left_children":[1,-1,3,-1,5,-1,-1],"loss_changes":[4.529785E0,0E0,1.3238525E-1,0E0,2.9017448E-1,0E0,0E0],"parents":[2147483647,0,0,2,2,4,4],"right_children":[2,-1,4,-1,6,-1,-1],"split_conditions":[5.4E1,-9.7229235E-2,1E2,-8.570766E-2,1.02E2,-1.3451929E-2,-6.740219E-2],"split_indices":[2,0,2,0,2,0,0],"split_type":[0,0,0,0,0,0,0],"sum_hessian":[1.568634E3,7.917468E2,7.768872E2,7.724405E2,4.446724E0,2.434278E0,2.012446E0],"tree_param":{"num_deleted":"0","num_feature":"5","num_nodes":"7","size_leaf_vector":"1"}},{"base_weights":[-9.0754384E-1,-9.767844E-2,-8.4663886E-1,-8.679022E-1,-7.457528E-1,-8.9276856E-1,-8.116636E-1,-6.447948E-1,-8.8435936E-1,-8.947607E-2,-1.3820936E-2,-6.734661E-1,-8.630441E-2,-7.049911E-2,-4.879504E-1,-6.1407816E-1,-9.60526E-2,-3.585168E-1,-6.874522E-2,-6.421735E-2,-3.0542424E-1,-7.717027E-2,-3.618806E-1,-1.3012248E-2,-5.5087715E-2,1.08280955E-2,-6.354723E-2,2.5136087E-2,-5.3516965E-2],"categories":[],"categories_nodes":[],"categories_segments":[],"categories_sizes":[],"default_left":[0,0,0,0,0,0,0,0,0,0,0,0,0,0,0,0,0,0,0,0,0,0,0,0,0,0,0,0,0],"id":29,"left_children":[1,-1,3,5,7,9,11,13,15,-1,-1,17,-1,-1,19,21,-1,23,-1,-1,25,-1,27,-1,-1,-1,-1,-1,-1],"loss_changes":[5.218506E0,0E0,1.0050049E0,1.5640259E-1,1.4053574E0,5.1794434E-1,8.68515E-1,4.6206284E-1,5.795708E-1,0E0,0E0,1.7335892E-2,0E0,0E0,5.6185055E-1,3.2740068E-1,0E0,1.320098E-1,0E0,0E0,2.013021E0,0E0,9.5838296E-1,0E0,0E0,0E0,0E0,0E0,0E0],"parents":[2147483647,0,0,2,2,3,3,4,4,5,5,6,6,7,7,8,8,11,11,14,14,15,15,17,17,20,20,22,22],"right_children":[2,-1,4,6,8,10,12,14,16,-1,-1,18,-1,-1,20,22,-1,24,-1,-1,26,-1,28,-1,-1,-1,-1,-1,-1],"split_conditions":[5.2E1,-9.767844E-2,3E0,1E0,1E0,1.01E2,6.4E1,6E0,6.4E1,-8.947607E-2,-1.3820936E-2,5.3E1,-8.630441E-2,-7.049911E-2,6.6E1,5.9E1,-9.60526E-2,2E0,-6.874522E-2,-6.421735E-2,7.6E1,-7.717027E-2,6E1,-1.3012248E-2,-5.5087715E-2,1.08280955E-2,-6.354723E-2,2.5136087E-2,-5.3516965E-2],"split_indices":[2,0,0,4,4,2,2,0,2,0,0,2,0,0,2,2,0,4,0,0,2,0,2,0,0,0,0,0,0],"split_type":[0,0,0,0,0,0,0,0,0,0,0,0,0,0,0,0,0,0,0,0,0,0,0,0,0,0,0,0,0],"sum_hessian":[1.4325785E3,6.63375E2,7.692035E2,6.2902374E2,1.4017976E2,4.2585452E2,2.0316922E2,8.43749E1,5.580487E1,4.2454788E2,1.3066524E0,5.888748E1,1.4428174E2,5.8447983E1,2.592692E1,1.4261063E1,4.1543808E1,3.6363003E0,5.5251183E1,1.2688058E1,1.3238862E1,7.508381E0,6.7526817E0,2.4288802E0,1.2074202E0,6.173053E0,7.0658092E0,1.3884954E0,5.3641863E0],"tree_param":{"num_deleted":"0","num_feature":"5","num_nodes":"29","size_leaf_vector":"1"}},{"base_weights":[-8.9395076E-1,-9.58965E-2,-8.2791203E-1,-8.57368E-1,-7.810124E-1,-8.612975E-2,-2.649607E-1,-7.390243E-1,-8.4875435E-1,1.4690863E-2,-5.9517156E-2,-8.428755E-2,-6.131095E-1,-4.9007025E-1,-9.644386E-2,-4.493806E-2,-6.4927304E-1,-6.7315674E-1,-3.002427E-1,-6.643914E-2,-2.5461793E-2,-7.324791E-2,-2.7875572E-3,3.958619E-2,-4.887065E-2],"categories":[],"categories_nodes":[],"categories_segments":[],"categories_sizes":[],"default_left":[0,0,0,0,0,0,0,0,0,0,0,0,0,0,0,0,0,0,0,0,0,0,0,0,0],"id":30,"left_children":[1,-1,3,5,7,-1,9,11,13,-1,-1,-1,15,17,-1,-1,19,21,23,-1,-1,-1,-1,-1,-1],"loss_changes":[4.8432617E0,0E0,2.4029541E-1,6.897583E-1,1.274414E-1,0E0,6.37269E-1,1.7262726E0,3.4606552E0,0E0,0E0,0E0,1.8901443E-1,6.719723E-1,0E0,0E0,2.1424675E-1,4.3882847E-1,2.0501714E0,0E0,0E0,0E0,0E0,0E0,0E0],"parents":[2147483647,0,0,2,2,3,3,4,4,6,6,7,7,8,8,12,12,13,13,16,16,17,17,18,18],"right_children":[2,-1,4,6,8,-1,10,12,14,-1,-1,-1,16,18,-1,-1,20,22,24,-1,-1,-1,-1,-1,-1],"split_conditions":[5.4E1,-9.58965E-2,1E0,1E2,1E0,-8.612975E-2,1.02E2,6.6E1,6.4E1,1.4690863E-2,-5.9517156E-2,-8.428755E-2,6.9E1,5.9E1,-9.644386E-2,-4.493806E-2,9.4E1,3E0,6E1,-6.643914E-2,-2.5461793E-2,-7.324791E-2,-2.7875572E-3,3.958619E-2,-4.887065E-2],"split_indices":[2,0,1,2,4,0,2,2,2,0,0,0,2,2,0,0,2,4,2,0,0,0,0,0,0],"split_type":[0,0,0,0,0,0,0,0,0,0,0,0,0,0,0,0,0,0,0,0,0,0,0,0,0],"sum_hessian":[1.3119675E3,6.542986E2,6.576689E2,3.9334332E2,2.643256E2,3.9030054E2,3.0427797E0,1.705339E2,9.379168E1,1.6009876E0,1.4417921E0,9.0334435E1,8.019947E1,2.4149952E1,6.964172E1,1.6938309E1,6.3261166E1,1.0997167E1,1.3152785E1,6.026893E1,2.9922361E0,9.947533E0,1.0496342E0,2.567835E0,1.058495E1],"tree_param":{"num_deleted":"0","num_feature":"5","num_nodes":"25","size_leaf_vector":"1"}},{"base_weights":[-8.814076E-1,-8.991602E-1,-7.7830756E-1,-9.19032E-2,-8.1527166E-2,-7.8205936E-2,-1.5685603E-2],"categories":[],"categories_nodes":[],"categories_segments":[],"categories_sizes":[],"default_left":[0,0,0,0,0,0,0],"id":31,"left_children":[1,3,5,-1,-1,-1,-1],"loss_changes":[1.501709E0,9.5062256E-1,3.0664062E-1,0E0,0E0,0E0,0E0],"parents":[2147483647,0,0,1,1,2,2],"right_children":[2,4,6,-1,-1,-1,-1],"split_conditions":[3E0,1E0,2.9E1,-9.19032E-2,-8.1527166E-2,-7.8205936E-2,-1.5685603E-2],"split_indices":[0,4,0,0,0,0,0],"split_type":[0,0,0,0,0,0,0],"sum_hessian":[1.2018392E3,1.01870886E3,1.8313039E2,8.155607E2,2.0314815E2,1.8177455E2,1.3558463E0],"tree_param":{"num_deleted":"0","num_feature":"5","num_nodes":"7","size_leaf_vector":"1"}},{"base_weights":[-8.721561E-1,-9.614521E-2,-7.957791E-1,-7.9707974E-1,-1.9952313E-3,-8.235154E-1,-7.2005576E-1,-8.348692E-1,-5.9688205E-1,-2.709653E-1,-7.5201786E-1,-8.3683664E-1,-4.2859633E-3,-3.6093214E-1,-9.0487175E-2,-3.796559E-1,4.4863448E-2,-7.137594E-1,-9.5708236E-2,-8.158578E-2,-9.4181634E-2,-5.401602E-2,3.592257E-3,-8.260711E-3,-7.872433E-2,-7.1882926E-2,-8.762646E-3],"categories":[],"categories_nodes":[],"categories_segments":[],"categories_sizes":[],"default_left":[0,0,0,0,0,0,0,0,0,0,0,0,0,0,0,0,0,0,0,0,0,0,0,0,0,0,0],"id":32,"left_children":[1,-1,3,5,-1,7,9,11,13,15,17,19,-1,21,-1,23,-1,25,-1,-1,-1,-1,-1,-1,-1,-1,-1],"loss_changes":[6.747986E0,0E0,5.890808E-1,6.257019E-1,0E0,6.303406E-1,2.1056366E0,6.111145E-1,1.4490213E0,1.1286964E0,4.9085236E-1,1.4364624E-1,0E0,1.1217768E0,0E0,1.28941E0,0E0,3.4981537E-1,0E0,0E0,0E0,0E0,0E0,0E0,0E0,0E0,0E0],"parents":[2147483647,0,0,2,2,3,3,5,5,6,6,7,7,8,8,9,9,10,10,11,11,13,13,15,15,17,17],"right_children":[2,-1,4,6,-1,8,10,12,14,16,18,20,-1,22,-1,24,-1,26,-1,-1,-1,-1,-1,-1,-1,-1,-1],"split_conditions":[5.2E1,-9.614521E-2,2.9E1,7.5E1,-1.9952313E-3,6E0,7.6E1,5E0,1E0,5E0,3E0,7E1,-4.2859633E-3,6.6E1,-9.0487175E-2,1E0,4.4863448E-2,1.4E1,-9.5708236E-2,-8.158578E-2,-9.4181634E-2,-5.401602E-2,3.592257E-3,-8.260711E-3,-7.872433E-2,-7.1882926E-2,-8.762646E-3],"split_indices":[2,0,0,2,0,0,2,4,4,0,4,2,0,2,0,0,0,0,0,0,0,0,0,0,0,0,0],"split_type":[0,0,0,0,0,0,0,0,0,0,0,0,0,0,0,0,0,0,0,0,0,0,0,0,0,0,0],"sum_hessian":[1.1005897E3,5.0204092E2,5.9854877E2,5.9751965E2,1.0291414E0,4.376283E2,1.5989136E2,4.1419434E2,2.3433956E1,1.1253216E1,1.4863815E2,4.131115E2,1.0828146E0,1.4498555E1,8.935402E0,1.0186954E1,1.0662622E0,1.2904344E2,1.9594711E1,3.516169E2,6.14946E1,9.739078E0,4.759477E0,6.5881777E0,3.5987759E0,1.2786009E2,1.1833484E0],"tree_param":{"num_deleted":"0","num_feature":"5","num_nodes":"27","size_leaf_vector":"1"}},{"base_weights":[-8.597523E-1,-8.764057E-1,-7.636844E-1,-9.024157E-2,-7.690626E-2,-7.682093E-1,-9.394954E-3,-7.162705E-1,-8.757572E-2,-7.253746E-2,-3.431635E-2],"categories":[],"categories_nodes":[],"categories_segments":[],"categories_sizes":[],"default_left":[0,0,0,0,0,0,0,0,0,0,0],"id":33,"left_children":[1,3,5,-1,-1,7,-1,9,-1,-1,-1],"loss_changes":[9.483032E-1,1.6929321E0,4.0406036E-1,0E0,0E0,2.4386597E-1,0E0,1.2695694E-1,0E0,0E0,0E0],"parents":[2147483647,0,0,1,1,2,2,5,5,7,7],"right_children":[2,4,6,-1,-1,8,-1,10,-1,-1,-1],"split_conditions":[3E0,1E0,2.9E1,-9.024157E-2,-7.690626E-2,1E0,-9.394954E-3,1.4E1,-8.757572E-2,-7.253746E-2,-3.431635E-2],"split_indices":[0,4,0,0,0,4,0,0,0,0,0],"split_type":[0,0,0,0,0,0,0,0,0,0,0],"sum_hessian":[1.01006055E3,8.5391205E2,1.5614844E2,6.813981E2,1.7251399E2,1.549545E2,1.1939422E0,1.0965715E2,4.5297348E1,1.06123535E2,3.5336187E0],"tree_param":{"num_deleted":"0","num_feature":"5","num_nodes":"11","size_leaf_vector":"1"}},{"base_weights":[-8.434472E-1,-9.4725204E-1,-7.562711E-1,-9.771588E-2,-8.702128E-1,-7.805018E-1,-6.451481E-1,-9.505994E-2,-7.415074E-2,-8.141843E-1,-7.0670635E-1,-5.3896344E-1,-7.952708E-1,-8.408538E-2,-6.8601197E-1,-4.563255E-1,-7.570406E-2,-6.1580336E-1,-3.535325E-1,-5.4388654E-1,-8.900104E-2,-6.8535544E-2,-7.3939955E-1,-5.3695446E-1,3.2434583E-2,-4.3407002E-1,-6.8461204E-1,-6.1523914E-2,-4.5673933E-2,-6.550855E-1,1.6026404E-2,1.8219795E-2,-5.3285457E-2,-8.38428E-2,-4.297349E-2,-9.456314E-3,-5.8049005E-2,-7.819536E-3,-7.364201E-2,-8.971085E-2,-5.5027734E-2,-5.6587826E-2,7.81528E-2,-8.217239E-2,-4.295526E-2],"categories":[],"categories_nodes":[],"categories_segments":[],"categories_sizes":[],"default_left":[0,0,0,0,0,0,0,0,0,0,0,0,0,0,0,0,0,0,0,0,0,0,0,0,0,0,0,0,0,0,0,0,0,0,0,0,0,0,0,0,0,0,0,0,0],"id":34,"left_children":[1,3,5,-1,7,9,11,-1,-1,13,15,17,19,-1,21,23,-1,25,27,29,-1,31,33,35,-1,37,39,41,-1,43,-1,-1,-1,-1,-1,-1,-1,-1,-1,-1,-1,-1,-1,-1,-1],"loss_changes":[7.7001343E0,1.187439E-1,8.709717E-1,0E0,6.06514E-1,4.5448303E-1,1.1200676E0,0E0,0E0,3.7313843E-1,1.386467E0,6.372986E-1,4.2443275E-1,0E0,1.7062969E0,1.7804952E0,0E0,2.165041E-1,5.724962E-1,1.1238871E0,0E0,7.1918535E-1,1.140892E0,3.9785385E-1,0E0,1.450321E0,3.074417E-1,3.1464446E0,0E0,7.676315E-2,0E0,0E0,0E0,0E0,0E0,0E0,0E0,0E0,0E0,0E0,0E0,0E0,0E0,0E0,0E0],"parents":[2147483647,0,0,1,1,2,2,4,4,5,5,6,6,9,9,10,10,11,11,12,12,14,14,15,15,17,17,18,18,19,19,21,21,22,22,23,23,25,25,26,26,27,27,29,29],"right_children":[2,4,6,-1,8,10,12,-1,-1,14,16,18,20,-1,22,24,-1,26,28,30,-1,32,34,36,-1,38,40,42,-1,44,-1,-1,-1,-1,-1,-1,-1,-1,-1,-1,-1,-1,-1,-1,-1],"split_conditions":[5.2E1,1E0,3E0,-9.771588E-2,4.2E1,1E0,1E0,-9.505994E-2,-7.415074E-2,7.5E1,6E1,6E0,6.6E1,-8.408538E-2,7.6E1,3E0,-7.570406E-2,6E1,7E0,3E0,-8.900104E-2,1E0,1E0,5.3E1,3.2434583E-2,4E0,6.6E1,7.2E1,-4.5673933E-2,5.9E1,1.6026404E-2,1.8219795E-2,-5.3285457E-2,-8.38428E-2,-4.297349E-2,-9.456314E-3,-5.8049005E-2,-7.819536E-3,-7.364201E-2,-8.971085E-2,-5.5027734E-2,-5.6587826E-2,7.81528E-2,-8.217239E-2,-4.295526E-2],"split_indices":[2,0,0,0,2,4,4,0,0,2,2,0,2,0,2,4,0,2,0,4,0,0,0,2,0,0,2,2,0,2,0,0,0,0,0,0,0,0,0,0,0,0,0,0,0],"split_type":[0,0,0,0,0,0,0,0,0,0,0,0,0,0,0,0,0,0,0,0,0,0,0,0,0,0,0,0,0,0,0,0,0,0,0,0,0,0,0,0,0,0,0,0,0],"sum_hessian":[9.2907837E2,4.195884E2,5.0948996E2,2.9383667E2,1.2575174E2,4.1333682E2,9.6153145E1,7.3475E1,5.227674E1,2.769125E2,1.3642432E2,5.9006718E1,3.7146423E1,2.2461526E2,5.2297237E1,2.451979E1,1.11904526E2,4.007803E1,1.892869E1,1.2012642E1,2.513378E1,4.343572E0,4.7953663E1,2.2507381E1,2.0124092E0,1.3014161E1,2.7063866E1,5.359865E0,1.3568826E1,1.0434511E1,1.5781306E0,3.2150426E0,1.1285298E0,3.504046E1,1.2913204E1,2.3006976E0,2.0206684E1,6.5560856E0,6.458076E0,8.283117E0,1.878075E1,3.5592961E0,1.8005687E0,4.480529E0,5.9539824E0],"tree_param":{"num_deleted":"0","num_feature":"5","num_nodes":"45","size_leaf_vector":"1"}},{"base_weights":[-8.3042437E-1,-9.392054E-1,-7.256107E-1,-9.799313E-2,-8.7283427E-1,-7.45306E-1,-5.880641E-1,-9.057004E-2,-5.0710756E-1,-7.488974E-1,-1.3276194E-1,-5.192107E-1,-6.845419E-1,-7.002954E-2,-3.3753824E-1,-7.748453E-1,-6.7477626E-1,2.7179047E-2,-5.2430518E-2,-5.4597723E-1,-2.791787E-3,-1.3387531E-2,-7.129257E-2,3.89771E-2,-4.690849E-1,-7.441103E-1,-9.15324E-2,-3.3823493E-1,-7.286544E-2,-6.561583E-1,-4.2874733E-1,-7.297104E-2,-2.5652781E-2,-7.579022E-2,-4.4172365E-2,-6.921883E-3,-8.299337E-2,-4.368242E-2,-7.918179E-2,3.318785E-2,-4.941523E-2],"categories":[],"categories_nodes":[],"categories_segments":[],"categories_sizes":[],"default_left":[0,0,0,0,0,0,0,0,0,0,0,0,0,0,0,0,0,0,0,0,0,0,0,0,0,0,0,0,0,0,0,0,0,0,0,0,0,0,0,0,0],"id":35,"left_children":[1,3,5,-1,7,9,11,-1,13,15,17,19,21,-1,23,25,27,-1,-1,29,-1,-1,-1,-1,31,33,-1,35,-1,37,39,-1,-1,-1,-1,-1,-1,-1,-1,-1,-1],"loss_changes":[9.085693E0,2.7172852E-1,7.555084E-1,0E0,1.5565948E0,7.403259E-1,4.272461E-2,0E0,2.910676E-1,2.0666504E-1,6.8748504E-1,4.9913883E-1,2.4561214E-1,0E0,1.1879088E0,5.0279236E-1,1.6772766E0,0E0,0E0,1.9711304E-1,0E0,0E0,0E0,0E0,3.3077192E-1,6.257782E-1,0E0,2.1260765E0,0E0,1.661706E-1,1.200352E0,0E0,0E0,0E0,0E0,0E0,0E0,0E0,0E0,0E0,0E0],"parents":[2147483647,0,0,1,1,2,2,4,4,5,5,6,6,8,8,9,9,10,10,11,11,12,12,14,14,15,15,16,16,19,19,24,24,25,25,27,27,29,29,30,30],"right_children":[2,4,6,-1,8,10,12,-1,14,16,18,20,22,-1,24,26,28,-1,-1,30,-1,-1,-1,-1,32,34,-1,36,-1,38,40,-1,-1,-1,-1,-1,-1,-1,-1,-1,-1],"split_conditions":[5.4E1,4.2E1,4E0,-9.799313E-2,4E0,1E2,7E0,-9.057004E-2,4.7E1,7.5E1,1.02E2,9.1E1,5.6E1,-7.002954E-2,4.8E1,7E1,7.7E1,2.7179047E-2,-5.2430518E-2,6.7E1,-2.791787E-3,-1.3387531E-2,-7.129257E-2,3.89771E-2,5E0,6.9E1,-9.15324E-2,1E0,-7.286544E-2,6E1,6.8E1,-7.297104E-2,-2.5652781E-2,-7.579022E-2,-4.4172365E-2,-6.921883E-3,-8.299337E-2,-4.368242E-2,-7.918179E-2,3.318785E-2,-4.941523E-2],"split_indices":[2,2,0,0,0,2,0,0,2,2,2,2,2,0,2,2,2,0,0,2,0,0,0,0,0,2,0,0,0,2,2,0,0,0,0,0,0,0,0,0,0],"split_type":[0,0,0,0,0,0,0,0,0,0,0,0,0,0,0,0,0,0,0,0,0,0,0,0,0,0,0,0,0,0,0,0,0,0,0,0,0,0,0,0,0],"sum_hessian":[8.556404E2,4.159673E2,4.3967307E2,2.4925682E2,1.6671048E2,3.807367E2,5.893638E1,1.516096E2,1.5100869E1,3.782961E2,2.4405599E0,3.811586E1,2.082052E1,5.5958037E0,9.505065E0,2.7320142E2,1.05094696E2,1.3507642E0,1.0897956E0,3.6040974E1,2.0748858E0,1.3007929E0,1.9519728E1,1.1551822E0,8.349883E0,2.2932486E2,4.3876568E1,1.550747E1,8.958723E1,1.6209206E1,1.9831768E1,2.657903E0,5.69198E0,2.1788087E2,1.1443987E1,1.0760827E1,4.7466426E0,7.8069468E0,8.402259E0,1.2476804E0,1.8584087E1],"tree_param":{"num_deleted":"0","num_feature":"5","num_nodes":"41","size_leaf_vector":"1"}},{"base_weights":[-8.025891E-1,-9.1921973E-1,-6.93059E-1,-9.725785E-2,-8.349796E-1,-7.176221E-1,-5.256467E-1,-8.675574E-2,-4.8764616E-1,-6.521684E-1,-7.474757E-1,-4.5050964E-1,-6.449085E-1,-6.821151E-2,-3.2225403E-1,-7.788515E-1,-5.0566053E-1,-7.910804E-2,-6.8225837E-1,-5.1415855E-1,8.159816E-2,-3.994619E-1,-8.147819E-1,3.7447467E-2,-4.537804E-1,-7.975985E-2,-4.0753233E-1,-5.418743E-1,-2.1512469E-3,-5.947172E-1,-7.551956E-2,-5.515442E-1,2.5630658E-2,-6.2359627E-2,-2.7990878E-1,-8.991771E-2,-2.225558E-3,-7.148453E-2,-2.482835E-2,-1.8171134E-3,-6.68242E-2,-6.630371E-2,-4.8449244E-2,-6.792118E-2,1.3783105E-2,-6.3695684E-2,-3.8585216E-2,4.0172823E-2,-4.444879E-2],"categories":[],"categories_nodes":[],"categories_segments":[],"categories_sizes":[],"default_left":[0,0,0,0,0,0,0,0,0,0,0,0,0,0,0,0,0,0,0,0,0,0,0,0,0,0,0,0,0,0,0,0,0,0,0,0,0,0,0,0,0,0,0,0,0,0,0,0,0],"id":36,"left_children":[1,3,5,-1,7,9,11,-1,13,15,17,19,21,-1,23,25,27,-1,29,31,-1,33,35,-1,37,-1,39,41,-1,43,-1,45,-1,-1,47,-1,-1,-1,-1,-1,-1,-1,-1,-1,-1,-1,-1,-1,-1],"loss_changes":[9.446075E0,8.9245605E-1,1.3133545E0,0E0,1.3208237E0,2.077179E-1,2.1432114E-1,0E0,2.7869987E-1,1.8200798E0,1.3563538E-1,3.4731832E0,4.858389E-1,0E0,1.1111752E0,1.07372284E-1,1.0081339E0,0E0,2.0489502E-1,1.1979675E0,0E0,9.1282845E-2,6.8480825E-1,0E0,3.1030345E-1,0E0,4.9848092E-1,5.47266E-2,0E0,3.2664642E0,0E0,2.538271E-1,0E0,0E0,1.1079038E0,0E0,0E0,0E0,0E0,0E0,0E0,0E0,0E0,0E0,0E0,0E0,0E0,0E0,0E0],"parents":[2147483647,0,0,1,1,2,2,4,4,5,5,6,6,8,8,9,9,10,10,11,11,12,12,14,14,15,15,16,16,18,18,19,19,21,21,22,22,24,24,26,26,27,27,29,29,31,31,34,34],"right_children":[2,4,6,-1,8,10,12,-1,14,16,18,20,22,-1,24,26,28,-1,30,32,-1,34,36,-1,38,-1,40,42,-1,44,-1,46,-1,-1,48,-1,-1,-1,-1,-1,-1,-1,-1,-1,-1,-1,-1,-1,-1],"split_conditions":[5.4E1,4.2E1,4E0,-9.725785E-2,4E0,6.2E1,7.6E1,-8.675574E-2,4.7E1,5.8E1,7.5E1,7.5E1,6E0,-6.821151E-2,4.8E1,3E0,3E0,-7.910804E-2,8.3E1,1.7E1,8.159816E-2,7.9E1,9.4E1,3.7447467E-2,5E0,-7.975985E-2,5.6E1,5.9E1,-2.1512469E-3,8.2E1,-7.551956E-2,6.6E1,2.5630658E-2,-6.2359627E-2,8.1E1,-8.991771E-2,-2.225558E-3,-7.148453E-2,-2.482835E-2,-1.8171134E-3,-6.68242E-2,-6.630371E-2,-4.8449244E-2,-6.792118E-2,1.3783105E-2,-6.3695684E-2,-3.8585216E-2,4.0172823E-2,-4.444879E-2],"split_indices":[2,2,0,0,0,2,2,0,2,2,2,2,0,0,2,0,0,0,2,0,0,2,2,0,0,0,2,2,0,2,0,2,0,0,2,0,0,0,0,0,0,0,0,0,0,0,0,0,0],"split_type":[0,0,0,0,0,0,0,0,0,0,0,0,0,0,0,0,0,0,0,0,0,0,0,0,0,0,0,0,0,0,0,0,0,0,0,0,0,0,0,0,0,0,0,0,0,0,0,0,0],"sum_hessian":[7.8831635E2,3.782031E2,4.1011322E2,2.2508559E2,1.5311752E2,3.547736E2,5.533964E1,1.3861821E2,1.4499314E1,1.18283585E2,2.3649E2,3.688128E1,1.845836E1,5.2279897E0,9.271324E0,6.1118896E1,5.7164684E1,1.35059E2,1.01431E2,3.5682068E1,1.1992122E0,8.920639E0,9.537721E0,1.1789551E0,8.092369E0,5.708863E1,4.0302677E0,5.3075466E1,4.0892186E0,5.0260674E1,5.1170326E1,3.430177E1,1.3802989E0,1.6365069E0,7.284132E0,8.498188E0,1.0395323E0,2.4725742E0,5.619795E0,2.0453317E0,1.9849362E0,1.3665573E1,3.9409893E1,4.5128242E1,5.1324296E0,2.075734E1,1.354443E1,1.1364317E0,6.1477003E0],"tree_param":{"num_deleted":"0","num_feature":"5","num_nodes":"49","size_leaf_vector":"1"}},{"base_weights":[-7.99935E-1,-9.2832345E-1,-6.822975E-1,-9.3518876E-2,-6.047451E-1,-6.868408E-1,-1.9051988E-1,-7.6739156E-1,1.7282495E-2,-6.900026E-1,-1.5009981E-1,2.0500189E-2,-4.212242E-1,-3.3053268E-2,-8.493343E-2,-6.984115E-1,-5.313187E-1,2.4425775E-2,-5.283015E-2,-5.7547744E-2,-4.7968603E-3,-5.094862E-1,-7.053218E-1,-3.7580857E-1,-7.641225E-2,-5.8442988E-2,4.1266955E-3,-8.5251324E-2,-6.799679E-2,-4.9051736E-2,2.1452693E-2],"categories":[],"categories_nodes":[],"categories_segments":[],"categories_sizes":[],"default_left":[0,0,0,0,0,0,0,0,0,0,0,0,0,0,0,0,0,0,0,0,0,0,0,0,0,0,0,0,0,0,0],"id":37,"left_children":[1,3,5,-1,7,9,11,13,-1,15,17,-1,19,-1,-1,21,23,-1,-1,-1,-1,25,27,29,-1,-1,-1,-1,-1,-1,-1],"loss_changes":[1.0408569E1,2.0483398E-1,7.30011E-1,0E0,1.4017675E0,5.4367065E-1,5.344546E-1,2.2938251E-2,0E0,1.3446045E-1,6.527735E-1,0E0,1.6982263E-1,0E0,0E0,1.0623169E-1,5.544362E-1,0E0,0E0,0E0,0E0,6.9218063E-1,6.9451904E-1,1.1822379E0,0E0,0E0,0E0,0E0,0E0,0E0,0E0],"parents":[2147483647,0,0,1,1,2,2,4,4,5,5,6,6,7,7,9,9,10,10,12,12,15,15,16,16,21,21,22,22,23,23],"right_children":[2,4,6,-1,8,10,12,14,-1,16,18,-1,20,-1,-1,22,24,-1,-1,-1,-1,26,28,30,-1,-1,-1,-1,-1,-1,-1],"split_conditions":[5.4E1,7E0,1.4E1,-9.3518876E-2,5.1E1,1E2,6.7E1,8E0,1.7282495E-2,6E0,1.02E2,2.0500189E-2,8.1E1,-3.3053268E-2,-8.493343E-2,5.5E1,7.6E1,2.4425775E-2,-5.283015E-2,-5.7547744E-2,-4.7968603E-3,3E0,5.8E1,7.2E1,-7.641225E-2,-5.8442988E-2,4.1266955E-3,-8.5251324E-2,-6.799679E-2,-4.9051736E-2,2.1452693E-2],"split_indices":[2,0,0,0,2,2,2,0,0,0,2,0,2,0,0,2,2,0,0,0,0,0,2,2,0,0,0,0,0,0,0],"split_type":[0,0,0,0,0,0,0,0,0,0,0,0,0,0,0,0,0,0,0,0,0,0,0,0,0,0,0,0,0,0,0],"sum_hessian":[7.3009515E2,3.4580035E2,3.842948E2,3.3676514E2,9.035212E0,3.80384E2,3.910793E0,7.483051E0,1.5521606E0,3.778725E2,2.511521E0,1.4817959E0,2.428997E0,1.9769733E0,5.506078E0,3.55626E2,2.2246479E1,1.4028767E0,1.1086444E0,1.3353614E0,1.0936357E0,1.5185501E1,3.4044052E2,1.49046335E1,7.341846E0,1.3312816E1,1.8726857E0,4.5230587E1,2.9520993E2,1.2621267E1,2.283366E0],"tree_param":{"num_deleted":"0","num_feature":"5","num_nodes":"31","size_leaf_vector":"1"}},{"base_weights":[-7.855188E-1,-9.175385E-1,-6.673373E-1,-9.6567385E-2,-8.403047E-1,-6.974219E-1,-5.40253E-1,-8.737587E-2,-5.022859E-1,-7.020731E-1,-6.1614527E-3,-4.0716007E-1,-7.28637E-1,-5.903189E-1,-2.4558622E-1,-7.227118E-1,-5.729075E-1,-6.822617E-1,-1.4596052E-1,-3.8343978E-1,-8.565768E-2,-2.2371547E-2,-7.105238E-2,4.2583354E-2,-5.9486236E-2,-6.5646994E-1,-7.7954656E-1,1.0158708E-1,-6.507852E-1,-5.15329E-1,-8.850127E-2,7.069727E-2,-3.0248812E-1,-5.262404E-1,3.0504841E-2,-1.4062791E-2,1.9541783E-2,-7.305848E-2,-3.8595337E-2,-8.229295E-2,-6.558472E-2,1.8587528E-2,-1.0338578E-2,-5.1942576E-2,-7.3189996E-2,-6.0472813E-2,6.801965E-3,-7.151048E-2,-9.754856E-3,-7.320003E-2,-3.0013729E-2],"categories":[],"categories_nodes":[],"categories_segments":[],"categories_sizes":[],"default_left":[0,0,0,0,0,0,0,0,0,0,0,0,0,0,0,0,0,0,0,0,0,0,0,0,0,0,0,0,0,0,0,0,0,0,0,0,0,0,0,0,0,0,0,0,0,0,0,0,0,0,0],"id":38,"left_children":[1,3,5,-1,7,9,11,-1,13,15,-1,17,19,21,23,25,27,29,31,33,-1,-1,-1,35,-1,37,39,41,43,45,-1,-1,47,49,-1,-1,-1,-1,-1,-1,-1,-1,-1,-1,-1,-1,-1,-1,-1,-1,-1],"loss_changes":[9.91095E0,3.630066E-1,9.978943E-1,0E0,1.019844E0,8.0633545E-1,1.5401821E0,0E0,1.7070675E-1,3.4599304E-1,0E0,3.1481428E0,9.5515347E-1,2.6804495E-1,5.567372E-1,3.993683E-1,2.3828163E0,2.7976036E-1,3.4790025E0,1.1112063E0,0E0,0E0,0E0,1.3461602E-1,0E0,2.085598E0,1.3063812E-1,1.1303277E-1,4.25663E-2,7.8780675E-1,0E0,0E0,1.7368778E0,1.6995049E-1,0E0,0E0,0E0,0E0,0E0,0E0,0E0,0E0,0E0,0E0,0E0,0E0,0E0,0E0,0E0,0E0,0E0],"parents":[2147483647,0,0,1,1,2,2,4,4,5,5,6,6,8,8,9,9,11,11,12,12,13,13,14,14,15,15,16,16,17,17,18,18,19,19,23,23,25,25,26,26,27,27,28,28,29,29,32,32,33,33],"right_children":[2,4,6,-1,8,10,12,-1,14,16,-1,18,20,22,24,26,28,30,32,34,-1,-1,-1,36,-1,38,40,42,44,46,-1,-1,48,50,-1,-1,-1,-1,-1,-1,-1,-1,-1,-1,-1,-1,-1,-1,-1,-1,-1],"split_conditions":[5.4E1,4.2E1,3E0,-9.6567385E-2,4E0,1E2,1E0,-8.737587E-2,5.1E1,8.2E1,-6.1614527E-3,6.6E1,6.6E1,5E0,5.3E1,6.4E1,8.3E1,6.1E1,6.8E1,3E0,-8.565768E-2,-2.2371547E-2,-7.105238E-2,5.2E1,-5.9486236E-2,1E0,7.5E1,1E0,1E0,6E1,-8.850127E-2,7.069727E-2,4E0,5.9E1,3.0504841E-2,-1.4062791E-2,1.9541783E-2,-7.305848E-2,-3.8595337E-2,-8.229295E-2,-6.558472E-2,1.8587528E-2,-1.0338578E-2,-5.1942576E-2,-7.3189996E-2,-6.0472813E-2,6.801965E-3,-7.151048E-2,-9.754856E-3,-7.320003E-2,-3.0013729E-2],"split_indices":[2,2,0,0,0,2,4,0,2,2,0,2,2,0,2,2,2,2,2,4,0,0,0,2,0,4,2,0,4,2,0,0,0,2,0,0,0,0,0,0,0,0,0,0,0,0,0,0,0,0,0],"split_type":[0,0,0,0,0,0,0,0,0,0,0,0,0,0,0,0,0,0,0,0,0,0,0,0,0,0,0,0,0,0,0,0,0,0,0,0,0,0,0,0,0,0,0,0,0,0,0,0,0,0,0],"sum_hessian":[6.7346686E2,3.149144E2,3.5855246E2,1.8691696E2,1.2799745E2,2.86291E2,7.226147E1,1.15028076E2,1.2969377E1,2.841084E2,2.182586E0,4.419742E1,2.8064053E1,8.689675E0,4.2797017E0,2.4100433E2,4.310406E1,2.0740738E1,2.345668E1,8.669558E0,1.9394495E1,2.8521729E0,5.8375025E0,2.826108E0,1.4535936E0,1.170874E2,1.2391693E2,4.430169E0,3.8673893E1,1.331756E1,7.423178E0,3.0919204E0,2.036476E1,7.375458E0,1.2940996E0,1.3216453E0,1.5044626E0,9.057217E1,2.6515238E1,8.7556915E1,3.636002E1,3.205278E0,1.2248913E0,1.759067E1,2.1083223E1,1.1516057E1,1.8015038E0,5.932058E0,1.4432701E1,2.690012E0,4.685446E0],"tree_param":{"num_deleted":"0","num_feature":"5","num_nodes":"51","size_leaf_vector":"1"}},{"base_weights":[-7.5375104E-1,-7.8594524E-1,-5.8854645E-1,-8.1699304E-2,-6.6648495E-1,-5.1566625E-1,-7.468972E-2,-6.707E-2,-2.2577526E-2,-5.7936143E-2,-3.6250228E-1,-1.9686149E-1,-4.8730027E-2,-2.5194017E-2,-7.923777E-3],"categories":[],"categories_nodes":[],"categories_segments":[],"categories_sizes":[],"default_left":[0,0,0,0,0,0,0,0,0,0,0,0,0,0,0],"id":39,"left_children":[1,3,5,-1,7,9,-1,-1,-1,-1,11,13,-1,-1,-1],"loss_changes":[2.8631287E0,1.385376E0,8.377228E-1,0E0,5.804825E-2,5.2941895E-1,0E0,0E0,0E0,0E0,4.1949177E-1,6.0316175E-2,0E0,0E0,0E0],"parents":[2147483647,0,0,1,1,2,2,4,4,5,5,10,10,11,11],"right_children":[2,4,6,-1,8,10,-1,-1,-1,-1,12,14,-1,-1,-1],"split_conditions":[3E0,1E0,1E0,-8.1699304E-2,5E0,6E0,-7.468972E-2,-6.707E-2,-2.2577526E-2,-5.7936143E-2,8E0,7E0,-4.8730027E-2,-2.5194017E-2,-7.923777E-3],"split_indices":[0,4,4,0,4,0,0,0,0,0,0,0,0,0,0],"split_type":[0,0,0,0,0,0,0,0,0,0,0,0,0,0,0],"sum_hessian":[6.2429456E2,5.193324E2,1.0496214E2,4.075666E2,1.1176581E2,7.47947E1,3.0167442E1,1.1019007E2,1.5757419E0,5.0860905E1,2.3933796E1,1.1391555E1,1.254224E1,6.9807987E0,4.410756E0],"tree_param":{"num_deleted":"0","num_feature":"5","num_nodes":"15","size_leaf_vector":"1"}},{"base_weights":[-7.4112284E-1,-9.168475E-1,-6.108112E-1,-9.708505E-2,-8.0926293E-1,-6.252121E-1,-4.0779874E-1,-8.939598E-2,-6.4602745E-1,-6.5485865E-1,-5.40086E-1,-1.3406159E-1,-5.0698596E-1,-5.177496E-1,-8.353343E-2,-6.1691916E-1,-8.543858E-2,-2.1075909E-1,-5.645737E-1,-4.126207E-2,2.5598294E-1,-3.0512854E-3,-6.0386736E-2,-5.861418E-1,-2.7505168E-1,-6.256893E-1,-3.864275E-1,1.19417375E-2,-6.924767E-2,-4.947845E-1,-6.552804E-1,5.4918773E-2,-1.6672488E-2,4.0908577E-4,-6.653169E-2,-5.961884E-2,3.54639E-2,-5.8206256E-2,-6.9296286E-2,-2.1188369E-2,-6.8451606E-2,-5.939616E-2,-2.9667819E-2,-7.056337E-2,-4.524963E-2],"categories":[],"categories_nodes":[],"categories_segments":[],"categories_sizes":[],"default_left":[0,0,0,0,0,0,0,0,0,0,0,0,0,0,0,0,0,0,0,0,0,0,0,0,0,0,0,0,0,0,0,0,0,0,0,0,0,0,0,0,0,0,0,0,0],"id":40,"left_children":[1,3,5,-1,7,9,11,-1,13,15,17,19,21,23,-1,25,-1,27,29,-1,31,-1,-1,33,35,37,39,-1,-1,41,43,-1,-1,-1,-1,-1,-1,-1,-1,-1,-1,-1,-1,-1,-1],"loss_changes":[1.2730743E1,6.3861084E-1,7.281265E-1,0E0,6.382446E-1,4.3400574E-1,6.148567E-1,0E0,3.8455582E-1,1.1896896E0,5.771942E-1,9.800846E-1,8.171196E-1,2.1533728E-1,0E0,1.5068817E-1,0E0,1.2867858E0,1.8066788E-1,0E0,5.836447E-1,0E0,0E0,7.884865E-1,1.6009836E0,1.4084625E-1,3.6129928E-1,0E0,0E0,7.896347E-1,3.3493042E-3,0E0,0E0,0E0,0E0,0E0,0E0,0E0,0E0,0E0,0E0,0E0,0E0,0E0,0E0],"parents":[2147483647,0,0,1,1,2,2,4,4,5,5,6,6,8,8,9,9,10,10,11,11,12,12,13,13,15,15,17,17,18,18,20,20,23,23,24,24,25,25,26,26,29,29,30,30],"right_children":[2,4,6,-1,8,10,12,-1,14,16,18,20,22,24,-1,26,-1,28,30,-1,32,-1,-1,34,36,38,40,-1,-1,42,44,-1,-1,-1,-1,-1,-1,-1,-1,-1,-1,-1,-1,-1,-1],"split_conditions":[5.2E1,4.2E1,6E0,-9.708505E-2,1E0,7.5E1,7E0,-8.939598E-2,4.9E1,7E1,7.6E1,7.2E1,5.8E1,4E0,-8.353343E-2,6.9E1,-8.543858E-2,1E0,8.6E1,-4.126207E-2,8.2E1,-3.0512854E-3,-6.0386736E-2,4.3E1,4.7E1,6.2E1,2E0,1.19417375E-2,-6.924767E-2,8.2E1,9.4E1,5.4918773E-2,-1.6672488E-2,4.0908577E-4,-6.653169E-2,-5.961884E-2,3.54639E-2,-5.8206256E-2,-6.9296286E-2,-2.1188369E-2,-6.8451606E-2,-5.939616E-2,-2.9667819E-2,-7.056337E-2,-4.524963E-2],"split_indices":[2,2,0,0,0,2,0,0,2,2,2,2,2,0,0,2,0,0,2,0,2,0,0,2,2,2,0,0,0,2,2,0,0,0,0,0,0,0,0,0,0,0,0,0,0],"split_type":[0,0,0,0,0,0,0,0,0,0,0,0,0,0,0,0,0,0,0,0,0,0,0,0,0,0,0,0,0,0,0,0,0,0,0,0,0,0,0,0,0,0,0,0,0],"sum_hessian":[5.794091E2,2.4414491E2,3.3526422E2,1.572086E2,8.69363E1,3.111153E2,2.4148926E1,5.42905E1,3.26458E1,2.25788E2,8.532729E1,7.048385E0,1.7100542E1,2.1685965E1,1.0959837E1,1.9315251E2,3.2635483E1,6.5704393E0,7.875686E1,4.078063E0,2.970322E0,3.1117187E0,1.3988823E1,1.581437E1,5.871594E0,1.8442079E2,8.731726E0,4.344651E0,2.225788E0,4.8158665E1,3.0598192E1,1.5771456E0,1.3931764E0,1.9826306E0,1.383174E1,3.9237301E0,1.9478636E0,1.17727165E2,6.6693634E1,6.5860915E0,2.1456347E0,3.0760817E1,1.7397846E1,2.2525225E1,8.072968E0],"tree_param":{"num_deleted":"0","num_feature":"5","num_nodes":"45","size_leaf_vector":"1"}},{"base_weights":[-7.238434E-1,-7.526585E-1,-5.793259E-1,-7.938423E-1,-5.999127E-1,-5.007421E-2,-7.5034106E-1,-8.068811E-2,-6.485285E-2,-5.6367546E-1,-8.2826935E-2,-7.714806E-2,-2.8491367E-2,-5.685229E-2,-1.3615939E-2],"categories":[],"categories_nodes":[],"categories_segments":[],"categories_sizes":[],"default_left":[0,0,0,0,0,0,0,0,0,0,0,0,0,0,0],"id":41,"left_children":[1,3,5,7,9,-1,11,-1,-1,13,-1,-1,-1,-1,-1],"loss_changes":[1.8179932E0,2.341629E0,8.918991E-1,1.39328E-1,3.541832E-1,0E0,5.2643776E-2,0E0,0E0,1.06536865E-1,0E0,0E0,0E0,0E0,0E0],"parents":[2147483647,0,0,1,1,2,2,3,3,4,4,6,6,9,9],"right_children":[2,4,6,8,10,-1,12,-1,-1,14,-1,-1,-1,-1,-1],"split_conditions":[3E0,1E0,1E0,2E0,2E0,-5.007421E-2,4E0,-8.068811E-2,-6.485285E-2,5E0,-8.2826935E-2,-7.714806E-2,-2.8491367E-2,-5.685229E-2,-1.3615939E-2],"split_indices":[0,4,4,0,0,0,4,0,0,4,0,0,0,0,0],"split_type":[0,0,0,0,0,0,0,0,0,0,0,0,0,0,0],"sum_hessian":[5.40272E2,4.4694775E2,9.332423E1,3.4872604E2,9.822171E1,6.663332E1,2.6690903E1,3.158341E2,3.289195E1,8.776322E1,1.0458489E1,2.4902279E1,1.788622E0,8.645313E1,1.3100909E0],"tree_param":{"num_deleted":"0","num_feature":"5","num_nodes":"15","size_leaf_vector":"1"}},{"base_weights":[-7.1276826E-1,-8.749664E-1,-5.7656014E-1,-9.449361E-2,-7.550138E-1,-5.8053404E-1,-4.2140274E-3,-7.9994746E-2,-3.5813668E-1,-5.6834537E-1,-8.2097363E-1,-2.2860855E-2,-4.882236E-1,-5.7189435E-1,-1.353463E-2,-9.018752E-2,-3.998127E-3,7.090675E-2,-6.376579E-2,-6.7092285E-2,9.183756E-3,-6.9232893E-1,-5.5064636E-1,-3.7458554E-2,-8.339201E-2,-3.835854E-2,-6.0227174E-2],"categories":[],"categories_nodes":[],"categories_segments":[],"categories_sizes":[],"default_left":[0,0,0,0,0,0,0,0,0,0,0,0,0,0,0,0,0,0,0,0,0,0,0,0,0,0,0],"id":42,"left_children":[1,3,5,-1,7,9,-1,-1,11,13,15,17,19,21,-1,-1,-1,-1,-1,-1,-1,23,25,-1,-1,-1,-1],"loss_changes":[1.0623474E1,1.1999817E0,5.632019E-1,0E0,1.3000412E0,3.381424E-1,0E0,0E0,4.6244156E-1,3.2919312E-1,6.5887403E-1,2.2901404E0,8.854953E-1,2.8956604E-1,0E0,0E0,0E0,0E0,0E0,0E0,0E0,1.2813969E0,1.7328568E0,0E0,0E0,0E0,0E0],"parents":[2147483647,0,0,1,1,2,2,4,4,5,5,8,8,9,9,10,10,11,11,12,12,13,13,21,21,22,22],"right_children":[2,4,6,-1,8,10,-1,-1,12,14,16,18,20,22,-1,-1,-1,-1,-1,-1,-1,24,26,-1,-1,-1,-1],"split_conditions":[5.4E1,4.3E1,1E2,-9.449361E-2,4E0,9.2E1,-4.2140274E-3,-7.9994746E-2,5E0,9.1E1,6E0,4.8E1,5.2E1,5.7E1,-1.353463E-2,-9.018752E-2,-3.998127E-3,7.090675E-2,-6.376579E-2,-6.7092285E-2,9.183756E-3,5.5E1,6.2E1,-3.7458554E-2,-8.339201E-2,-3.835854E-2,-6.0227174E-2],"split_indices":[2,2,2,0,0,2,0,0,0,2,0,2,2,2,0,0,0,0,0,0,0,2,2,0,0,0,0],"split_type":[0,0,0,0,0,0,0,0,0,0,0,0,0,0,0,0,0,0,0,0,0,0,0,0,0,0,0],"sum_hessian":[5.0269223E2,2.2697913E2,2.757131E2,1.3901341E2,8.796571E1,2.735924E2,2.1206846E0,7.8107E1,9.858709E0,2.6359378E2,9.998643E0,3.084555E0,6.7741547E0,2.611327E2,2.461084E0,8.919868E0,1.0787741E0,1.3381382E0,1.7464168E0,5.032462E0,1.7416927E0,3.4425262E1,2.2670743E2,1.1735433E1,2.268983E1,5.5509026E1,1.7119841E2],"tree_param":{"num_deleted":"0","num_feature":"5","num_nodes":"27","size_leaf_vector":"1"}},{"base_weights":[-6.687596E-1,-8.813176E-1,-5.220694E-1,-9.3584135E-2,-7.7512705E-1,-5.6713116E-1,-4.3247262E-1,-8.641796E-2,-6.085731E-1,-6.3323444E-1,-3.0081075E-1,-3.90912E-2,-5.975157E-1,-4.780509E-1,-7.9928964E-2,-6.8672436E-1,-4.0346217E-1,-3.4924442E-1,4.5774337E-2,-1.8880555E-1,1.2168379E-1,-4.727464E-1,-7.5777763E-1,-5.6158715E-1,-2.2781366E-1,-6.567598E-1,-8.598953E-2,-4.7271323E-1,7.961419E-2,-2.561976E-2,-6.392165E-2,-3.1725502E-1,6.771183E-2,-1.2702146E-1,4.2978102E-1,-7.1878724E-2,-2.7950934E-1,-4.0269694E-1,-8.280722E-2,-2.9143168E-2,-6.683607E-2,-3.479054E-2,4.373513E-3,-6.725301E-2,-2.1981366E-2,-5.2064378E-2,1.8889194E-2,4.76632E-2,-3.160676E-2,-1.5870482E-2,-5.9617907E-2,1.6376523E-2,-5.184859E-2,7.000087E-2,2.4066461E-2,4.0105276E-2,-4.0120304E-2,-6.3299E-2,3.2917794E-2],"categories":[],"categories_nodes":[],"categories_segments":[],"categories_sizes":[],"default_left":[0,0,0,0,0,0,0,0,0,0,0,0,0,0,0,0,0,0,0,0,0,0,0,0,0,0,0,0,0,0,0,0,0,0,0,0,0,0,0,0,0,0,0,0,0,0,0,0,0,0,0,0,0,0,0,0,0,0,0],"id":43,"left_children":[1,3,5,-1,7,9,11,-1,13,15,17,19,21,23,-1,25,27,29,-1,31,33,35,37,39,41,43,-1,45,47,-1,-1,49,-1,51,53,-1,55,57,-1,-1,-1,-1,-1,-1,-1,-1,-1,-1,-1,-1,-1,-1,-1,-1,-1,-1,-1,-1,-1],"loss_changes":[1.4209244E1,3.7846375E-1,8.884964E-1,0E0,5.1979065E-1,3.0423393E0,6.351223E0,0E0,3.135023E-1,1.5199738E0,1.5714378E0,7.472122E-1,1.0233841E0,2.7087307E-1,0E0,4.3296814E-2,1.0423994E0,8.2596016E-1,0E0,1.9913477E0,1.2128891E0,1.7725716E0,3.8008118E-1,1.9811773E-1,2.2579688E-1,5.696831E-1,0E0,9.359312E-1,8.766696E-1,0E0,0E0,5.5059385E-1,0E0,1.1249146E0,1.8824756E-1,0E0,2.2219005E0,1.3327044E0,0E0,0E0,0E0,0E0,0E0,0E0,0E0,0E0,0E0,0E0,0E0,0E0,0E0,0E0,0E0,0E0,0E0,0E0,0E0,0E0,0E0],"parents":[2147483647,0,0,1,1,2,2,4,4,5,5,6,6,8,8,9,9,10,10,11,11,12,12,13,13,15,15,16,16,17,17,19,19,20,20,21,21,22,22,23,23,24,24,25,25,27,27,28,28,31,31,33,33,34,34,36,36,37,37],"right_children":[2,4,6,-1,8,10,12,-1,14,16,18,20,22,24,-1,26,28,30,-1,32,34,36,38,40,42,44,-1,46,48,-1,-1,50,-1,52,54,-1,56,58,-1,-1,-1,-1,-1,-1,-1,-1,-1,-1,-1,-1,-1,-1,-1,-1,-1,-1,-1,-1,-1],"split_conditions":[5.2E1,4.2E1,1E0,-9.3584135E-2,1E0,3E0,6.4E1,-8.641796E-2,4.9E1,7.5E1,9.1E1,5.9E1,1E0,4.7E1,-7.9928964E-2,7E1,2E0,7.6E1,4.5774337E-2,3E0,1E0,7.5E1,6.9E1,2E0,4E0,6.9E1,-8.598953E-2,9.7E1,8.2E1,-2.561976E-2,-6.392165E-2,2E0,6.771183E-2,2E0,6E1,-7.1878724E-2,7.7E1,6.8E1,-8.280722E-2,-2.9143168E-2,-6.683607E-2,-3.479054E-2,4.373513E-3,-6.725301E-2,-2.1981366E-2,-5.2064378E-2,1.8889194E-2,4.76632E-2,-3.160676E-2,-1.5870482E-2,-5.9617907E-2,1.6376523E-2,-5.184859E-2,7.000087E-2,2.4066461E-2,4.0105276E-2,-4.0120304E-2,-6.3299E-2,3.2917794E-2],"split_indices":[2,2,4,0,0,0,2,0,2,2,2,2,0,2,0,2,0,2,0,4,0,2,2,0,0,2,0,2,2,0,0,4,0,4,2,0,2,2,0,0,0,0,0,0,0,0,0,0,0,0,0,0,0,0,0,0,0,0,0],"split_type":[0,0,0,0,0,0,0,0,0,0,0,0,0,0,0,0,0,0,0,0,0,0,0,0,0,0,0,0,0,0,0,0,0,0,0,0,0,0,0,0,0,0,0,0,0,0,0,0,0,0,0,0,0,0,0,0,0,0,0],"sum_hessian":[4.694702E2,1.8965172E2,2.7981848E2,1.2014845E2,6.950327E1,1.8263452E2,9.7183975E1,4.2559254E1,2.694402E1,1.4521344E2,3.7421078E1,2.9088402E1,6.809557E1,1.8078262E1,8.865756E0,1.1617881E2,2.9034626E1,3.5682354E1,1.7387255E0,1.4972034E1,1.4116368E1,4.0508324E1,2.7587246E1,1.2620847E1,5.4574156E0,1.0312684E2,1.305197E1,2.5413015E1,3.6216123E0,2.8439997E1,7.242358E0,1.3589776E1,1.3822583E0,8.13626E0,5.9801083E0,1.6623098E1,2.3885225E1,5.6708174E0,2.191643E1,4.6315804E0,7.989266E0,3.589001E0,1.8684146E0,9.901408E1,4.1127696E0,2.3894981E1,1.5180327E0,1.7056346E0,1.9159777E0,9.664899E0,3.9248774E0,5.0021987E0,3.134061E0,1.3498471E0,4.6302614E0,3.274918E0,2.0610308E1,4.4162908E0,1.2545265E0],"tree_param":{"num_deleted":"0","num_feature":"5","num_nodes":"59","size_leaf_vector":"1"}},{"base_weights":[-6.681484E-1,-8.4596974E-1,-5.276845E-1,-9.2931634E-1,-7.2473234E-1,-4.7749647E-1,-5.941407E-1,-9.368878E-2,-4.314974E-2,-7.69694E-1,-3.506817E-1,-5.784897E-1,-4.1779342E-1,-7.863351E-2,-5.161221E-1,-8.2330376E-2,-6.2380475E-1,-4.6973262E-2,-4.727014E-1,-3.2569367E-1,-6.3718146E-1,1.1137044E-1,-4.854619E-1,-2.8409295E-2,-5.588945E-1,1.5316977E-2,-6.8664736E-1,5.2438427E-2,-6.1199028E-2,-8.0601245E-2,1.5714573E-2,-3.8315052E-1,-4.3643024E-3,-7.6036125E-2,-4.8849043E-1,-2.5745563E-2,6.4293675E-2,-5.000128E-1,1.9212058E-2,2.564649E-3,-9.899254E-3,-5.7449096E-1,-4.0388177E-3,-3.9126337E-2,-8.020589E-2,-1.8561473E-2,-7.0268385E-2,-4.1748367E-2,-7.24136E-2,1.6451333E-2,-6.2725805E-2,-5.4726373E-2,-2.7451918E-2,-7.346814E-2,-5.1934283E-2],"categories":[],"categories_nodes":[],"categories_segments":[],"categories_sizes":[],"default_left":[0,0,0,0,0,0,0,0,0,0,0,0,0,0,0,0,0,0,0,0,0,0,0,0,0,0,0,0,0,0,0,0,0,0,0,0,0,0,0,0,0,0,0,0,0,0,0,0,0,0,0,0,0,0,0],"id":44,"left_children":[1,3,5,7,9,11,13,-1,-1,15,17,19,21,-1,23,-1,25,27,29,31,33,35,37,39,41,-1,43,-1,-1,-1,-1,45,-1,-1,47,49,-1,51,-1,-1,-1,53,-1,-1,-1,-1,-1,-1,-1,-1,-1,-1,-1,-1,-1],"loss_changes":[1.054039E1,1.2712708E0,5.4480743E-1,1.2275696E-2,1.125145E0,6.423683E-1,1.1354179E0,0E0,0E0,5.9020996E-2,3.7572396E-1,5.6211853E-1,3.4825077E0,0E0,1.5699329E0,0E0,1.2672968E0,1.6729038E0,1.711651E0,1.7482567E-1,3.8049316E-1,8.6706245E-1,9.348755E-1,2.9944696E-2,5.415554E-1,0E0,4.4307232E-1,0E0,0E0,0E0,0E0,4.8125124E-1,0E0,0E0,5.571413E-2,1.2748291E0,0E0,7.40139E-1,0E0,0E0,0E0,2.1671486E-1,0E0,0E0,0E0,0E0,0E0,0E0,0E0,0E0,0E0,0E0,0E0,0E0,0E0],"parents":[2147483647,0,0,1,1,2,2,3,3,4,4,5,5,6,6,9,9,10,10,11,11,12,12,14,14,16,16,17,17,18,18,19,19,20,20,21,21,22,22,23,23,24,24,26,26,31,31,34,34,35,35,37,37,41,41],"right_children":[2,4,6,8,10,12,14,-1,-1,16,18,20,22,-1,24,-1,26,28,30,32,34,36,38,40,42,-1,44,-1,-1,-1,-1,46,-1,-1,48,50,-1,52,-1,-1,-1,54,-1,-1,-1,-1,-1,-1,-1,-1,-1,-1,-1,-1,-1],"split_conditions":[5.4E1,4.2E1,7E1,7E0,4E0,5.9E1,7.5E1,-9.368878E-2,-4.314974E-2,1E0,5E0,5.5E1,6E1,-7.863351E-2,7.6E1,-8.2330376E-2,4.3E1,4.8E1,5.1E1,3E0,5.7E1,4E0,1.1E1,1E0,1E2,1.5316977E-2,4.7E1,5.2438427E-2,-6.1199028E-2,-8.0601245E-2,1.5714573E-2,1E0,-4.3643024E-3,-7.6036125E-2,4E0,2E0,6.4293675E-2,6.8E1,1.9212058E-2,2.564649E-3,-9.899254E-3,7.9E1,-4.0388177E-3,-3.9126337E-2,-8.020589E-2,-1.8561473E-2,-7.0268385E-2,-4.1748367E-2,-7.24136E-2,1.6451333E-2,-6.2725805E-2,-5.4726373E-2,-2.7451918E-2,-7.346814E-2,-5.1934283E-2],"split_indices":[2,2,2,0,0,2,2,0,0,0,0,2,2,0,2,0,2,2,2,0,2,0,0,1,2,0,2,0,0,0,0,0,0,0,0,0,0,2,0,0,0,2,0,0,0,0,0,0,0,0,0,0,0,0,0],"split_type":[0,0,0,0,0,0,0,0,0,0,0,0,0,0,0,0,0,0,0,0,0,0,0,0,0,0,0,0,0,0,0,0,0,0,0,0,0,0,0,0,0,0,0,0,0,0,0,0,0,0,0,0,0,0,0],"sum_hessian":[4.3886826E2,1.9146234E2,2.474059E2,1.0951156E2,8.195078E1,1.4561891E2,1.0178699E2,1.07002174E2,2.5093853E0,7.221291E1,9.737869E0,5.0873035E1,9.474587E1,2.6767632E1,7.5019356E1,4.9412132E1,2.2800783E1,3.1879616E0,6.5499077E0,1.0819724E1,4.005331E1,1.0669003E1,8.407687E1,6.1829023E0,6.883646E1,1.5986024E0,2.120218E1,1.6208435E0,1.5671182E0,4.1003394E0,2.4495685E0,8.690854E0,2.12887E0,1.9656017E1,2.0397291E1,9.237724E0,1.4312776E0,8.256585E1,1.5110238E0,3.8619208E0,2.3209813E0,6.672153E1,2.1149302E0,7.1900754E0,1.4012106E1,6.347634E0,2.3432207E0,1.7804071E1,2.5932195E0,7.569869E0,1.6678555E0,6.70822E1,1.5483652E1,1.3931708E1,5.2789818E1],"tree_param":{"num_deleted":"0","num_feature":"5","num_nodes":"55","size_leaf_vector":"1"}},{"base_weights":[-6.2049127E-1,-8.588962E-1,-4.667155E-1,-9.191933E-2,-7.180058E-1,-5.186371E-1,-3.3083335E-1,-8.6135167E-1,-5.282032E-1,-5.30104E-1,3.6119808E-2,3.9327526E-1,-4.035543E-1,-7.44163E-3,-8.9195293E-1,-4.109651E-1,-6.414474E-1,-5.380338E-1,3.4454536E-2,7.8850985E-2,-1.9073467E-1,-3.3395612E-1,-7.905334E-2,-9.213879E-2,-4.1583356E-2,-3.0030352E-1,-7.075639E-2,-7.915184E-2,1.596017E-2,-5.0436395E-1,-7.237017E-1,-5.7839524E-2,2.8299889E-2,-3.456123E-1,-3.9957865E-4,-3.7470642E-2,1.2420759E-2,-5.535371E-2,-3.591984E-2,-8.601176E-2,-1.0430935E-4,-2.9443854E-2,-5.077855E-2],"categories":[],"categories_nodes":[],"categories_segments":[],"categories_sizes":[],"default_left":[0,0,0,0,0,0,0,0,0,0,0,0,0,0,0,0,0,0,0,0,0,0,0,0,0,0,0,0,0,0,0,0,0,0,0,0,0,0,0,0,0,0,0],"id":45,"left_children":[1,3,5,-1,7,9,11,13,15,17,-1,19,21,-1,23,25,27,29,-1,-1,31,33,-1,-1,-1,35,-1,-1,-1,37,39,-1,-1,41,-1,-1,-1,-1,-1,-1,-1,-1,-1],"loss_changes":[1.4773376E1,7.086487E-1,1.6190567E0,0E0,9.830284E-1,2.0263748E0,3.999043E0,6.205692E-1,7.264137E-2,1.4333954E0,0E0,1.803592E0,1.5342541E0,0E0,3.9672852E-4,2.873013E-1,1.4606833E0,7.522011E-1,0E0,0E0,8.424454E-1,2.2292805E-1,0E0,0E0,0E0,4.5167828E-1,0E0,0E0,0E0,9.045868E-1,2.4768753E0,0E0,0E0,3.1788683E-1,0E0,0E0,0E0,0E0,0E0,0E0,0E0,0E0,0E0],"parents":[2147483647,0,0,1,1,2,2,4,4,5,5,6,6,7,7,8,8,9,9,11,11,12,12,14,14,15,15,16,16,17,17,20,20,21,21,25,25,29,29,30,30,33,33],"right_children":[2,4,6,-1,8,10,12,14,16,18,-1,20,22,-1,24,26,28,30,-1,-1,32,34,-1,-1,-1,36,-1,-1,-1,38,40,-1,-1,42,-1,-1,-1,-1,-1,-1,-1,-1,-1],"split_conditions":[5.2E1,1E0,7.5E1,-9.191933E-2,4.2E1,4E0,7.6E1,2E1,4.8E1,1.7E1,3.6119808E-2,1E0,3E0,-7.44163E-3,7E0,5E0,6E0,7E1,3.4454536E-2,7.8850985E-2,2E0,1E2,-7.905334E-2,-9.213879E-2,-4.1583356E-2,4E0,-7.075639E-2,-7.915184E-2,1.596017E-2,1E0,4E0,-5.7839524E-2,2.8299889E-2,9E1,-3.9957865E-4,-3.7470642E-2,1.2420759E-2,-5.535371E-2,-3.591984E-2,-8.601176E-2,-1.0430935E-4,-2.9443854E-2,-5.077855E-2],"split_indices":[2,0,2,0,2,4,2,2,2,0,0,4,4,0,0,0,0,2,0,0,4,2,0,0,0,0,0,0,0,4,0,0,0,2,0,0,0,0,0,0,0,0,0],"split_type":[0,0,0,0,0,0,0,0,0,0,0,0,0,0,0,0,0,0,0,0,0,0,0,0,0,0,0,0,0,0,0,0,0,0,0,0,0,0,0,0,0,0,0],"sum_hessian":[4.1290872E2,1.6010538E2,2.5280333E2,1.08252304E2,5.185307E1,1.808734E2,7.192995E1,2.7526157E1,2.432691E1,1.789388E2,1.9345981E0,6.1622443E0,6.57677E1,1.1587895E0,2.6367369E1,1.4227089E1,1.0099821E1,1.7771246E2,1.2263343E0,3.466256E0,2.6959884E0,5.7321426E1,8.446271E0,2.3951422E1,2.415947E0,1.1826929E1,2.4001606E0,8.516258E0,1.5835633E0,1.5357837E2,2.4134087E1,1.361187E0,1.3348013E0,5.5319767E1,2.0016599E0,1.0163008E1,1.6639208E0,1.126174E2,4.0960976E1,2.014173E1,3.992356E0,4.419091E1,1.1128859E1],"tree_param":{"num_deleted":"0","num_feature":"5","num_nodes":"43","size_leaf_vector":"1"}},{"base_weights":[-5.9083885E-1,-8.3028406E-1,-4.1549537E-1,-9.137849E-2,-6.781236E-1,-4.574326E-1,-2.5649372E-1,-5.3095996E-1,-7.48147E-1,-5.209146E-1,-3.0342057E-1,9.580767E-2,-3.7983274E-1,-7.1252696E-2,-2.4153636E-1,-7.76813E-2,-3.8326797E-1,-4.7058883E-1,-7.85063E-2,1.4564356E-2,-3.6541846E-1,4.980195E-1,-1.4455183E-1,-7.2051786E-2,-2.8910002E-1,-3.7577695E-1,1.3028626E-2,-9.93505E-3,-6.054617E-2,-4.9928203E-1,2.5671106E-2,2.6893666E-2,-6.646037E-2,-4.3333435E-1,1.4365004E-1,7.546446E-2,-1.4980729E-2,-4.0013727E-2,3.5571948E-1,2.1486102E-1,-3.891567E-1,1.0676235E-2,-6.297966E-2,-6.0787033E-2,-4.2733878E-2,-6.1040423E-3,1.9990442E-2,-4.6993926E-2,3.6667741E-3,3.823609E-2,-5.1422816E-2,6.702764E-2,-1.2842083E-2,7.159167E-2,-3.8838126E-2,-4.296107E-2,1.312831E-2],"categories":[],"categories_nodes":[],"categories_segments":[],"categories_sizes":[],"default_left":[0,0,0,0,0,0,0,0,0,0,0,0,0,0,0,0,0,0,0,0,0,0,0,0,0,0,0,0,0,0,0,0,0,0,0,0,0,0,0,0,0,0,0,0,0,0,0,0,0,0,0,0,0,0,0,0,0],"id":46,"left_children":[1,3,5,-1,7,9,11,13,15,17,19,21,23,-1,25,-1,27,29,-1,31,33,35,37,-1,39,41,-1,-1,-1,43,45,-1,-1,47,49,-1,-1,-1,51,53,55,-1,-1,-1,-1,-1,-1,-1,-1,-1,-1,-1,-1,-1,-1,-1,-1],"loss_changes":[1.5988617E1,1.4571075E0,1.3935127E0,0E0,2.395382E-1,1.5823822E0,2.1901088E0,1.0558596E0,1.1465073E-1,1.2877235E0,1.07687E0,1.3917359E0,9.3274355E-1,0E0,5.741017E-1,0E0,2.4553555E-1,1.5393658E0,0E0,1.8769802E0,1.6361742E0,9.9938095E-1,1.3340055E0,0E0,1.637716E0,1.0463175E0,0E0,0E0,0E0,5.32362E-1,1.1510123E-1,0E0,0E0,7.125311E-1,1.1560795E0,0E0,0E0,0E0,6.466304E-1,2.015946E0,6.0528684E-1,0E0,0E0,0E0,0E0,0E0,0E0,0E0,0E0,0E0,0E0,0E0,0E0,0E0,0E0,0E0,0E0],"parents":[2147483647,0,0,1,1,2,2,4,4,5,5,6,6,7,7,8,8,9,9,10,10,11,11,12,12,14,14,16,16,17,17,19,19,20,20,21,21,22,22,24,24,25,25,29,29,30,30,33,33,34,34,38,38,39,39,40,40],"right_children":[2,4,6,-1,8,10,12,14,16,18,20,22,24,-1,26,-1,28,30,-1,32,34,36,38,-1,40,42,-1,-1,-1,44,46,-1,-1,48,50,-1,-1,-1,52,54,56,-1,-1,-1,-1,-1,-1,-1,-1,-1,-1,-1,-1,-1,-1,-1,-1],"split_conditions":[5.4E1,4.4E1,3E0,-9.137849E-2,4.8E1,7.5E1,6.1E1,1E0,5E0,7E1,7.7E1,4E0,6.5E1,-7.1252696E-2,4.7E1,-7.76813E-2,8E0,6.9E1,-7.85063E-2,1E0,2E0,5.9E1,5.9E1,-7.2051786E-2,6.8E1,2E0,1.3028626E-2,-9.93505E-3,-6.054617E-2,5.9E1,1E0,2.6893666E-2,-6.646037E-2,9.7E1,9E1,7.546446E-2,-1.4980729E-2,-4.0013727E-2,6E0,5E0,9.4E1,1.0676235E-2,-6.297966E-2,-6.0787033E-2,-4.2733878E-2,-6.1040423E-3,1.9990442E-2,-4.6993926E-2,3.6667741E-3,3.823609E-2,-5.1422816E-2,6.702764E-2,-1.2842083E-2,7.159167E-2,-3.8838126E-2,-4.296107E-2,1.312831E-2],"split_indices":[2,2,0,0,2,2,2,0,0,2,2,0,2,0,2,0,0,2,0,0,0,2,2,0,2,0,0,0,0,2,0,0,0,2,2,0,0,0,0,0,2,0,0,0,0,0,0,0,0,0,0,0,0,0,0,0,0],"split_type":[0,0,0,0,0,0,0,0,0,0,0,0,0,0,0,0,0,0,0,0,0,0,0,0,0,0,0,0,0,0,0,0,0,0,0,0,0,0,0,0,0,0,0,0,0,0,0,0,0,0,0,0,0,0,0,0,0],"sum_hessian":[3.8803223E2,1.6245375E2,2.2557849E2,1.0166035E2,6.07934E1,1.7701363E2,4.8564857E1,2.2367565E1,3.8425835E1,1.2366005E2,5.3353584E1,1.2651309E1,3.5913548E1,1.2846537E1,9.521028E0,3.4580154E1,3.8456826E0,1.06206924E2,1.7453117E1,8.829987E0,4.4523598E1,4.3313518E0,8.319957E0,6.093279E0,2.9820269E1,6.9876237E0,2.5334039E0,2.3236609E0,1.5220217E0,1.0039605E2,5.810877E0,6.863416E0,1.9665701E0,3.9414055E1,5.109543E0,2.9842916E0,1.3470603E0,5.639124E0,2.680833E0,4.7497163E0,2.5070553E1,2.6097727E0,4.377851E0,3.704001E1,6.335604E1,4.313713E0,1.4971635E0,3.6566315E1,2.8477392E0,4.056456E0,1.0530865E0,1.3919709E0,1.2888622E0,2.492584E0,2.2571323E0,2.3424297E1,1.646256E0],"tree_param":{"num_deleted":"0","num_feature":"5","num_nodes":"57","size_leaf_vector":"1"}},{"base_weights":[-6.092121E-1,-8.8428044E-1,-4.439238E-1,-9.420665E-2,-7.759092E-2,-4.8250604E-1,-2.987394E-1,-6.706797E-1,-4.372203E-1,1.808664E-2,-3.1725E-1,-5.5062473E-2,-7.9154216E-2,-2.7065623E-1,-4.8786244E-1,-3.3514547E-1,1.23801455E-2,-2.1632297E-1,-5.872001E-1,-5.775662E-1,-3.739053E-1,-2.4680454E-1,-4.1442132E-1,-2.6551813E-2,7.483372E-4,-6.990182E-2,-2.0734135E-2,-5.1522423E-2,-7.087585E-2,-8.323484E-3,-4.304358E-2,3.846309E-3,-3.736489E-2,-5.3836863E-2,-2.8970722E-2],"categories":[],"categories_nodes":[],"categories_segments":[],"categories_sizes":[],"default_left":[0,0,0,0,0,0,0,0,0,0,0,0,0,0,0,0,0,0,0,0,0,0,0,0,0,0,0,0,0,0,0,0,0,0,0],"id":47,"left_children":[1,3,5,-1,-1,7,9,11,13,-1,15,-1,-1,17,19,21,-1,23,25,27,29,31,33,-1,-1,-1,-1,-1,-1,-1,-1,-1,-1,-1,-1],"loss_changes":[1.627449E1,1.24435425E-1,1.1497841E0,0E0,0E0,1.2480812E0,5.112457E-1,4.6071053E-2,1.1219273E0,0E0,4.3287277E-1,0E0,0E0,5.077243E-1,9.3665314E-1,2.3333979E-1,0E0,3.6623645E-1,5.994308E-2,1.3581848E-1,8.268199E-1,9.2398584E-1,2.1169996E-1,0E0,0E0,0E0,0E0,0E0,0E0,0E0,0E0,0E0,0E0,0E0,0E0],"parents":[2147483647,0,0,1,1,2,2,5,5,6,6,7,7,8,8,10,10,13,13,14,14,15,15,17,17,18,18,19,19,20,20,21,21,22,22],"right_children":[2,4,6,-1,-1,8,10,12,14,-1,16,-1,-1,18,20,22,-1,24,26,28,30,32,34,-1,-1,-1,-1,-1,-1,-1,-1,-1,-1,-1,-1],"split_conditions":[5.2E1,4.2E1,3E0,-9.420665E-2,-7.759092E-2,5.7E1,5.3E1,5.5E1,6.2E1,1.808664E-2,9.4E1,-5.5062473E-2,-7.9154216E-2,2E0,7.5E1,5E0,1.23801455E-2,1E0,6E1,7E1,7.7E1,6.1E1,6.6E1,-2.6551813E-2,7.483372E-4,-6.990182E-2,-2.0734135E-2,-5.1522423E-2,-7.087585E-2,-8.323484E-3,-4.304358E-2,3.846309E-3,-3.736489E-2,-5.3836863E-2,-2.8970722E-2],"split_indices":[2,2,0,0,0,2,2,2,2,0,2,0,0,0,2,0,0,0,2,2,2,2,2,0,0,0,0,0,0,0,0,0,0,0,0],"split_type":[0,0,0,0,0,0,0,0,0,0,0,0,0,0,0,0,0,0,0,0,0,0,0,0,0,0,0,0,0,0,0,0,0,0,0],"sum_hessian":[3.65586E2,1.3559033E2,2.2999567E2,8.34173E1,5.2173027E1,1.7987193E2,5.0123734E1,3.2212185E1,1.4765974E2,1.5367182E0,4.8587017E1,1.8947287E1,1.3264898E1,3.5906445E1,1.11753296E2,4.692325E1,1.6637682E0,3.2082947E1,3.8234978E0,6.0254448E1,5.1498848E1,2.413816E1,2.2785088E1,2.6148777E1,5.9341707E0,2.3048267E0,1.518671E0,4.4185123E1,1.6069324E1,8.7874775E0,4.271137E1,7.643967E0,1.6494192E1,9.764153E0,1.3020936E1],"tree_param":{"num_deleted":"0","num_feature":"5","num_nodes":"35","size_leaf_vector":"1"}},{"base_weights":[-5.864206E-1,-6.3110185E-1,-3.9054462E-1,-7.008412E-2,-4.0627196E-1,-3.4711024E-1,-6.0291255E-1,-3.550533E-1,-7.516016E-2,-3.673776E-1,3.1505447E-2,-6.583551E-2,-1.2864319E-2,-4.086741E-1,-5.676069E-3,-2.9952607E-1,-4.3819138E-1,2.765635E-2,-2.0916792E-2,-3.6496844E-2,-5.7143804E-2,-4.2070228E-1,-1.0591521E-1,-3.134548E-1,-8.198458E-2,-4.465423E-2,-1.950629E-2,-2.0217938E-2,2.7282437E-2,-4.8508402E-2,-7.641596E-3],"categories":[],"categories_nodes":[],"categories_segments":[],"categories_sizes":[],"default_left":[0,0,0,0,0,0,0,0,0,0,0,0,0,0,0,0,0,0,0,0,0,0,0,0,0,0,0,0,0,0,0],"id":48,"left_children":[1,3,5,-1,7,9,11,13,-1,15,17,-1,-1,19,-1,21,23,-1,-1,-1,-1,25,27,29,-1,-1,-1,-1,-1,-1,-1],"loss_changes":[2.7865677E0,4.114334E0,4.0866947E-1,0E0,9.500704E-1,4.5644474E-1,1.7873359E-1,9.654517E-1,0E0,1.3353443E-1,2.8590336E-1,0E0,0E0,1.6300297E-1,0E0,6.8983364E-1,9.239011E-1,0E0,0E0,0E0,0E0,2.3188114E-2,5.4321176E-1,7.8936684E-1,0E0,0E0,0E0,0E0,0E0,0E0,0E0],"parents":[2147483647,0,0,1,1,2,2,4,4,5,5,6,6,7,7,9,9,10,10,13,13,15,15,16,16,21,21,22,22,23,23],"right_children":[2,4,6,-1,8,10,12,14,-1,16,18,-1,-1,20,-1,22,24,-1,-1,-1,-1,26,28,30,-1,-1,-1,-1,-1,-1,-1],"split_conditions":[3E0,1E0,2E0,-7.008412E-2,2E0,1.4E1,4E0,1E0,-7.516016E-2,5E0,1.8E1,-6.583551E-2,-1.2864319E-2,3E0,-5.676069E-3,4E0,1E0,2.765635E-2,-2.0916792E-2,-3.6496844E-2,-5.7143804E-2,1E0,1E0,7E0,-8.198458E-2,-4.465423E-2,-1.950629E-2,-2.0217938E-2,2.7282437E-2,-4.8508402E-2,-7.641596E-3],"split_indices":[0,4,4,0,0,0,4,0,0,0,0,0,0,4,0,0,4,0,0,0,0,4,4,0,0,0,0,0,0,0,0],"split_type":[0,0,0,0,0,0,0,0,0,0,0,0,0,0,0,0,0,0,0,0,0,0,0,0,0,0,0,0,0,0,0],"sum_hessian":[3.4555478E2,2.7956195E2,6.5992836E1,2.1175967E2,6.780227E1,5.6974625E1,9.018211E0,6.081104E1,6.991227E0,5.4107906E1,2.8667214E0,7.7267947E0,1.2914163E0,5.1231644E1,9.579396E0,3.0302639E1,2.3805265E1,1.346533E0,1.5201885E0,4.2942867E1,8.288775E0,1.7916327E1,1.23863125E1,1.9314116E1,4.491151E0,1.5196973E1,2.719354E0,1.0247807E1,2.1385052E0,1.0595763E1,8.718351E0],"tree_param":{"num_deleted":"0","num_feature":"5","num_nodes":"31","size_leaf_vector":"1"}},{"base_weights":[-5.5119103E-1,-8.966409E-2,-4.4439664E-1,-5.684059E-1,-4.075231E-1,-6.2875015E-1,-4.645993E-1,-3.7931705E-1,-5.255892E-1,-7.1768515E-2,-2.9727623E-1,-2.183523E-1,-6.800355E-2,-4.5535135E-1,-2.747369E-1,3.923654E-2,-5.8797204E-1,-5.7771254E-2,6.392677E-2,-4.1721505E-1,1.5028168E-1,-4.7798103E-1,4.84387E-2,-4.3488842E-1,-1.1565701E-1,-4.5603448E-1,-7.2917944E-1,-1.3963342E-2,-5.944818E-2,2.1590924E-2,2.5113414E-3,-5.4164726E-2,-2.6542163E-2,-5.5178262E-2,8.064347E-3,5.9971623E-3,-6.0101073E-2,-8.570087E-2,-2.2968307E-2,-3.1526458E-2,-9.0013616E-2],"categories":[],"categories_nodes":[],"categories_segments":[],"categories_sizes":[],"default_left":[0,0,0,0,0,0,0,0,0,0,0,0,0,0,0,0,0,0,0,0,0,0,0,0,0,0,0,0,0,0,0,0,0,0,0,0,0,0,0,0,0],"id":49,"left_children":[1,-1,3,5,7,9,11,13,15,-1,17,19,-1,21,23,-1,25,-1,-1,27,29,31,-1,33,35,37,39,-1,-1,-1,-1,-1,-1,-1,-1,-1,-1,-1,-1,-1,-1],"loss_changes":[1.1717308E1,0E0,9.245224E-1,5.5021286E-2,4.6142578E-1,7.363224E-1,1.1354632E0,1.1770267E0,2.273304E0,0E0,2.607518E0,9.985864E-1,0E0,2.21558E0,1.7702317E0,0E0,2.9718113E-1,0E0,0E0,3.3808124E-1,3.736589E-2,1.0959339E0,0E0,2.1685653E0,3.2080085E0,1.6313696E0,7.5336266E-1,0E0,0E0,0E0,0E0,0E0,0E0,0E0,0E0,0E0,0E0,0E0,0E0,0E0,0E0],"parents":[2147483647,0,0,2,2,3,3,4,4,5,5,6,6,7,7,8,8,10,10,11,11,13,13,14,14,16,16,19,19,20,20,21,21,23,23,24,24,25,25,26,26],"right_children":[2,-1,4,6,8,10,12,14,16,-1,18,20,-1,22,24,-1,26,-1,-1,28,30,32,-1,34,36,38,40,-1,-1,-1,-1,-1,-1,-1,-1,-1,-1,-1,-1,-1,-1],"split_conditions":[4.3E1,-8.966409E-2,5.4E1,1E0,2E0,5.2E1,4.9E1,1E0,5.7E1,-7.1768515E-2,1E0,4.7E1,-6.800355E-2,9.7E1,6.6E1,3.923654E-2,1E0,-5.7771254E-2,6.392677E-2,4.5E1,4.8E1,1E0,4.84387E-2,1E0,1E0,6.9E1,6.9E1,-1.3963342E-2,-5.944818E-2,2.1590924E-2,2.5113414E-3,-5.4164726E-2,-2.6542163E-2,-5.5178262E-2,8.064347E-3,5.9971623E-3,-6.0101073E-2,-8.570087E-2,-2.2968307E-2,-3.1526458E-2,-9.0013616E-2],"split_indices":[2,0,2,1,4,2,2,1,2,0,4,2,0,2,2,0,1,0,0,2,2,4,0,4,4,2,2,0,0,0,0,0,0,0,0,0,0,0,0,0,0],"split_type":[0,0,0,0,0,0,0,0,0,0,0,0,0,0,0,0,0,0,0,0,0,0,0,0,0,0,0,0,0,0,0,0,0,0,0,0,0,0,0,0,0],"sum_hessian":[3.2741113E2,7.556939E1,2.5184174E2,5.441703E1,1.9742471E2,3.121461E1,2.3202423E1,1.6275516E2,3.466955E1,2.369269E1,7.52192E0,1.1766575E1,1.1435848E1,9.229706E1,7.04581E1,1.869563E0,3.2799988E1,6.0834513E0,1.4384688E0,7.557715E0,4.20886E0,9.0606544E1,1.6905123E0,3.424682E1,3.6211285E1,1.9143103E1,1.3656885E1,3.6421623E0,3.9155524E0,2.2855573E0,1.9233027E0,6.853161E1,2.2074936E1,2.7859503E1,6.387315E0,2.7233198E1,8.978085E0,5.9018965E0,1.3241206E1,4.823209E0,8.833677E0],"tree_param":{"num_deleted":"0","num_feature":"5","num_nodes":"41","size_leaf_vector":"1"}},{"base_weights":[-5.3236234E-1,-8.953312E-1,-4.3237662E-1,-9.0787806E-2,-2.8838722E-2,-5.339933E-1,-3.669342E-1,-5.589232E-1,6.1466552E-2,-4.448685E-2,-4.0633482E-1,-6.2468624E-1,-2.7666107E-1,2.292389E-3,-1.1264178E-2,-4.774742E-1,-3.1024075E-1,-3.6537462E-1,-6.593732E-2,-3.2444808E-1,1.5696542E-2,-3.930882E-1,-6.984908E-1,4.7060397E-1,-4.0112484E-1,-6.2376272E-2,2.3112731E-2,-1.3850646E-2,-5.1933743E-2,-5.1502395E-2,-2.21313E-2,-7.500386E-2,-3.8701218E-2,8.671629E-2,-1.4712053E-2,-3.417151E-2,-7.334074E-2],"categories":[],"categories_nodes":[],"categories_segments":[],"categories_sizes":[],"default_left":[0,0,0,0,0,0,0,0,0,0,0,0,0,0,0,0,0,0,0,0,0,0,0,0,0,0,0,0,0,0,0,0,0,0,0,0,0],"id":50,"left_children":[1,3,5,-1,-1,7,9,11,-1,13,15,17,19,-1,-1,21,23,25,-1,27,-1,29,31,33,35,-1,-1,-1,-1,-1,-1,-1,-1,-1,-1,-1,-1],"loss_changes":[1.0900429E1,2.426033E-1,1.4385338E0,0E0,0E0,3.0377674E0,1.9219074E0,1.5462437E0,0E0,8.413196E-2,7.812271E-1,4.275322E-1,4.5074558E-1,0E0,0E0,1.1477871E0,4.4954753E0,1.8412509E0,0E0,5.69679E-1,0E0,1.0899181E0,2.7397156E-2,1.7901897E0,8.3314323E-1,0E0,0E0,0E0,0E0,0E0,0E0,0E0,0E0,0E0,0E0,0E0,0E0],"parents":[2147483647,0,0,1,1,2,2,5,5,6,6,7,7,9,9,10,10,11,11,12,12,15,15,16,16,17,17,19,19,21,21,22,22,23,23,24,24],"right_children":[2,4,6,-1,-1,8,10,12,-1,14,16,18,20,-1,-1,22,24,26,-1,28,-1,30,32,34,36,-1,-1,-1,-1,-1,-1,-1,-1,-1,-1,-1,-1],"split_conditions":[4.2E1,7E0,5.9E1,-9.0787806E-2,-2.8838722E-2,3E0,6.1E1,3E0,6.1466552E-2,6E1,7.5E1,4.5E1,5.8E1,2.292389E-3,-1.1264178E-2,7E1,7.6E1,1E0,-6.593732E-2,5.3E1,1.5696542E-2,6.6E1,4E0,1E0,3E0,-6.2376272E-2,2.3112731E-2,-1.3850646E-2,-5.1933743E-2,-5.1502395E-2,-2.21313E-2,-7.500386E-2,-3.8701218E-2,8.671629E-2,-1.4712053E-2,-3.417151E-2,-7.334074E-2],"split_indices":[2,0,2,0,0,4,2,0,0,2,2,2,2,0,0,2,2,0,0,2,0,2,0,4,4,0,0,0,0,0,0,0,0,0,0,0,0],"split_type":[0,0,0,0,0,0,0,0,0,0,0,0,0,0,0,0,0,0,0,0,0,0,0,0,0,0,0,0,0,0,0,0,0,0,0,0,0],"sum_hessian":[3.1002304E2,6.523864E1,2.4478441E2,6.343155E1,1.8070867E0,9.308521E1,1.516992E2,9.161036E1,1.4748495E0,1.6749922E1,1.3494928E2,7.3315704E1,1.829466E1,8.754582E0,7.9953403E0,7.526271E1,5.968657E1,1.0010791E1,6.3304913E1,1.6705446E1,1.5892137E0,5.6477623E1,1.878509E1,5.7871656E0,5.3899403E1,6.9531693E0,3.057621E0,9.424415E0,7.2810316E0,3.1861958E1,2.4615665E1,1.4909641E1,3.8754473E0,3.278606E0,2.5085597E0,4.744497E1,6.4544325E0],"tree_param":{"num_deleted":"0","num_feature":"5","num_nodes":"37","size_leaf_vector":"1"}},{"base_weights":[-4.9725586E-1,-5.878617E-1,-3.597423E-1,-6.578343E-2,-3.779998E-1,-3.377766E-1,-4.8586383E-1,-3.1442657E-2,-6.36189E-1,-4.2694485E-1,-2.3960096E-1,3.5985347E-4,-6.549082E-1,-8.307022E-2,-1.0764715E-2,-4.558375E-1,-2.3523673E-1,-1.5161164E-1,-3.2853776E-1,-7.036932E-2,-1.9017907E-2,-5.38115E-2,-3.0847142E-2,4.7081946E-3,-5.480476E-2,-1.9677976E-2,6.4771E-2,-2.3321113E-1,-6.332645E-2,-1.6543975E-2,3.1541664E-2,-1.5351811E-2,-6.635254E-2],"categories":[],"categories_nodes":[],"categories_segments":[],"categories_sizes":[],"default_left":[0,0,0,0,0,0,0,0,0,0,0,0,0,0,0,0,0,0,0,0,0,0,0,0,0,0,0,0,0,0,0,0,0],"id":51,"left_children":[1,3,5,-1,7,9,11,-1,13,15,17,-1,19,-1,-1,21,23,25,27,-1,-1,-1,-1,-1,-1,-1,29,31,-1,-1,-1,-1,-1],"loss_changes":[3.4685898E0,2.3427353E0,1.6802406E-1,0E0,5.6284094E-1,8.202877E-1,1.2850361E0,0E0,7.541938E-1,1.9158936E-1,3.6055517E-1,0E0,1.2753773E-1,0E0,0E0,3.8952923E-1,8.3228374E-1,2.8852803E-1,5.84991E-1,0E0,0E0,0E0,0E0,0E0,0E0,0E0,3.7676775E-1,6.112691E-1,0E0,0E0,0E0,0E0,0E0],"parents":[2147483647,0,0,1,1,2,2,4,4,5,5,6,6,8,8,9,9,10,10,12,12,15,15,16,16,17,17,18,18,26,26,27,27],"right_children":[2,4,6,-1,8,10,12,-1,14,16,18,-1,20,-1,-1,22,24,26,28,-1,-1,-1,-1,-1,-1,-1,30,32,-1,-1,-1,-1,-1],"split_conditions":[1E0,1E0,2E0,-6.578343E-2,3E0,3E0,2E0,-3.1442657E-2,4E0,1E0,5E0,3.5985347E-4,4E0,-8.307022E-2,-1.0764715E-2,2E0,2E0,1E0,1E0,-7.036932E-2,-1.9017907E-2,-5.38115E-2,-3.0847142E-2,4.7081946E-3,-5.480476E-2,-1.9677976E-2,4E0,1.5E1,-6.332645E-2,-1.6543975E-2,3.1541664E-2,-1.5351811E-2,-6.635254E-2],"split_indices":[0,4,4,0,4,0,0,0,4,4,0,0,4,0,0,0,0,4,4,0,0,0,0,0,0,0,0,0,0,0,0,0,0],"split_type":[0,0,0,0,0,0,0,0,0,0,0,0,0,0,0,0,0,0,0,0,0,0,0,0,0,0,0,0,0,0,0,0,0],"sum_hessian":[2.9436157E2,1.7547104E2,1.1889053E2,1.299937E2,4.5477356E1,1.0438816E2,1.4502374E1,3.827164E1,7.2057133E0,5.2948658E1,5.1439503E1,3.974128E0,1.0528246E1,4.849368E0,2.356345E0,4.481652E1,8.132137E0,2.7217087E1,2.4222416E1,9.06269E0,1.4655566E0,2.7057953E1,1.7758566E1,4.7209044E0,3.4112327E0,2.259182E1,4.6252656E0,1.9795248E1,4.4271684E0,2.5881085E0,2.037157E0,1.7846825E1,1.9484247E0],"tree_param":{"num_deleted":"0","num_feature":"5","num_nodes":"33","size_leaf_vector":"1"}},{"base_weights":[-4.400689E-1,-4.8911026E-1,-2.9985583E-1,-5.6262106E-1,-2.984181E-1,-2.6260465E-1,-4.599623E-1,-5.850291E-2,-4.384811E-2,-3.365409E-2,-1.01069115E-1,-2.187897E-1,-3.1652027E-1,-5.473491E-2,-2.1959556E-2,6.2924024E-4,-5.4322965E-2,-2.9400025E-2,-6.5247007E-3,5.9112455E-3,-4.6935808E-2],"categories":[],"categories_nodes":[],"categories_segments":[],"categories_sizes":[],"default_left":[0,0,0,0,0,0,0,0,0,0,0,0,0,0,0,0,0,0,0,0,0],"id":52,"left_children":[1,3,5,7,9,11,13,-1,-1,-1,15,17,19,-1,-1,-1,-1,-1,-1,-1,-1],"loss_changes":[1.7879448E0,2.7318077E0,3.2944298E-1,1.556549E-1,4.1502333E-1,8.092451E-2,1.5114641E-1,0E0,0E0,0E0,5.2997357E-1,4.2321813E-1,1.5354669E0,0E0,0E0,0E0,0E0,0E0,0E0,0E0,0E0],"parents":[2147483647,0,0,1,1,2,2,3,3,4,4,5,5,6,6,10,10,11,11,12,12],"right_children":[2,4,6,8,10,12,14,-1,-1,-1,16,18,20,-1,-1,-1,-1,-1,-1,-1,-1],"split_conditions":[1E0,2E0,3E0,1E0,7E0,1E0,4E0,-5.850291E-2,-4.384811E-2,-3.365409E-2,1.8E1,2E0,2E0,-5.473491E-2,-2.1959556E-2,6.2924024E-4,-5.4322965E-2,-2.9400025E-2,-6.5247007E-3,5.9112455E-3,-4.6935808E-2],"split_indices":[4,0,4,0,0,1,4,0,0,0,0,4,0,0,0,0,0,0,0,0,0],"split_type":[0,0,0,0,0,0,0,0,0,0,0,0,0,0,0,0,0,0,0,0,0],"sum_hessian":[2.803469E2,2.0585727E2,7.448962E1,1.4717262E2,5.868465E1,6.2571587E1,1.1918033E1,1.21524124E2,2.5648497E1,4.8592506E1,1.0092143E1,3.7309624E1,2.5261961E1,7.803779E0,4.114253E0,8.913592E0,1.1785508E0,2.4428782E1,1.2880843E1,7.4833083E0,1.7778652E1],"tree_param":{"num_deleted":"0","num_feature":"5","num_nodes":"21","size_leaf_vector":"1"}},{"base_weights":[-4.4923478E-1,-8.5419273E-1,-3.4496957E-1,-8.683357E-2,-2.6504477E-2,-5.120904E-1,-2.9414904E-1,-5.997842E-1,-3.8330626E-1,-3.027239E-1,2.3855492E-2,-6.724967E-2,-2.971254E-1,-1.5640205E-1,-6.2510455E-1,-3.165279E-1,9.040259E-2,-2.6323027E-3,-5.0076526E-2,-3.5220674E-1,2.5553638E-1,-7.535724E-2,-1.566027E-1,-2.0113894E-1,-3.7306502E-1,4.1165855E-2,-1.2813161E-1,2.2527916E-2,-6.769382E-2,-9.146887E-3,6.1482817E-2,1.8675942E-2,-5.0743647E-2,-3.3985328E-2,1.0742727E-3,-8.4856704E-2,-3.385782E-2,1.7687844E-2,-5.435546E-2],"categories":[],"categories_nodes":[],"categories_segments":[],"categories_sizes":[],"default_left":[0,0,0,0,0,0,0,0,0,0,0,0,0,0,0,0,0,0,0,0,0,0,0,0,0,0,0,0,0,0,0,0,0,0,0,0,0,0,0],"id":53,"left_children":[1,3,5,-1,-1,7,9,11,13,15,-1,-1,17,19,21,23,25,-1,-1,27,29,-1,31,33,35,-1,37,-1,-1,-1,-1,-1,-1,-1,-1,-1,-1,-1,-1],"loss_changes":[1.1095047E1,2.2442245E-1,1.6855583E0,0E0,0E0,3.242054E-1,8.4022236E-1,4.0356922E-1,1.1447134E0,9.2895985E-1,0E0,0E0,3.784997E-1,1.1399114E0,5.217552E-1,9.720497E-1,5.0247306E-1,0E0,0E0,1.8858794E0,6.513486E-1,0E0,5.223893E-1,1.6187115E0,1.4600067E0,0E0,6.758429E-1,0E0,0E0,0E0,0E0,0E0,0E0,0E0,0E0,0E0,0E0,0E0,0E0],"parents":[2147483647,0,0,1,1,2,2,5,5,6,6,7,7,8,8,9,9,12,12,13,13,14,14,15,15,16,16,19,19,20,20,22,22,23,23,24,24,26,26],"right_children":[2,4,6,-1,-1,8,10,12,14,16,-1,-1,18,20,22,24,26,-1,-1,28,30,-1,32,34,36,-1,38,-1,-1,-1,-1,-1,-1,-1,-1,-1,-1,-1,-1],"split_conditions":[4.2E1,7E0,5.4E1,-8.683357E-2,-2.6504477E-2,1E0,1.4E1,5.2E1,4.9E1,9.4E1,2.3855492E-2,-6.724967E-2,5.3E1,4.7E1,5E0,6.2E1,9.6E1,-2.6323027E-3,-5.0076526E-2,2E0,4E0,-7.535724E-2,8E0,5.9E1,6.3E1,4.1165855E-2,1E0,2.2527916E-2,-6.769382E-2,-9.146887E-3,6.1482817E-2,1.8675942E-2,-5.0743647E-2,-3.3985328E-2,1.0742727E-3,-8.4856704E-2,-3.385782E-2,1.7687844E-2,-5.435546E-2],"split_indices":[2,0,2,0,0,0,0,2,2,2,0,0,2,2,0,2,2,0,0,0,0,0,0,2,2,0,0,0,0,0,0,0,0,0,0,0,0,0,0],"split_type":[0,0,0,0,0,0,0,0,0,0,0,0,0,0,0,0,0,0,0,0,0,0,0,0,0,0,0,0,0,0,0,0,0,0,0,0,0,0,0],"sum_hessian":[2.6875128E2,5.3555077E1,2.151962E2,5.183681E1,1.7182676E0,4.806392E1,1.6713228E2,2.6417791E1,2.164613E1,1.6490947E2,2.2228062E0,2.031519E1,6.1026015E0,1.2016572E1,9.629558E0,1.595036E2,5.405868E0,3.1040573E0,2.9985445E0,8.243318E0,3.7732544E0,7.0797477E0,2.54981E0,5.3950798E1,1.055528E2,1.8307904E0,3.5750775E0,3.0772152E0,5.1661024E0,2.2986395E0,1.474615E0,1.5249785E0,1.0248315E0,3.2239994E1,2.1710806E1,5.5414968E0,1.0001131E2,2.392608E0,1.1824694E0],"tree_param":{"num_deleted":"0","num_feature":"5","num_nodes":"39","size_leaf_vector":"1"}},{"base_weights":[-4.0627274E-1,-8.4149325E-1,-2.9997304E-1,-8.567506E-2,-2.3654288E-2,-4.49676E-1,-2.3063385E-1,-4.8119777E-1,-2.3916548E-1,1.4960075E-3,-3.040224E-1,-5.059649E-1,-6.3514E-2,-6.7060427E-3,-7.117178E-2,-1.8821125E-1,4.4400266E-1,-4.3522206E-1,-1.5430705E-1,-5.271124E-1,-2.9618993E-1,-2.8943688E-2,2.211716E-2,-1.2845922E-1,3.820064E-2,-2.712637E-1,1.13771185E-1,8.7900156E-1,-3.5265755E-2,-8.405475E-2,-3.794856E-1,5.4637367E-1,-2.4604858E-1,-4.6047296E-2,-7.677505E-2,-7.093862E-2,7.1688876E-3,5.784859E-3,-5.48217E-2,-5.32687E-2,-7.880648E-3,6.940343E-2,-3.0822352E-2,1.1123967E-1,3.449356E-2,8.384098E-3,-4.343127E-2,9.0686284E-2,-8.336586E-3,-7.339002E-3,-4.9036615E-2],"categories":[],"categories_nodes":[],"categories_segments":[],"categories_sizes":[],"default_left":[0,0,0,0,0,0,0,0,0,0,0,0,0,0,0,0,0,0,0,0,0,0,0,0,0,0,0,0,0,0,0,0,0,0,0,0,0,0,0,0,0,0,0,0,0,0,0,0,0,0,0],"id":54,"left_children":[1,3,5,-1,-1,7,9,11,13,15,17,19,21,23,-1,25,27,29,31,33,35,-1,-1,37,-1,39,41,43,-1,-1,45,47,49,-1,-1,-1,-1,-1,-1,-1,-1,-1,-1,-1,-1,-1,-1,-1,-1,-1,-1],"loss_changes":[1.1716E1,2.6094818E-1,2.0706577E0,0E0,0E0,3.1793308E-1,2.4742827E0,5.4478836E-1,1.147218E0,3.09533E0,2.1001577E0,7.679367E-2,3.383505E-1,4.2951977E-1,0E0,6.782822E-1,4.1439223E0,9.971037E-1,3.5466118E0,3.9075375E-1,1.1287134E0,0E0,0E0,5.6895345E-1,0E0,9.9150753E-1,1.7498729E0,5.439601E-1,0E0,0E0,1.3836904E0,1.5411983E0,1.973036E0,0E0,0E0,0E0,0E0,0E0,0E0,0E0,0E0,0E0,0E0,0E0,0E0,0E0,0E0,0E0,0E0,0E0,0E0],"parents":[2147483647,0,0,1,1,2,2,5,5,6,6,7,7,8,8,9,9,10,10,11,11,12,12,13,13,15,15,16,16,17,17,18,18,19,19,20,20,23,23,25,25,26,26,27,27,30,30,31,31,32,32],"right_children":[2,4,6,-1,-1,8,10,12,14,16,18,20,22,24,-1,26,28,30,32,34,36,-1,-1,38,-1,40,42,44,-1,-1,46,48,50,-1,-1,-1,-1,-1,-1,-1,-1,-1,-1,-1,-1,-1,-1,-1,-1,-1,-1],"split_conditions":[4.2E1,7E0,5.7E1,-8.567506E-2,-2.3654288E-2,4E0,6.2E1,2E0,8E0,1E0,7.5E1,1E0,5.4E1,5.5E1,-7.117178E-2,3E0,2E0,6.3E1,7.6E1,5.5E1,5.2E1,-2.8943688E-2,2.211716E-2,5.3E1,3.820064E-2,5.9E1,4E0,6E1,-3.5265755E-2,-8.405475E-2,6.4E1,1E0,8.6E1,-4.6047296E-2,-7.677505E-2,-7.093862E-2,7.1688876E-3,5.784859E-3,-5.48217E-2,-5.32687E-2,-7.880648E-3,6.940343E-2,-3.0822352E-2,1.1123967E-1,3.449356E-2,8.384098E-3,-4.343127E-2,9.0686284E-2,-8.336586E-3,-7.339002E-3,-4.9036615E-2],"split_indices":[2,0,2,0,0,0,2,4,0,4,2,4,2,2,0,0,4,2,2,2,2,0,0,2,0,2,0,2,0,0,2,4,2,0,0,0,0,0,0,0,0,0,0,0,0,0,0,0,0,0,0],"split_type":[0,0,0,0,0,0,0,0,0,0,0,0,0,0,0,0,0,0,0,0,0,0,0,0,0,0,0,0,0,0,0,0,0,0,0,0,0,0,0,0,0,0,0,0,0,0,0,0,0,0,0],"sum_hessian":[2.5769952E2,4.922843E1,2.0847108E2,4.76114E1,1.6170291E0,6.425648E1,1.442146E2,5.476946E1,9.487017E0,3.4877087E1,1.0933752E2,5.1504097E1,3.2653635E0,7.038705E0,2.4483113E0,2.4813812E1,1.0063272E1,5.725574E1,5.2081776E1,4.541321E1,6.090886E0,1.8112718E0,1.4540917E0,5.8697104E0,1.1689945E0,1.9541227E1,5.272585E0,6.4422593E0,3.6210134E0,5.2193E0,5.203644E1,5.4559665E0,4.662581E1,3.7846107E1,7.5671034E0,2.431521E0,3.659365E0,4.6624756E0,1.2072351E0,7.5363894E0,1.2004838E1,1.9485639E0,3.324021E0,3.7295191E0,2.71274E0,5.450107E0,4.6586334E1,3.1898837E0,2.2660828E0,2.8081253E1,1.8544558E1],"tree_param":{"num_deleted":"0","num_feature":"5","num_nodes":"51","size_leaf_vector":"1"}},{"base_weights":[-4.3887442E-1,-8.791821E-2,-3.2825354E-1,-4.8161656E-1,-2.614272E-1,-2.1618155E-1,-5.1081634E-1,-1.3234085E-1,-4.5370162E-1,-3.3635575E-2,-3.239726E-2,-3.9545533E-1,-5.550179E-1,-2.215386E-1,-2.895456E-2,2.088143E-1,-6.7375857E-1,-1.9331906E-2,1.3007246E-2,-3.1429583E-1,-6.829662E-2,-6.672261E-2,-4.1881686E-1,-1.10395424E-1,-5.568339E-1,-3.6195475E-1,2.0201448E-1,-1.401209E-1,3.3456212E-1,-5.6322736E-1,-8.5920155E-2,-4.3416902E-2,-1.4676844E-2,-3.2622613E-2,-5.4326978E-2,-1.799441E-2,4.8263606E-2,-6.084286E-2,-3.2459595E-3,-8.087034E-3,-6.45175E-2,6.756234E-2,5.037175E-3,1.5861249E-2,-5.4551937E-2,5.6225606E-3,6.0340818E-2,-7.477539E-2,-1.8003613E-2],"categories":[],"categories_nodes":[],"categories_segments":[],"categories_sizes":[],"default_left":[0,0,0,0,0,0,0,0,0,0,0,0,0,0,0,0,0,0,0,0,0,0,0,0,0,0,0,0,0,0,0,0,0,0,0,0,0,0,0,0,0,0,0,0,0,0,0,0,0],"id":55,"left_children":[1,-1,3,5,7,9,11,13,15,-1,17,19,21,23,25,27,29,-1,-1,31,-1,-1,33,35,37,39,41,43,45,47,-1,-1,-1,-1,-1,-1,-1,-1,-1,-1,-1,-1,-1,-1,-1,-1,-1,-1,-1],"loss_changes":[1.1830692E1,0E0,1.9284897E0,3.5189342E-1,3.4595566E0,1.5795812E-1,5.079174E-2,7.8901935E-1,8.385089E0,0E0,1.3310467E-1,2.0913124E-1,2.683363E-1,1.6585255E0,3.234289E0,6.990433E-1,3.9102364E-1,0E0,0E0,2.579099E-1,0E0,0E0,4.028797E-2,1.5680075E0,2.844348E-1,1.3163531E0,1.7549914E0,6.487249E-1,8.057349E-1,1.9617577E0,0E0,0E0,0E0,0E0,0E0,0E0,0E0,0E0,0E0,0E0,0E0,0E0,0E0,0E0,0E0,0E0,0E0,0E0,0E0],"parents":[2147483647,0,0,2,2,3,3,4,4,5,5,6,6,7,7,8,8,10,10,11,11,12,12,13,13,14,14,15,15,16,16,19,19,22,22,23,23,24,24,25,25,26,26,27,27,28,28,29,29],"right_children":[2,-1,4,6,8,10,12,14,16,-1,18,20,22,24,26,28,30,-1,-1,32,-1,-1,34,36,38,40,42,44,46,48,-1,-1,-1,-1,-1,-1,-1,-1,-1,-1,-1,-1,-1,-1,-1,-1,-1,-1,-1],"split_conditions":[4.3E1,-8.791821E-2,5.7E1,4.5E1,1E0,1E0,5E1,1E0,6.4E1,-3.3635575E-2,4.4E1,1E0,5.4E1,7.7E1,6.6E1,5.9E1,8.3E1,-1.9331906E-2,1.3007246E-2,1E0,-6.829662E-2,-6.672261E-2,5.6E1,7.5E1,9.7E1,6.1E1,6.9E1,2E0,1E0,7.6E1,-8.5920155E-2,-4.3416902E-2,-1.4676844E-2,-3.2622613E-2,-5.4326978E-2,-1.799441E-2,4.8263606E-2,-6.084286E-2,-3.2459595E-3,-8.087034E-3,-6.45175E-2,6.756234E-2,5.037175E-3,1.5861249E-2,-5.4551937E-2,5.6225606E-3,6.0340818E-2,-7.477539E-2,-1.8003613E-2],"split_indices":[2,0,2,2,4,1,2,1,2,0,2,4,2,2,2,2,2,0,0,1,0,0,2,2,2,2,2,4,1,2,0,0,0,0,0,0,0,0,0,0,0,0,0,0,0,0,0,0,0],"split_type":[0,0,0,0,0,0,0,0,0,0,0,0,0,0,0,0,0,0,0,0,0,0,0,0,0,0,0,0,0,0,0,0,0,0,0,0,0,0,0,0,0,0,0,0,0,0,0,0,0],"sum_hessian":[2.4781914E2,4.8364555E1,1.9945457E2,5.8649643E1,1.4080493E2,6.645303E0,5.200434E1,8.525559E1,5.5549347E1,3.516042E0,3.129261E0,1.7161484E1,3.4842854E1,4.5154865E1,4.0100723E1,1.3863177E1,4.168617E1,1.4767264E0,1.6525345E0,1.5015905E1,2.1455789E0,1.6966393E1,1.7876463E1,3.491165E1,1.0243213E1,1.619067E1,2.3910053E1,3.6422017E0,1.0220975E1,2.8648027E1,1.3038141E1,7.8250837E0,7.1908216E0,1.2326814E1,5.5496483E0,3.1870554E1,3.0410993E0,9.179702E0,1.0635109E0,8.771176E0,7.419493E0,4.9608903E0,1.8949163E1,2.447452E0,1.1947497E0,5.6159325E0,4.605043E0,1.8694342E1,9.953685E0],"tree_param":{"num_deleted":"0","num_feature":"5","num_nodes":"49","size_leaf_vector":"1"}},{"base_weights":[-3.6069897E-1,-8.24205E-2,-2.507626E-1,-2.943213E-1,-2.7292976E-2,-3.257222E-1,-1.0410677E-1,-1.9161832E-1,1.4590503E-1,-2.8782535E-1,-4.5736665E-1,6.2340313E-1,-3.0065668E-1,1.3490427E-2,-6.363406E-2,7.4216925E-2,1.9513965E-2,-4.39854E-1,-2.1799304E-1,-5.9303593E-2,-3.4051812E-1,2.4773847E-1,9.705686E-2,-7.7033296E-2,-7.1212195E-2,-1.3481864E-1,7.616472E-2,2.3576395E-1,-3.340089E-1,-2.6926039E-2,-5.1336993E-2,-2.396589E-2,1.2050198E-2,-1.0475379E-2,-5.1267546E-2,-5.876684E-2,9.343227E-2,-1.7828517E-2,3.719691E-2,2.0650243E-2,-4.943378E-2,-5.972969E-2,4.5793068E-2,-1.3645703E-2,-5.7871908E-2],"categories":[],"categories_nodes":[],"categories_segments":[],"categories_sizes":[],"default_left":[0,0,0,0,0,0,0,0,0,0,0,0,0,0,0,0,0,0,0,0,0,0,0,0,0,0,0,0,0,0,0,0,0,0,0,0,0,0,0,0,0,0,0,0,0],"id":56,"left_children":[1,-1,3,5,7,9,11,13,15,17,19,21,23,25,-1,-1,27,29,31,-1,33,35,-1,37,-1,39,-1,41,43,-1,-1,-1,-1,-1,-1,-1,-1,-1,-1,-1,-1,-1,-1,-1,-1],"loss_changes":[1.1959675E1,0E0,1.8845053E0,9.3732834E-1,9.61972E-1,5.623026E-1,3.6921291E0,1.5841106E0,1.2323997E0,1.0793982E0,2.6403952E-1,4.8189187E-1,1.7827488E0,1.5229388E0,0E0,0E0,1.2009029E0,2.864461E-1,5.9975076E-1,0E0,6.8261266E-1,2.8450289E0,0E0,7.055305E-1,0E0,1.5171795E0,0E0,2.0676026E0,2.103523E-1,0E0,0E0,0E0,0E0,0E0,0E0,0E0,0E0,0E0,0E0,0E0,0E0,0E0,0E0,0E0,0E0],"parents":[2147483647,0,0,2,2,3,3,4,4,5,5,6,6,7,7,8,8,9,9,10,10,11,11,12,12,13,13,16,16,17,17,18,18,20,20,21,21,23,23,25,25,27,27,28,28],"right_children":[2,-1,4,6,8,10,12,14,16,18,20,22,24,26,-1,-1,28,30,32,-1,34,36,-1,38,-1,40,-1,42,44,-1,-1,-1,-1,-1,-1,-1,-1,-1,-1,-1,-1,-1,-1,-1,-1],"split_conditions":[4.3E1,-8.24205E-2,4E0,8.1E1,6.6E1,7E1,8.3E1,6E1,6.8E1,5.4E1,7.5E1,1E0,1E0,5.9E1,-6.363406E-2,7.4216925E-2,7E0,4.7E1,6.9E1,-5.9303593E-2,7.7E1,8.2E1,9.705686E-2,9.7E1,-7.1212195E-2,5.3E1,7.616472E-2,7.1E1,8.6E1,-2.6926039E-2,-5.1336993E-2,-2.396589E-2,1.2050198E-2,-1.0475379E-2,-5.1267546E-2,-5.876684E-2,9.343227E-2,-1.7828517E-2,3.719691E-2,2.0650243E-2,-4.943378E-2,-5.972969E-2,4.5793068E-2,-1.3645703E-2,-5.7871908E-2],"split_indices":[2,0,0,2,2,2,2,2,2,2,2,1,0,2,0,0,0,2,2,0,2,2,0,2,0,2,0,2,2,0,0,0,0,0,0,0,0,0,0,0,0,0,0,0,0],"split_type":[0,0,0,0,0,0,0,0,0,0,0,0,0,0,0,0,0,0,0,0,0,0,0,0,0,0,0,0,0,0,0,0,0,0,0,0,0,0,0,0,0,0,0,0,0],"sum_hessian":[2.3776114E2,4.4336323E1,1.9342482E2,1.6160728E2,3.181753E1,1.3809753E2,2.350975E1,1.6272392E1,1.5545137E1,1.0970333E2,2.839421E1,4.5386524E0,1.8971098E1,1.1799879E1,4.472514E0,1.8667107E0,1.3678427E1,3.2862095E1,7.684123E1,1.1253204E1,1.7141006E1,3.0028734E0,1.535779E0,1.3060297E1,5.910801E0,1.053191E1,1.2679691E0,8.693632E0,4.9847946E0,1.1300926E1,2.1561169E1,7.249319E1,4.348046E0,7.9129434E0,9.228062E0,1.4196153E0,1.5832583E0,1.1149067E1,1.9112298E0,5.6210246E0,4.9108853E0,1.474853E0,7.2187786E0,3.6200192E0,1.3647753E0],"tree_param":{"num_deleted":"0","num_feature":"5","num_nodes":"45","size_leaf_vector":"1"}},{"base_weights":[-3.4062093E-1,-7.9681706E-1,-2.4618334E-1,-6.792635E-1,-9.3547784E-2,-2.9442745E-1,-1.0209364E-1,-7.828144E-1,-3.3635955E-2,-3.0784562E-1,5.7774037E-2,-1.7992549E-2,-6.834834E-2,-8.5949294E-2,-4.224252E-2,-2.7360052E-1,-5.899464E-2,8.955595E-2,-2.2681977E-1,-2.8424764E-1,-1.0090523E-2,-1.1498741E-1,4.069237E-1,-2.355085E-2,-4.5236993E-1,-2.5023565E-2,-3.4976665E-2,2.986149E-2,-3.774323E-2,2.7810335E-2,-2.8313814E-2,6.3563526E-2,1.4779553E-2,-4.219095E-2,3.9168034E-2,-6.334384E-2,5.248997E-3],"categories":[],"categories_nodes":[],"categories_segments":[],"categories_sizes":[],"default_left":[0,0,0,0,0,0,0,0,0,0,0,0,0,0,0,0,0,0,0,0,0,0,0,0,0,0,0,0,0,0,0,0,0,0,0,0,0],"id":57,"left_children":[1,3,5,7,-1,9,11,13,-1,15,-1,17,-1,-1,-1,19,-1,21,23,25,27,29,31,33,35,-1,-1,-1,-1,-1,-1,-1,-1,-1,-1,-1,-1],"loss_changes":[9.777876E0,4.4879913E-3,1.3133402E0,6.207628E-1,0E0,1.8659763E0,2.4327536E0,1.4455318E-1,0E0,1.2172956E0,0E0,1.02453E0,0E0,0E0,0E0,3.5942268E-1,0E0,2.009211E0,6.991937E-1,1.8897724E-1,7.989707E-1,1.3453481E0,6.212723E-1,1.6868002E0,6.9913423E-1,0E0,0E0,0E0,0E0,0E0,0E0,0E0,0E0,0E0,0E0,0E0,0E0],"parents":[2147483647,0,0,1,1,2,2,3,3,5,5,6,6,7,7,9,9,11,11,15,15,17,17,18,18,19,19,20,20,21,21,22,22,23,23,24,24],"right_children":[2,4,6,8,-1,10,12,14,-1,16,-1,18,-1,-1,-1,20,-1,22,24,26,28,30,32,34,36,-1,-1,-1,-1,-1,-1,-1,-1,-1,-1,-1,-1],"split_conditions":[4.2E1,3.4E1,7.5E1,3E1,-9.3547784E-2,4E0,3E0,1E0,-3.3635955E-2,7E1,5.7774037E-2,8.6E1,-6.834834E-2,-8.5949294E-2,-4.224252E-2,6.9E1,-5.899464E-2,8.1E1,1E0,6.1E1,1E0,7.6E1,8.3E1,1E0,9.4E1,-2.5023565E-2,-3.4976665E-2,2.986149E-2,-3.774323E-2,2.7810335E-2,-2.8313814E-2,6.3563526E-2,1.4779553E-2,-4.219095E-2,3.9168034E-2,-6.334384E-2,5.248997E-3],"split_indices":[2,2,2,2,0,4,4,1,0,2,0,2,0,0,0,2,0,2,4,2,1,2,2,1,2,0,0,0,0,0,0,0,0,0,0,0,0],"split_type":[0,0,0,0,0,0,0,0,0,0,0,0,0,0,0,0,0,0,0,0,0,0,0,0,0,0,0,0,0,0,0,0,0,0,0,0,0],"sum_hessian":[2.3051256E2,3.8258953E1,1.9225362E2,2.3897724E1,1.4361228E1,1.4324797E2,4.9005642E1,1.7369535E1,6.5281897E0,1.4171474E2,1.5332285E0,4.3713238E1,5.292403E0,1.3180313E1,4.189223E0,1.2813045E2,1.3584295E1,2.9230389E1,1.448285E1,1.2307876E2,5.051688E0,1.8162409E1,1.106798E1,8.198586E0,6.2842636E0,8.41924E1,3.888636E1,2.846581E0,2.2051075E0,5.245638E0,1.2916771E1,5.1072474E0,5.9607325E0,4.1760974E0,4.0224886E0,4.4379187E0,1.8463447E0],"tree_param":{"num_deleted":"0","num_feature":"5","num_nodes":"37","size_leaf_vector":"1"}},{"base_weights":[-3.3499575E-1,-7.9547536E-1,-2.3639284E-1,-8.146993E-2,-1.4691556E-2,-2.751398E-1,-2.3223916E-2,-3.3005777E-1,-8.9967735E-2,9.8496325E-2,-7.6738715E-2,-4.1211382E-1,-1.3176095E-1,6.6669285E-2,-4.6331045E-1,5.776857E-1,-5.04935E-2,-2.5513503E-1,-4.4241047E-1,6.827837E-2,-3.2067198E-1,1.68169E-1,-5.267281E-2,-2.401461E-2,-7.168876E-2,1.5640024E-2,8.04137E-1,-6.834423E-2,5.77008E-2,-3.632673E-2,3.4344662E-2,-5.95521E-2,-3.745546E-2,-7.239568E-2,2.4210325E-2,-5.226773E-2,-6.8840566E-3,-6.0852575E-3,7.466723E-2,-3.548227E-2,3.23034E-2,1.3391247E-1,-1.3661178E-2,1.4183007E-2,-5.8272373E-2],"categories":[],"categories_nodes":[],"categories_segments":[],"categories_sizes":[],"default_left":[0,0,0,0,0,0,0,0,0,0,0,0,0,0,0,0,0,0,0,0,0,0,0,0,0,0,0,0,0,0,0,0,0,0,0,0,0,0,0,0,0,0,0,0,0],"id":58,"left_children":[1,3,5,-1,-1,7,9,11,13,15,-1,17,19,21,23,25,27,29,31,33,35,37,-1,39,-1,-1,41,-1,43,-1,-1,-1,-1,-1,-1,-1,-1,-1,-1,-1,-1,-1,-1,-1,-1],"loss_changes":[9.962872E0,3.6663437E-1,1.5262642E0,0E0,0E0,1.5661316E0,2.7597246E0,1.9089546E0,2.2104058E0,1.9106636E0,0E0,2.9077053E-1,1.4119763E0,1.7225425E0,1.2238419E0,4.7819924E-1,1.4791003E0,1.1663692E0,5.0191116E-1,2.7491574E0,9.3536186E-1,3.2151628E0,0E0,7.0151514E-1,0E0,0E0,2.1337383E0,0E0,1.0996516E0,0E0,0E0,0E0,0E0,0E0,0E0,0E0,0E0,0E0,0E0,0E0,0E0,0E0,0E0,0E0,0E0],"parents":[2147483647,0,0,1,1,2,2,5,5,6,6,7,7,8,8,9,9,11,11,12,12,13,13,14,14,15,15,16,16,17,17,18,18,19,19,20,20,21,21,23,23,26,26,28,28],"right_children":[2,4,6,-1,-1,8,10,12,14,16,-1,18,20,22,24,26,28,30,32,34,36,38,-1,40,-1,-1,42,-1,44,-1,-1,-1,-1,-1,-1,-1,-1,-1,-1,-1,-1,-1,-1,-1,-1],"split_conditions":[4.3E1,7E0,8.1E1,-8.146993E-2,-1.4691556E-2,3E0,3E0,1E0,1E0,8.3E1,-7.6738715E-2,5E1,6.4E1,7.4E1,6.1E1,8.2E1,8.4E1,4.9E1,5.7E1,5.2E1,2E0,6.6E1,-5.267281E-2,5.7E1,-7.168876E-2,1.5640024E-2,1E0,-6.834423E-2,7E0,-3.632673E-2,3.4344662E-2,-5.95521E-2,-3.745546E-2,-7.239568E-2,2.4210325E-2,-5.226773E-2,-6.8840566E-3,-6.0852575E-3,7.466723E-2,-3.548227E-2,3.23034E-2,1.3391247E-1,-1.3661178E-2,1.4183007E-2,-5.8272373E-2],"split_indices":[2,0,2,0,0,0,4,4,4,2,0,2,2,2,2,2,2,2,2,2,4,2,0,2,0,0,0,0,0,0,0,0,0,0,0,0,0,0,0,0,0,0,0,0,0],"split_type":[0,0,0,0,0,0,0,0,0,0,0,0,0,0,0,0,0,0,0,0,0,0,0,0,0,0,0,0,0,0,0,0,0,0,0,0,0,0,0,0,0,0,0,0,0],"sum_hessian":[2.2256569E2,3.800647E1,1.8455922E2,3.666356E1,1.3429124E0,1.5592633E2,2.8632898E1,1.1965643E2,3.6269897E1,2.5353546E1,3.2793517E0,8.3871704E1,3.578473E1,2.6128878E1,1.0141021E1,5.330843E0,2.0022703E1,1.5092556E1,6.8779144E1,1.7690594E1,1.8094133E1,2.2924309E1,3.2045684E0,4.112041E0,6.0289793E0,2.4547436E0,2.876099E0,2.1468117E0,1.7875893E1,1.3116258E1,1.9762981E0,1.8733192E1,5.0045956E1,2.61364E0,1.5076953E1,9.443541E0,8.650594E0,1.7063795E1,5.8605137E0,2.0938115E0,2.0182297E0,1.5634979E0,1.3126012E0,1.648843E1,1.3874627E0],"tree_param":{"num_deleted":"0","num_feature":"5","num_nodes":"45","size_leaf_vector":"1"}},{"base_weights":[-3.0583906E-1,-6.0694087E-1,-1.8021175E-1,-7.214161E-2,-4.028575E-1,-2.023338E-1,5.2424435E-2,-6.314517E-1,-2.1386962E-1,-1.879529E-1,-4.97887E-2,3.5605657E-1,-5.949555E-1,-6.868111E-2,-1.2083414E-2,-1.1410899E-1,-6.323163E-2,-2.1113509E-1,-2.879592E-2,1.2587991E-1,1.0458366E-1,-1.1087323E-2,-7.291135E-2,1.6030807E-2,-2.9673162E-1,-1.9768097E-1,-6.6661805E-2,6.8779975E-2,-1.5530768E-1,2.754897E-1,-5.1060297E-2,2.0603945E-2,-5.8291417E-2,-4.172847E-2,-7.852221E-3,-2.1086736E-2,2.1608742E-2,-5.504019E-3,-6.3752726E-2,1.051131E-2,5.9575535E-2],"categories":[],"categories_nodes":[],"categories_segments":[],"categories_sizes":[],"default_left":[0,0,0,0,0,0,0,0,0,0,0,0,0,0,0,0,0,0,0,0,0,0,0,0,0,0,0,0,0,0,0,0,0,0,0,0,0,0,0,0,0],"id":59,"left_children":[1,3,5,-1,7,9,11,13,15,17,-1,19,21,-1,-1,23,-1,25,27,29,-1,-1,-1,31,33,35,-1,-1,37,39,-1,-1,-1,-1,-1,-1,-1,-1,-1,-1,-1],"loss_changes":[8.101694E0,1.1924839E0,8.0618095E-1,0E0,9.4833183E-1,5.0729084E-1,3.0066032E0,2.2335148E-1,5.640368E-1,4.9724722E-1,0E0,1.504358E0,2.3828137E-1,0E0,0E0,3.262316E-1,0E0,5.969534E-1,1.7841476E0,9.846241E-1,0E0,0E0,0E0,1.126915E0,1.16639435E-1,6.835251E-1,0E0,0E0,7.646965E-1,3.643896E-1,0E0,0E0,0E0,0E0,0E0,0E0,0E0,0E0,0E0,0E0,0E0],"parents":[2147483647,0,0,1,1,2,2,4,4,5,5,6,6,7,7,8,8,9,9,11,11,12,12,15,15,17,17,18,18,19,19,23,23,24,24,25,25,28,28,29,29],"right_children":[2,4,6,-1,8,10,12,14,16,18,-1,20,22,-1,-1,24,-1,26,28,30,-1,-1,-1,32,34,36,-1,-1,38,40,-1,-1,-1,-1,-1,-1,-1,-1,-1,-1,-1],"split_conditions":[5.2E1,1E0,6E0,-7.214161E-2,4.2E1,5E0,7.6E1,7E0,1E0,8.4E1,-4.97887E-2,7.2E1,7E0,-6.868111E-2,-1.2083414E-2,4.8E1,-6.323163E-2,8.3E1,8.5E1,6.9E1,1.0458366E-1,-1.1087323E-2,-7.291135E-2,5E0,5E1,8.2E1,-6.6661805E-2,6.8779975E-2,3E0,6.6E1,-5.1060297E-2,2.0603945E-2,-5.8291417E-2,-4.172847E-2,-7.852221E-3,-2.1086736E-2,2.1608742E-2,-5.504019E-3,-6.3752726E-2,1.051131E-2,5.9575535E-2],"split_indices":[2,0,0,0,2,0,2,0,4,2,0,2,0,0,0,2,0,2,2,2,0,0,0,0,2,2,0,0,4,2,0,0,0,0,0,0,0,0,0,0,0],"split_type":[0,0,0,0,0,0,0,0,0,0,0,0,0,0,0,0,0,0,0,0,0,0,0,0,0,0,0,0,0,0,0,0,0,0,0,0,0,0,0,0,0],"sum_hessian":[2.1607133E2,6.2482605E1,1.5358873E2,3.840526E1,2.4077343E1,1.4037073E2,1.3217997E1,9.837258E0,1.4240085E1,1.3541759E2,4.953144E0,9.304182E0,3.9138148E0,8.563747E0,1.2735118E0,1.25264E1,1.7136854E0,1.1791585E2,1.7501741E1,7.862869E0,1.4413131E0,1.2456336E0,2.6681812E0,7.8468375E0,4.679562E0,1.1592562E2,1.9902247E0,1.9604717E0,1.554127E1,6.825626E0,1.0372425E0,6.455043E0,1.3917946E0,2.426624E0,2.2529378E0,1.1282052E2,3.1051023E0,1.3788399E1,1.752871E0,5.322396E0,1.5032301E0],"tree_param":{"num_deleted":"0","num_feature":"5","num_nodes":"41","size_leaf_vector":"1"}},{"base_weights":[-2.558067E-1,-2.8472063E-1,-9.905287E-2,-3.3723414E-1,-1.5071607E-1,7.665586E-2,-5.162761E-1,-3.8202446E-2,-2.4301909E-2,-1.0871523E-1,-3.3712593E-1,1.7992528E-1,-3.8701522E-1,-2.924799E-2,-7.6610416E-2,-1.4931376E-1,8.220179E-3,-4.6077188E-2,-1.0873157E-2,-6.4046435E-2,4.9440372E-1,-4.6001378E-1,-8.650652E-3,-1.0527614E-1,-3.49215E-2,4.9436307E-3,-2.37398E-2,6.148501E-2,1.245173E-1,-1.1718926E-2,-5.8991622E-2,-8.0650905E-3,-1.3997624E-2,-2.040544E-2,4.66863E-2],"categories":[],"categories_nodes":[],"categories_segments":[],"categories_sizes":[],"default_left":[0,0,0,0,0,0,0,0,0,0,0,0,0,0,0,0,0,0,0,0,0,0,0,0,0,0,0,0,0,0,0,0,0,0,0],"id":60,"left_children":[1,3,5,7,9,11,13,-1,-1,15,17,19,21,-1,-1,23,-1,-1,-1,25,27,29,-1,31,-1,-1,-1,-1,33,-1,-1,-1,-1,-1,-1],"loss_changes":[9.2612076E-1,1.1963768E0,2.5558167E0,4.4109154E-1,3.681872E-1,1.2678001E0,3.5184455E-1,0E0,0E0,3.507998E-1,2.0496881E-1,1.6541792E0,6.715411E-2,0E0,0E0,2.8342122E-1,0E0,0E0,0E0,2.634253E-1,3.4014988E-1,9.523648E-2,0E0,1.5402794E-2,0E0,0E0,0E0,0E0,4.9476093E-1,0E0,0E0,0E0,0E0,0E0,0E0],"parents":[2147483647,0,0,1,1,2,2,3,3,4,4,5,5,6,6,9,9,10,10,11,11,12,12,15,15,19,19,20,20,21,21,23,23,28,28],"right_children":[2,4,6,8,10,12,14,-1,-1,16,18,20,22,-1,-1,24,-1,-1,-1,26,28,30,-1,32,-1,-1,-1,-1,34,-1,-1,-1,-1,-1,-1],"split_conditions":[4E0,1E0,1E0,1E0,2E0,1E1,7E0,-3.8202446E-2,-2.4301909E-2,1E0,3E0,6E0,1.7E1,-2.924799E-2,-7.6610416E-2,3E0,8.220179E-3,-4.6077188E-2,-1.0873157E-2,5E0,8E0,1.2E1,-8.650652E-3,2E0,-3.49215E-2,4.9436307E-3,-2.37398E-2,6.148501E-2,9E0,-1.1718926E-2,-5.8991622E-2,-8.0650905E-3,-1.3997624E-2,-2.040544E-2,4.66863E-2],"split_indices":[0,4,4,0,0,0,0,0,0,0,0,0,0,0,0,4,0,0,0,0,0,0,0,4,0,0,0,0,0,0,0,0,0,0,0],"split_type":[0,0,0,0,0,0,0,0,0,0,0,0,0,0,0,0,0,0,0,0,0,0,0,0,0,0,0,0,0,0,0,0,0,0,0],"sum_hessian":[2.0955716E2,1.7623375E2,3.332341E1,1.2552616E2,5.0707592E1,2.4022772E1,9.30064E0,8.300861E1,4.2517544E1,4.267541E1,8.032181E0,2.0147459E1,3.8753128E0,6.0509334E0,3.2497067E0,3.5371555E1,7.3038554E0,4.550977E0,3.4812038E0,1.1794022E1,8.353436E0,2.6908715E0,1.1844412E0,3.0237062E1,5.134492E0,7.5598607E0,4.2341614E0,5.801894E0,2.551542E0,1.2621291E0,1.4287425E0,1.96304E1,1.0606662E1,1.5080854E0,1.0434567E0],"tree_param":{"num_deleted":"0","num_feature":"5","num_nodes":"35","size_leaf_vector":"1"}},{"base_weights":[-2.5010768E-1,-2.8476283E-1,-1.3047914E-1,-3.4367195E-1,-1.3929567E-1,-2.6543647E-2,-4.007296E-2,-3.6021065E-2,-1.9796764E-2,-7.609909E-2,-6.2577195E-2,5.041798E-2,-3.2847005E-1,-9.619253E-3,-4.2335015E-2,-5.012204E-2,3.6025874E-2,-4.6141312E-1,4.307294E-3,-9.691388E-2,3.5939362E-2,5.3858522E-2,-4.2138137E-2,-1.7229415E-1,-6.6061154E-2,-1.7058913E-2,4.266627E-3,-2.6101216E-3,1.5165985E-2,-2.1038406E-2,-4.369387E-3],"categories":[],"categories_nodes":[],"categories_segments":[],"categories_sizes":[],"default_left":[0,0,0,0,0,0,0,0,0,0,0,0,0,0,0,0,0,0,0,0,0,0,0,0,0,0,0,0,0,0,0],"id":61,"left_children":[1,3,5,7,9,11,-1,-1,-1,13,-1,15,17,19,-1,21,-1,23,-1,25,-1,27,-1,29,-1,-1,-1,-1,-1,-1,-1],"loss_changes":[8.1812096E-1,1.3156567E0,1.3428202E0,1.9996262E-1,1.414093E0,8.501106E-1,0E0,0E0,0E0,9.936086E-1,0E0,9.355427E-1,3.8635743E-1,1.2362493E0,0E0,9.150098E-1,0E0,2.0580113E-1,0E0,3.255442E-1,0E0,1.521036E-1,0E0,8.523576E-3,0E0,0E0,0E0,0E0,0E0,0E0,0E0],"parents":[2147483647,0,0,1,1,2,2,3,3,4,4,5,5,9,9,11,11,12,12,13,13,15,15,17,17,19,19,21,21,23,23],"right_children":[2,4,6,8,10,12,-1,-1,-1,14,-1,16,18,20,-1,22,-1,24,-1,26,-1,28,-1,30,-1,-1,-1,-1,-1,-1,-1],"split_conditions":[3E0,1E0,1E0,2E0,2E0,8E0,-4.007296E-2,-3.6021065E-2,-1.9796764E-2,3E0,-6.2577195E-2,6E0,1.4E1,1E0,-4.2335015E-2,5E0,3.6025874E-2,1E1,4.307294E-3,2E0,3.5939362E-2,4E0,-4.2138137E-2,9E0,-6.6061154E-2,-1.7058913E-2,4.266627E-3,-2.6101216E-3,1.5165985E-2,-2.1038406E-2,-4.369387E-3],"split_indices":[0,4,4,0,0,0,0,0,0,4,0,0,0,0,0,0,0,0,0,4,0,0,0,0,0,0,0,0,0,0,0],"split_type":[0,0,0,0,0,0,0,0,0,0,0,0,0,0,0,0,0,0,0,0,0,0,0,0,0,0,0,0,0,0,0],"sum_hessian":[2.0530237E2,1.5811711E2,4.7185257E1,1.1157186E2,4.6545246E1,3.487205E1,1.2313208E1,9.887632E1,1.2695541E1,4.2217354E1,4.327893E0,2.8452473E1,6.419578E0,3.6296276E1,5.9210773E0,2.2114717E1,6.3377566E0,4.5497375E0,1.8698405E0,2.9948866E1,6.34741E0,1.7943981E1,4.170736E0,2.6167266E0,1.9330109E0,1.9456757E1,1.0492107E1,1.0275846E1,7.6681356E0,1.5281525E0,1.088574E0],"tree_param":{"num_deleted":"0","num_feature":"5","num_nodes":"31","size_leaf_vector":"1"}},{"base_weights":[-2.9136628E-1,-6.320246E-1,-1.5594178E-1,-7.995827E-2,-4.313501E-1,-1.2855554E-1,-5.0871617E-1,-7.243597E-2,-1.11382365E-1,-1.6412371E-1,4.5887116E-2,-2.0192605E-1,-7.971917E-2,4.7712874E-2,-1.9117172E-1,-1.780832E-1,4.6969622E-2,1.5713978E-1,-6.970667E-2,-4.074908E-2,2.8246215E-3,-3.4232888E-1,9.5628224E-2,-4.3360597E-1,-1.5469943E-1,2.6398027E-1,-6.4690314E-2,-1.6750162E-2,-5.1416535E-2,-2.440962E-2,3.0524585E-2,-5.722939E-2,6.561423E-3,2.3582114E-2,-1.7878322E-2,5.2863058E-2,3.009564E-4],"categories":[],"categories_nodes":[],"categories_segments":[],"categories_sizes":[],"default_left":[0,0,0,0,0,0,0,0,0,0,0,0,0,0,0,0,0,0,0,0,0,0,0,0,0,0,0,0,0,0,0,0,0,0,0,0,0],"id":62,"left_children":[1,3,5,-1,7,9,11,-1,13,15,17,19,-1,-1,21,23,-1,25,-1,-1,-1,27,29,31,33,35,-1,-1,-1,-1,-1,-1,-1,-1,-1,-1,-1],"loss_changes":[9.1925125E0,1.5703773E0,1.339673E0,0E0,2.5528898E0,8.531952E-1,7.363219E-1,0E0,7.772157E-1,1.0872588E0,2.0821202E0,3.0735537E-1,0E0,0E0,6.214075E-1,6.004081E-1,0E0,2.0239773E0,0E0,0E0,0E0,1.8757486E-1,4.6391883E-1,6.4761055E-1,1.0193653E0,1.3626522E0,0E0,0E0,0E0,0E0,0E0,0E0,0E0,0E0,0E0,0E0,0E0],"parents":[2147483647,0,0,1,1,2,2,4,4,5,5,6,6,8,8,9,9,10,10,11,11,14,14,15,15,17,17,21,21,22,22,23,23,24,24,25,25],"right_children":[2,4,6,-1,8,10,12,-1,14,16,18,20,-1,-1,22,24,-1,26,-1,-1,-1,28,30,32,34,36,-1,-1,-1,-1,-1,-1,-1,-1,-1,-1,-1],"split_conditions":[5.2E1,4.2E1,9E1,-7.995827E-2,1E0,7.9E1,1E0,-7.243597E-2,