{"learner":{"attributes":{},"feature_names":[],"feature_types":[],"gradient_booster":{"model":{"gbtree_model_param":{"num_parallel_tree":"1","num_trees":"100"},"iteration_indptr":[0,1,2,3,4,5,6,7,8,9,10,11,12,13,14,15,16,17,18,19,20,21,22,23,24,25,26,27,28,29,30,31,32,33,34,35,36,37,38,39,40,41,42,43,44,45,46,47,48,49,50,51,52,53,54,55,56,57,58,59,60,61,62,63,64,65,66,67,68,69,70,71,72,73,74,75,76,77,78,79,80,81,82,83,84,85,86,87,88,89,90,91,92,93,94,95,96,97,98,99,100],"tree_info":[0,0,0,0,0,0,0,0,0,0,0,0,0,0,0,0,0,0,0,0,0,0,0,0,0,0,0,0,0,0,0,0,0,0,0,0,0,0,0,0,0,0,0,0,0,0,0,0,0,0,0,0,0,0,0,0,0,0,0,0,0,0,0,0,0,0,0,0,0,0,0,0,0,0,0,0,0,0,0,0,0,0,0,0,0,0,0,0,0,0,0,0,0,0,0,0,0,0,0,0],"trees":[{"base_weights":[-1.128464E0],"categories":[],"categories_nodes":[],"categories_segments":[],"categories_sizes":[],"default_left":[0],"id":0,"left_children":[-1],"loss_changes":[0E0],"parents":[2147483647],"right_children":[-1],"split_conditions":[-1.128464E-1],"split_indices":[0],"split_type":[0],"sum_hessian":[2.1049707E4],"tree_param":{"num_deleted":"0","num_feature":"5","num_nodes":"1","size_leaf_vector":"1"}},{"base_weights":[-1.1133572E0],"categories":[],"categories_nodes":[],"categories_segments":[],"categories_sizes":[],"default_left":[0],"id":1,"left_children":[-1],"loss_changes":[0E0],"parents":[2147483647],"right_children":[-1],"split_conditions":[-1.1133572E-1],"split_indices":[0],"split_type":[0],"sum_hessian":[1.926357E4],"tree_param":{"num_deleted":"0","num_feature":"5","num_nodes":"1","size_leaf_vector":"1"}},{"base_weights":[-1.1000838E0],"categories":[],"categories_nodes":[],"categories_segments":[],"categories_sizes":[],"default_left":[0],"id":2,"left_children":[-1],"loss_changes":[0E0],"parents":[2147483647],"right_children":[-1],"split_conditions":[-1.1000838E-1],"split_indices":[0],"split_type":[0],"sum_hessian":[1.7643004E4],"tree_param":{"num_deleted":"0","num_feature":"5","num_nodes":"1","size_leaf_vector":"1"}},{"base_weights":[-1.0885456E0],"categories":[],"categories_nodes":[],"categories_segments":[],"categories_sizes":[],"default_left":[0],"id":3,"left_children":[-1],"loss_changes":[0E0],"parents":[2147483647],"right_children":[-1],"split_conditions":[-1.08854555E-1],"split_indices":[0],"split_type":[0],"sum_hessian":[1.6112946E4],"tree_param":{"num_deleted":"0","num_feature":"5","num_nodes":"1","size_leaf_vector":"1"}},{"base_weights":[-1.0771896E0],"categories":[],"categories_nodes":[],"categories_segments":[],"categories_sizes":[],"default_left":[0],"id":4,"left_children":[-1],"loss_changes":[0E0],"parents":[2147483647],"right_children":[-1],"split_conditions":[-1.0771896E-1],"split_indices":[0],"split_type":[0],"sum_hessian":[1.4759167E4],"tree_param":{"num_deleted":"0","num_feature":"5","num_nodes":"1","size_leaf_vector":"1"}},{"base_weights":[-1.0671104E0],"categories":[],"categories_nodes":[],"categories_segments":[],"categories_sizes":[],"default_left":[0],"id":5,"left_children":[-1],"loss_changes":[0E0],"parents":[2147483647],"right_children":[-1],"split_conditions":[-1.06711045E-1],"split_indices":[0],"split_type":[0],"sum_hessian":[1.3466049E4],"tree_param":{"num_deleted":"0","num_feature":"5","num_nodes":"1","size_leaf_vector":"1"}},{"base_weights":[-1.0580369E0],"categories":[],"categories_nodes":[],"categories_segments":[],"categories_sizes":[],"default_left":[0],"id":6,"left_children":[-1],"loss_changes":[0E0],"parents":[2147483647],"right_children":[-1],"split_conditions":[-1.0580369E-1],"split_indices":[0],"split_type":[0],"sum_hessian":[1.2284042E4],"tree_param":{"num_deleted":"0","num_feature":"5","num_nodes":"1","size_leaf_vector":"1"}},{"base_weights":[-1.049973E0],"categories":[],"categories_nodes":[],"categories_segments":[],"categories_sizes":[],"default_left":[0],"id":7,"left_children":[-1],"loss_changes":[0E0],"parents":[2147483647],"right_children":[-1],"split_conditions":[-1.049973E-1],"split_indices":[0],"split_type":[0],"sum_hessian":[1.1207129E4],"tree_param":{"num_deleted":"0","num_feature":"5","num_nodes":"1","size_leaf_vector":"1"}},{"base_weights":[-1.0412581E0],"categories":[],"categories_nodes":[],"categories_segments":[],"categories_sizes":[],"default_left":[0],"id":8,"left_children":[-1],"loss_changes":[0E0],"parents":[2147483647],"right_children":[-1],"split_conditions":[-1.0412581E-1],"split_indices":[0],"split_type":[0],"sum_hessian":[1.0188563E4],"tree_param":{"num_deleted":"0","num_feature":"5","num_nodes":"1","size_leaf_vector":"1"}},{"base_weights":[-1.0354916E0],"categories":[],"categories_nodes":[],"categories_segments":[],"categories_sizes":[],"default_left":[0],"id":9,"left_children":[-1],"loss_changes":[0E0],"parents":[2147483647],"right_children":[-1],"split_conditions":[-1.0354916E-1],"split_indices":[0],"split_type":[0],"sum_hessian":[9.281872E3],"tree_param":{"num_deleted":"0","num_feature":"5","num_nodes":"1","size_leaf_vector":"1"}},{"base_weights":[-1.0284214E0,-1.0395594E-1,-1.0156857E-1],"categories":[],"categories_nodes":[],"categories_segments":[],"categories_sizes":[],"default_left":[0,0,0],"id":10,"left_children":[1,-1,-1],"loss_changes":[1.4257812E-1,0E0,0E0],"parents":[2147483647,0,0],"right_children":[2,-1,-1],"split_conditions":[5.4E1,-1.0395594E-1,-1.0156857E-1],"split_indices":[2,0,0],"split_type":[0,0,0],"sum_hessian":[8.455383E3,4.467625E3,3.9877578E3],"tree_param":{"num_deleted":"0","num_feature":"5","num_nodes":"3","size_leaf_vector":"1"}},{"base_weights":[-1.0226423E0,-1.0355403E-1,-1.0079688E-1],"categories":[],"categories_nodes":[],"categories_segments":[],"categories_sizes":[],"default_left":[0,0,0],"id":11,"left_children":[1,-1,-1],"loss_changes":[4.1259766E-1,0E0,0E0],"parents":[2147483647,0,0],"right_children":[2,-1,-1],"split_conditions":[5.4E1,-1.0355403E-1,-1.0079688E-1],"split_indices":[2,0,0],"split_type":[0,0,0],"sum_hessian":[7.690138E3,4.055614E3,3.6345242E3],"tree_param":{"num_deleted":"0","num_feature":"5","num_nodes":"3","size_leaf_vector":"1"}},{"base_weights":[-1.0182972E0,-1.0308649E-1,-1.00607745E-1],"categories":[],"categories_nodes":[],"categories_segments":[],"categories_sizes":[],"default_left":[0,0,0],"id":12,"left_children":[1,-1,-1],"loss_changes":[3.90625E-2,0E0,0E0],"parents":[2147483647,0,0],"right_children":[2,-1,-1],"split_conditions":[5.2E1,-1.0308649E-1,-1.00607745E-1],"split_indices":[2,0,0],"split_type":[0,0,0],"sum_hessian":[7.009573E3,3.414483E3,3.5950903E3],"tree_param":{"num_deleted":"0","num_feature":"5","num_nodes":"3","size_leaf_vector":"1"}},{"base_weights":[-1.0114347E0,-1.02556184E-1,-9.954335E-2],"categories":[],"categories_nodes":[],"categories_segments":[],"categories_sizes":[],"default_left":[0,0,0],"id":13,"left_children":[1,-1,-1],"loss_changes":[4.189453E-1,0E0,0E0],"parents":[2147483647,0,0],"right_children":[2,-1,-1],"split_conditions":[5.4E1,-1.02556184E-1,-9.954335E-2],"split_indices":[2,0,0],"split_type":[0,0,0],"sum_hessian":[6.3671714E3,3.34811E3,3.0190615E3],"tree_param":{"num_deleted":"0","num_feature":"5","num_nodes":"3","size_leaf_vector":"1"}},{"base_weights":[-1.0079871E0,-1.0214368E-1,-9.926642E-2],"categories":[],"categories_nodes":[],"categories_segments":[],"categories_sizes":[],"default_left":[0,0,0],"id":14,"left_children":[1,-1,-1],"loss_changes":[1.8017578E-1,0E0,0E0],"parents":[2147483647,0,0],"right_children":[2,-1,-1],"split_conditions":[5.4E1,-1.0214368E-1,-9.926642E-2],"split_indices":[2,0,0],"split_type":[0,0,0],"sum_hessian":[5.7923564E3,3.049777E3,2.742579E3],"tree_param":{"num_deleted":"0","num_feature":"5","num_nodes":"3","size_leaf_vector":"1"}},{"base_weights":[-9.99131E-1,-1.0178492E-1,-9.811122E-2],"categories":[],"categories_nodes":[],"categories_segments":[],"categories_sizes":[],"default_left":[0,0,0],"id":15,"left_children":[1,-1,-1],"loss_changes":[7.763672E-1,0E0,0E0],"parents":[2147483647,0,0],"right_children":[2,-1,-1],"split_conditions":[5.2E1,-1.0178492E-1,-9.811122E-2],"split_indices":[2,0,0],"split_type":[0,0,0],"sum_hessian":[5.261928E3,2.5536677E3,2.7082607E3],"tree_param":{"num_deleted":"0","num_feature":"5","num_nodes":"3","size_leaf_vector":"1"}},{"base_weights":[-9.9450463E-1,-1.0142305E-1,-9.7232156E-2],"categories":[],"categories_nodes":[],"categories_segments":[],"categories_sizes":[],"default_left":[0,0,0],"id":16,"left_children":[1,-1,-1],"loss_changes":[1.1108398E0,0E0,0E0],"parents":[2147483647,0,0],"right_children":[2,-1,-1],"split_conditions":[5.4E1,-1.0142305E-1,-9.7232156E-2],"split_indices":[2,0,0],"split_type":[0,0,0],"sum_hessian":[4.791549E3,2.512575E3,2.2789739E3],"tree_param":{"num_deleted":"0","num_feature":"5","num_nodes":"3","size_leaf_vector":"1"}},{"base_weights":[-9.8605865E-1,-1.0076394E-1,-9.6192315E-2],"categories":[],"categories_nodes":[],"categories_segments":[],"categories_sizes":[],"default_left":[0,0,0],"id":17,"left_children":[1,-1,-1],"loss_changes":[1.2993164E0,0E0,0E0],"parents":[2147483647,0,0],"right_children":[2,-1,-1],"split_conditions":[5.4E1,-1.0076394E-1,-9.6192315E-2],"split_indices":[2,0,0],"split_type":[0,0,0],"sum_hessian":[4.35437E3,2.2773364E3,2.077034E3],"tree_param":{"num_deleted":"0","num_feature":"5","num_nodes":"3","size_leaf_vector":"1"}},{"base_weights":[-9.810591E-1,-1.0032089E-1,-9.542998E-1,-9.547875E-2,-2.7995883E-2],"categories":[],"categories_nodes":[],"categories_segments":[],"categories_sizes":[],"default_left":[0,0,0,0,0],"id":18,"left_children":[1,-1,3,-1,-1],"loss_changes":[1.3925781E0,0E0,3.2995605E-1,0E0,0E0],"parents":[2147483647,0,0,2,2],"right_children":[2,-1,4,-1,-1],"split_conditions":[5.5E1,-1.0032089E-1,2.8E1,-9.547875E-2,-2.7995883E-2],"split_indices":[2,0,0,0,0],"split_type":[0,0,0,0,0],"sum_hessian":[3.963952E3,2.148803E3,1.815149E3,1.8134216E3,1.7273934E0],"tree_param":{"num_deleted":"0","num_feature":"5","num_nodes":"5","size_leaf_vector":"1"}},{"base_weights":[-9.7578174E-1,-1.0046156E-1,-9.4855875E-1,-9.4901696E-2,-3.4354117E-2],"categories":[],"categories_nodes":[],"categories_segments":[],"categories_sizes":[],"default_left":[0,0,0,0,0],"id":19,"left_children":[1,-1,3,-1,-1],"loss_changes":[1.880127E0,0E0,1.9372559E-1,0E0,0E0],"parents":[2147483647,0,0,2,2],"right_children":[2,-1,4,-1,-1],"split_conditions":[5.2E1,-1.0046156E-1,2.8E1,-9.4901696E-2,-3.4354117E-2],"split_indices":[2,0,0,0,0],"split_type":[0,0,0,0,0],"sum_hessian":[3.608234E3,1.7348375E3,1.8733965E3,1.8714105E3,1.9858962E0],"tree_param":{"num_deleted":"0","num_feature":"5","num_nodes":"5","size_leaf_vector":"1"}},{"base_weights":[-9.707357E-1,-1.00212194E-1,-9.411193E-2],"categories":[],"categories_nodes":[],"categories_segments":[],"categories_sizes":[],"default_left":[0,0,0],"id":20,"left_children":[1,-1,-1],"loss_changes":[2.1115723E0,0E0,0E0],"parents":[2147483647,0,0],"right_children":[2,-1,-1],"split_conditions":[5.2E1,-1.00212194E-1,-9.411193E-2],"split_indices":[2,0,0],"split_type":[0,0,0],"sum_hessian":[3.2853743E3,1.5790876E3,1.7062866E3],"tree_param":{"num_deleted":"0","num_feature":"5","num_nodes":"3","size_leaf_vector":"1"}},{"base_weights":[-9.665943E-1,-9.968939E-2,-9.382566E-2],"categories":[],"categories_nodes":[],"categories_segments":[],"categories_sizes":[],"default_left":[0,0,0],"id":21,"left_children":[1,-1,-1],"loss_changes":[1.6323242E0,0E0,0E0],"parents":[2147483647,0,0],"right_children":[2,-1,-1],"split_conditions":[5.2E1,-9.968939E-2,-9.382566E-2],"split_indices":[2,0,0],"split_type":[0,0,0],"sum_hessian":[2.9893188E3,1.4281326E3,1.5611863E3],"tree_param":{"num_deleted":"0","num_feature":"5","num_nodes":"3","size_leaf_vector":"1"}},{"base_weights":[-9.5710194E-1,-9.574211E-2,-3.9672697E-1,-9.696477E-3,-5.2319396E-2],"categories":[],"categories_nodes":[],"categories_segments":[],"categories_sizes":[],"default_left":[0,0,0,0,0],"id":22,"left_children":[1,-1,3,-1,-1],"loss_changes":[1.07421875E-1,0E0,7.279122E-2,0E0,0E0],"parents":[2147483647,0,0,2,2],"right_children":[2,-1,4,-1,-1],"split_conditions":[2.8E1,-9.574211E-2,4E1,-9.696477E-3,-5.2319396E-2],"split_indices":[0,0,0,0,0],"split_type":[0,0,0,0,0],"sum_hessian":[2.7232305E3,2.7209722E3,2.2583108E0,1.1942719E0,1.0640389E0],"tree_param":{"num_deleted":"0","num_feature":"5","num_nodes":"5","size_leaf_vector":"1"}},{"base_weights":[-9.5024663E-1,-9.882256E-2,-9.089659E-1,-9.0967886E-2,-1.587925E-2],"categories":[],"categories_nodes":[],"categories_segments":[],"categories_sizes":[],"default_left":[0,0,0,0,0],"id":23,"left_children":[1,-1,3,-1,-1],"loss_changes":[2.991455E0,0E0,4.981079E-1,0E0,0E0],"parents":[2147483647,0,0,2,2],"right_children":[2,-1,4,-1,-1],"split_conditions":[5.4E1,-9.882256E-2,2.8E1,-9.0967886E-2,-1.587925E-2],"split_indices":[2,0,0,0,0],"split_type":[0,0,0,0,0],"sum_hessian":[2.4799795E3,1.2796989E3,1.2002806E3,1.1989286E3,1.3520347E0],"tree_param":{"num_deleted":"0","num_feature":"5","num_nodes":"5","size_leaf_vector":"1"}},{"base_weights":[-9.470979E-1,-9.863823E-2,-9.046003E-1,-9.053748E-1,-1.5587983E-2,-9.067037E-2,-5.210646E-1,-1.4520982E-1,-7.355073E-2,2.2200609E-2,-5.144629E-2],"categories":[],"categories_nodes":[],"categories_segments":[],"categories_sizes":[],"default_left":[0,0,0,0,0,0,0,0,0,0,0],"id":24,"left_children":[1,-1,3,5,-1,-1,7,9,-1,-1,-1],"loss_changes":[2.8881836E0,0E0,4.9658203E-1,8.862305E-2,0E0,0E0,3.8777757E-1,5.8543277E-1,0E0,0E0,0E0],"parents":[2147483647,0,0,2,2,3,3,6,6,7,7],"right_children":[2,-1,4,6,-1,-1,8,10,-1,-1,-1],"split_conditions":[5.4E1,-9.863823E-2,2.8E1,1E2,-1.5587983E-2,-9.067037E-2,1.02E2,1E0,-7.355073E-2,2.2200609E-2,-5.144629E-2],"split_indices":[2,0,0,2,0,0,2,0,0,0,0],"split_type":[0,0,0,0,0,0,0,0,0,0,0],"sum_hessian":[2.263503E3,1.1646768E3,1.0988262E3,1.0974817E3,1.3444966E0,1.0923453E3,5.1362863E0,2.4751787E0,2.6611075E0,1.4409491E0,1.0342295E0],"tree_param":{"num_deleted":"0","num_feature":"5","num_nodes":"11","size_leaf_vector":"1"}},{"base_weights":[-9.3681914E-1,-9.8255545E-2,-8.9479095E-1,-8.96092E-2,-5.1702756E-1,-1.5548808E-2,-7.281526E-2],"categories":[],"categories_nodes":[],"categories_segments":[],"categories_sizes":[],"default_left":[0,0,0,0,0,0,0],"id":25,"left_children":[1,-1,3,-1,5,-1,-1],"loss_changes":[3.0845947E0,0E0,7.043457E-2,0E0,3.5170245E-1,0E0,0E0],"parents":[2147483647,0,0,2,2,4,4],"right_children":[2,-1,4,-1,6,-1,-1],"split_conditions":[5.2E1,-9.8255545E-2,1E2,-8.96092E-2,1.02E2,-1.5548808E-2,-7.281526E-2],"split_indices":[2,0,2,0,2,0,0],"split_type":[0,0,0,0,0,0,0],"sum_hessian":[2.0611465E3,9.763145E2,1.0848319E3,1.079741E3,5.0909357E0,2.5170708E0,2.5738652E0],"tree_param":{"num_deleted":"0","num_feature":"5","num_nodes":"7","size_leaf_vector":"1"}},{"base_weights":[-9.325481E-1,-9.759311E-2,-8.8638586E-1,-8.8730305E-1,-1.0396048E-2,-8.888329E-2,-4.948054E-1,-1.2755239E-2,-7.154789E-2],"categories":[],"categories_nodes":[],"categories_segments":[],"categories_sizes":[],"default_left":[0,0,0,0,0,0,0,0,0],"id":26,"left_children":[1,-1,3,5,-1,-1,7,-1,-1],"loss_changes":[2.9039307E0,0E0,5.699463E-1,1.1352539E-1,0E0,0E0,3.815049E-1,0E0,0E0],"parents":[2147483647,0,0,2,2,3,3,6,6],"right_children":[2,-1,4,6,-1,-1,8,-1,-1],"split_conditions":[5.4E1,-9.759311E-2,2.8E1,1E2,-1.0396048E-2,-8.888329E-2,1.02E2,-1.2755239E-2,-7.154789E-2],"split_indices":[2,0,0,2,0,0,2,0,0],"split_type":[0,0,0,0,0,0,0,0,0],"sum_hessian":[1.8810576E3,9.5933826E2,9.217194E2,9.2050635E2,1.2130567E0,9.1567285E2,4.833517E0,2.406517E0,2.427E0],"tree_param":{"num_deleted":"0","num_feature":"5","num_nodes":"9","size_leaf_vector":"1"}},{"base_weights":[-9.1608506E-1,-9.717099E-2,-8.575498E-1,-8.585129E-1,-9.866508E-3,-8.600986E-2,-4.5343745E-1,-8.331406E-3,-6.900168E-2],"categories":[],"categories_nodes":[],"categories_segments":[],"categories_sizes":[],"default_left":[0,0,0,0,0,0,0,0,0],"id":27,"left_children":[1,-1,3,5,-1,-1,7,-1,-1],"loss_changes":[4.7541504E0,0E0,5.3271484E-1,1.5179443E-1,0E0,0E0,4.1569078E-1,0E0,0E0],"parents":[2147483647,0,0,2,2,3,3,6,6],"right_children":[2,-1,4,6,-1,-1,8,-1,-1],"split_conditions":[5.4E1,-9.717099E-2,2.8E1,1E2,-9.866508E-3,-8.600986E-2,1.02E2,-8.331406E-3,-6.900168E-2],"split_indices":[2,0,0,2,0,0,2,0,0],"split_type":[0,0,0,0,0,0,0,0,0],"sum_hessian":[1.7150165E3,8.713707E2,8.436458E2,8.424453E2,1.2004526E0,8.380415E2,4.4038343E0,2.244509E0,2.1593251E0],"tree_param":{"num_deleted":"0","num_feature":"5","num_nodes":"9","size_leaf_vector":"1"}},{"base_weights":[-9.1493076E-1,-9.722983E-2,-8.552271E-1,-8.569226E-2,-4.578587E-1,-1.3600809E-2,-6.736409E-2],"categories":[],"categories_nodes":[],"categories_segments":[],"categories_sizes":[],"default_left":[0,0,0,0,0,0,0],"id":28,"left_children":[1,-1,3,-1,5,-1,-1],"loss_changes":[4.5424805E0,0E0,1.3122559E-1,0E0,2.8682113E-1,0E0,0E0],"parents":[2147483647,0,0,2,2,4,4],"right_children":[2,-1,4,-1,6,-1,-1],"split_conditions":[5.4E1,-9.722983E-2,1E2,-8.569226E-2,1.02E2,-1.3600809E-2,-6.736409E-2],"split_indices":[2,0,2,0,2,0,0],"split_type":[0,0,0,0,0,0,0],"sum_hessian":[1.5680187E3,7.918584E2,7.7616034E2,7.717112E2,4.4491553E0,2.4400268E0,2.0091286E0],"tree_param":{"num_deleted":"0","num_feature":"5","num_nodes":"7","size_leaf_vector":"1"}},{"base_weights":[-9.075021E-1,-9.7679004E-2,-8.464969E-1,-8.475452E-1,-8.631853E-3,-8.557267E-2,-7.177737E-1,-5.095498E-1,-9.262138E-2,-6.62141E-2,-3.234825E-1,7.6370053E-3,-6.426908E-2],"categories":[],"categories_nodes":[],"categories_segments":[],"categories_sizes":[],"default_left":[0,0,0,0,0,0,0,0,0,0,0,0,0],"id":29,"left_children":[1,-1,3,5,-1,-1,7,9,-1,-1,11,-1,-1],"loss_changes":[5.230591E0,0E0,5.4016113E-1,2.0159912E-1,0E0,0E0,1.7751293E0,5.8428526E-1,0E0,0E0,1.9159861E0,0E0,0E0],"parents":[2147483647,0,0,2,2,3,3,6,6,7,7,10,10],"right_children":[2,-1,4,6,-1,-1,8,10,-1,-1,12,-1,-1],"split_conditions":[5.2E1,-9.7679004E-2,2.8E1,6E0,-8.631853E-3,-8.557267E-2,1E0,6.6E1,-9.262138E-2,-6.62141E-2,7.6E1,7.6370053E-3,-6.426908E-2],"split_indices":[2,0,0,0,0,0,4,2,0,0,2,0,0],"split_type":[0,0,0,0,0,0,0,0,0,0,0,0,0],"sum_hessian":[1.4320449E3,6.634767E2,7.685682E2,7.6739496E2,1.1732483E0,7.166215E2,5.077343E1,2.7123074E1,2.3650356E1,1.3496324E1,1.3626751E1,6.3869557E0,7.239795E0],"tree_param":{"num_deleted":"0","num_feature":"5","num_nodes":"13","size_leaf_vector":"1"}},{"base_weights":[-8.938661E-1,-9.589564E-2,-8.2768184E-1,-8.29651E-2,-3.9820492E-1,-5.7435366E-3,-6.434063E-2],"categories":[],"categories_nodes":[],"categories_segments":[],"categories_sizes":[],"default_left":[0,0,0,0,0,0,0],"id":30,"left_children":[1,-1,3,-1,5,-1,-1],"loss_changes":[4.8586426E0,0E0,2.2598267E-1,0E0,3.7459987E-1,0E0,0E0],"parents":[2147483647,0,0,2,2,4,4],"right_children":[2,-1,4,-1,6,-1,-1],"split_conditions":[5.4E1,-9.589564E-2,1E2,-8.29651E-2,1.02E2,-5.7435366E-3,-6.434063E-2],"split_indices":[2,0,2,0,2,0,0],"split_type":[0,0,0,0,0,0,0],"sum_hessian":[1.3110712E3,6.541981E2,6.5687305E2,6.5294763E2,3.9254205E0,2.159075E0,1.7663456E0],"tree_param":{"num_deleted":"0","num_feature":"5","num_nodes":"7","size_leaf_vector":"1"}},{"base_weights":[-8.812731E-1,-8.954019E-1,-8.1333035E-1,-9.1644794E-2,-8.043734E-2,-8.165728E-2,-2.1232886E-2],"categories":[],"categories_nodes":[],"categories_segments":[],"categories_sizes":[],"default_left":[0,0,0,0,0,0,0],"id":31,"left_children":[1,3,5,-1,-1,-1,-1],"loss_changes":[4.2523193E-1,1.1496582E0,2.5100708E-1,0E0,0E0,0E0,0E0],"parents":[2147483647,0,0,1,1,2,2],"right_children":[2,4,6,-1,-1,-1,-1],"split_conditions":[3E0,1E0,2.8E1,-9.1644794E-2,-8.043734E-2,-8.165728E-2,-2.1232886E-2],"split_indices":[0,4,0,0,0,0,0],"split_type":[0,0,0,0,0,0,0],"sum_hessian":[1.2006499E3,9.838728E2,2.1677707E2,7.9175037E2,1.9212244E2,2.1525703E2,1.5200417E0],"tree_param":{"num_deleted":"0","num_feature":"5","num_nodes":"7","size_leaf_vector":"1"}},{"base_weights":[-8.7201005E-1,-9.6146934E-2,-7.9530483E-1,-7.965914E-1,-4.165878E-3,-8.2287663E-1,-7.2028065E-1,-8.246766E-1,-8.401235E-3,-2.7242944E-1,-7.521904E-1,-8.2641244E-1,-1.53630925E-2,-3.7325138E-1,3.5765734E-2,-7.1343064E-1,-9.577252E-2,-8.3527185E-2,-6.500234E-2,-6.483421E-4,-8.072786E-2,-7.184815E-2,-9.244214E-3],"categories":[],"categories_nodes":[],"categories_segments":[],"categories_sizes":[],"default_left":[0,0,0,0,0,0,0,0,0,0,0,0,0,0,0,0,0,0,0,0,0,0,0],"id":32,"left_children":[1,-1,3,5,-1,7,9,11,-1,13,15,17,-1,19,-1,21,-1,-1,-1,-1,-1,-1,-1],"loss_changes":[6.786804E0,0E0,5.469055E-1,6.0513306E-1,0E0,5.1208496E-1,2.0961914E0,3.809204E-1,0E0,9.1344875E-1,5.096512E-1,1.3626099E-1,0E0,1.7574998E0,0E0,3.410263E-1,0E0,0E0,0E0,0E0,0E0,0E0,0E0],"parents":[2147483647,0,0,2,2,3,3,5,5,6,6,7,7,9,9,10,10,11,11,13,13,15,15],"right_children":[2,-1,4,6,-1,8,10,12,-1,14,16,18,-1,20,-1,22,-1,-1,-1,-1,-1,-1,-1],"split_conditions":[5.2E1,-9.6146934E-2,2.8E1,7.5E1,-4.165878E-3,5E0,7.6E1,1.7E1,-8.401235E-3,5E0,3E0,6E0,-1.53630925E-2,1E0,3.5765734E-2,1.4E1,-9.577252E-2,-8.3527185E-2,-6.500234E-2,-6.483421E-4,-8.072786E-2,-7.184815E-2,-9.244214E-3],"split_indices":[2,0,0,2,0,4,2,0,0,0,4,0,0,0,0,0,0,0,0,0,0,0,0],"split_type":[0,0,0,0,0,0,0,0,0,0,0,0,0,0,0,0,0,0,0,0,0,0,0],"sum_hessian":[1.0994785E3,5.022189E2,5.9725964E2,5.961849E2,1.0747435E0,4.3616467E2,1.6002022E2,4.3498886E2,1.1757977E0,1.1277576E1,1.4874265E2,4.336356E2,1.3532797E0,1.0073334E1,1.2042435E0,1.2890486E2,1.9837778E1,4.0934055E2,2.4295036E1,6.0097904E0,4.063543E0,1.27709145E2,1.1957217E0],"tree_param":{"num_deleted":"0","num_feature":"5","num_nodes":"23","size_leaf_vector":"1"}},{"base_weights":[-8.595697E-1,-8.774396E-1,-7.9119754E-1,-8.94767E-2,-7.229504E-2,-7.247541E-2,-9.026479E-2],"categories":[],"categories_nodes":[],"categories_segments":[],"categories_sizes":[],"default_left":[0,0,0,0,0,0,0],"id":33,"left_children":[1,3,5,-1,-1,-1,-1],"loss_changes":[5.396118E-1,1.4717407E0,9.7068787E-1,0E0,0E0,0E0,0E0],"parents":[2147483647,0,0,1,1,2,2],"right_children":[2,4,6,-1,-1,-1,-1],"split_conditions":[1E0,4E0,1E0,-8.94767E-2,-7.229504E-2,-7.247541E-2,-9.026479E-2],"split_indices":[4,0,1,0,0,0,0],"split_type":[0,0,0,0,0,0,0],"sum_hessian":[1.0088797E3,7.9045215E2,2.184276E2,7.064279E2,8.402418E1,1.4154538E2,7.6882225E1],"tree_param":{"num_deleted":"0","num_feature":"5","num_nodes":"7","size_leaf_vector":"1"}},{"base_weights":[-8.4325457E-1,-9.472893E-1,-7.55615E-1,-9.789129E-2,-8.811976E-1,-7.7409095E-1,-6.793111E-1,-9.051205E-2,-6.320941E-1,-8.108182E-1,-6.91467E-1,-5.619519E-1,-8.281615E-1,-3.353614E-1,-7.347637E-1,-8.38433E-2,-6.765726E-1,-4.1756546E-1,-7.455798E-2,-6.367475E-1,-3.7798184E-1,-5.9319466E-1,-9.101985E-2,1.1423914E-3,-6.7436375E-2,-8.005178E-2,-1.3723745E-2,-5.452084E-2,-7.3127526E-1,-5.0482434E-1,4.0589668E-2,-4.6872035E-1,-7.0012903E-1,-1.1730308E-1,-4.7054246E-1,-6.9422655E-2,1.0999487E-2,2.31443E-2,-5.5179536E-2,-7.8626044E-2,-3.2368433E-2,-2.8288984E-3,-5.5308767E-2,-1.1852606E-2,-7.551635E-2,-9.0400346E-2,-5.6759972E-2,-5.901381E-2,7.0141904E-2,-5.1252335E-2,-2.1044042E-2],"categories":[],"categories_nodes":[],"categories_segments":[],"categories_sizes":[],"default_left":[0,0,0,0,0,0,0,0,0,0,0,0,0,0,0,0,0,0,0,0,0,0,0,0,0,0,0,0,0,0,0,0,0,0,0,0,0,0,0,0,0,0,0,0,0,0,0,0,0,0,0],"id":34,"left_children":[1,3,5,-1,7,9,11,-1,13,15,17,19,21,23,25,-1,27,29,-1,31,33,35,-1,-1,-1,-1,-1,37,39,41,-1,43,45,47,49,-1,-1,-1,-1,-1,-1,-1,-1,-1,-1,-1,-1,-1,-1,-1,-1],"loss_changes":[7.754822E0,1.6967773E-2,1.9198608E-1,0E0,2.9921722E-1,6.6156006E-1,1.4112663E0,0E0,2.4489927E-1,4.4491577E-1,1.6263809E0,6.2867355E-1,3.3229065E-1,7.1132857E-1,3.2789183E-1,0E0,1.7214794E0,1.9179578E0,0E0,1.3463974E-1,4.4480753E-1,1.1122742E0,0E0,0E0,0E0,0E0,0E0,8.763386E-1,8.09988E-1,4.9038315E-1,0E0,1.407933E0,2.8472805E-1,3.031666E0,5.5501938E-2,0E0,0E0,0E0,0E0,0E0,0E0,0E0,0E0,0E0,0E0,0E0,0E0,0E0,0E0,0E0,0E0],"parents":[2147483647,0,0,1,1,2,2,4,4,5,5,6,6,8,8,9,9,10,10,11,11,12,12,13,13,14,14,16,16,17,17,19,19,20,20,21,21,27,27,28,28,29,29,31,31,32,32,33,33,34,34],"right_children":[2,4,6,-1,8,10,12,-1,14,16,18,20,22,24,26,-1,28,30,-1,32,34,36,-1,-1,-1,-1,-1,38,40,42,-1,44,46,48,50,-1,-1,-1,-1,-1,-1,-1,-1,-1,-1,-1,-1,-1,-1,-1,-1],"split_conditions":[5.2E1,4.2E1,3E0,-9.789129E-2,4E0,1E0,1E0,-9.051205E-2,5E0,7.5E1,6E1,6E0,6.6E1,4.8E1,5.1E1,-8.38433E-2,7.6E1,3E0,-7.455798E-2,6E1,7E0,3E0,-9.101985E-2,1.1423914E-3,-6.7436375E-2,-8.005178E-2,-1.3723745E-2,1E0,2E0,5.3E1,4.0589668E-2,4E0,6.6E1,7.2E1,1.4E1,-6.9422655E-2,1.0999487E-2,2.31443E-2,-5.5179536E-2,-7.8626044E-2,-3.2368433E-2,-2.8288984E-3,-5.5308767E-2,-1.1852606E-2,-7.551635E-2,-9.0400346E-2,-5.6759972E-2,-5.901381E-2,7.0141904E-2,-5.1252335E-2,-2.1044042E-2],"split_indices":[2,2,0,0,0,4,4,0,0,2,2,0,2,2,2,0,2,4,0,2,0,4,0,0,0,0,0,0,0,2,0,0,2,2,0,0,0,0,0,0,0,0,0,0,0,0,0,0,0,0,0],"split_type":[0,0,0,0,0,0,0,0,0,0,0,0,0,0,0,0,0,0,0,0,0,0,0,0,0,0,0,0,0,0,0,0,0,0,0,0,0,0,0,0,0,0,0,0,0,0,0,0,0,0,0],"sum_hessian":[9.2804474E2,4.1984653E2,5.081982E2,2.746299E2,1.452166E2,4.0177026E2,1.0642795E2,1.3008978E2,1.5126821E1,2.720346E2,1.2973566E2,6.2178993E1,4.4248955E1,4.9851875E0,1.0141633E1,2.2127255E2,5.076204E1,2.284059E1,1.06895065E2,4.2456535E1,1.9722456E1,1.3581168E1,3.0667788E1,2.941973E0,2.0432148E0,8.830203E0,1.3114301E0,4.26453E0,4.649751E1,2.1002039E1,1.8385507E0,1.3928009E1,2.8528528E1,5.76206E0,1.3960395E1,1.1886152E1,1.6950161E0,3.0469315E0,1.2175984E0,4.0151863E1,6.3456464E0,2.0773313E0,1.892471E1,6.9027543E0,7.0252542E0,8.945772E0,1.9582756E1,3.8295712E0,1.9324889E0,1.1184696E1,2.775699E0],"tree_param":{"num_deleted":"0","num_feature":"5","num_nodes":"51","size_leaf_vector":"1"}},{"base_weights":[-8.3021605E-1,-9.3923134E-1,-7.2487396E-1,-9.799308E-2,-8.729644E-1,-7.27714E-1,-1.9304705E-1,-9.0382695E-2,-5.8547544E-1,-7.539059E-1,-6.5771407E-1,1.7919268E-2,-5.4018166E-2,-7.50624E-2,-4.3062446E-1,-7.800659E-1,-6.377642E-1,-5.7406023E-2,-7.061601E-1,2.5619542E-2,-5.4205704E-1,-7.516606E-1,-9.066332E-2,-5.037181E-1,-7.025594E-1,-2.6598254E-1,9.209759E-2,-7.1054983E-1,-2.4658188E-2,-7.590446E-2,-3.5696205E-2,-7.686188E-2,-3.8837712E-2,-6.636006E-2,-5.3084833E-3,-8.519794E-2,-6.060592E-2,1.0153308E-2,-7.625287E-2,-4.7439698E-2,-7.2471626E-2],"categories":[],"categories_nodes":[],"categories_segments":[],"categories_sizes":[],"default_left":[0,0,0,0,0,0,0,0,0,0,0,0,0,0,0,0,0,0,0,0,0,0,0,0,0,0,0,0,0,0,0,0,0,0,0,0,0,0,0,0,0],"id":35,"left_children":[1,3,5,-1,7,9,11,-1,13,15,17,-1,-1,-1,19,21,23,25,27,-1,29,31,-1,33,35,37,-1,39,-1,-1,-1,-1,-1,-1,-1,-1,-1,-1,-1,-1,-1],"loss_changes":[9.145813E0,2.6953125E-1,5.234375E-1,0E0,9.603119E-1,3.0511475E-1,5.7436764E-1,0E0,1.6556501E-1,4.4763184E-1,3.6468277E0,0E0,0E0,0E0,1.0733595E0,2.1516418E-1,1.9041061E-1,2.3992152E0,6.129837E-2,0E0,1.6387963E-1,9.923935E-1,0E0,1.6906438E0,5.627632E-2,1.8069459E0,0E0,4.29039E-2,0E0,0E0,0E0,0E0,0E0,0E0,0E0,0E0,0E0,0E0,0E0,0E0,0E0],"parents":[2147483647,0,0,1,1,2,2,4,4,5,5,6,6,8,8,9,9,10,10,14,14,15,15,16,16,17,17,18,18,20,20,21,21,23,23,24,24,25,25,27,27],"right_children":[2,4,6,-1,8,10,12,-1,14,16,18,-1,-1,-1,20,22,24,26,28,-1,30,32,-1,34,36,38,-1,40,-1,-1,-1,-1,-1,-1,-1,-1,-1,-1,-1,-1,-1],"split_conditions":[5.4E1,4.2E1,1E2,-9.799308E-2,4E0,7.5E1,1.02E2,-9.0382695E-2,4.7E1,3E0,7.6E1,1.7919268E-2,-5.4018166E-2,-7.50624E-2,4.8E1,7E1,6.1E1,5E0,1.4E1,2.5619542E-2,5E0,6.9E1,-9.066332E-2,5.9E1,6.5E1,1E0,9.209759E-2,7.7E1,-2.4658188E-2,-7.590446E-2,-3.5696205E-2,-7.686188E-2,-3.8837712E-2,-6.636006E-2,-5.3084833E-3,-8.519794E-2,-6.060592E-2,1.0153308E-2,-7.625287E-2,-4.7439698E-2,-7.2471626E-2],"split_indices":[2,2,2,0,0,2,2,0,2,0,2,0,0,0,2,2,2,0,0,0,0,2,0,2,2,0,0,2,0,0,0,0,0,0,0,0,0,0,0,0,0],"split_type":[0,0,0,0,0,0,0,0,0,0,0,0,0,0,0,0,0,0,0,0,0,0,0,0,0,0,0,0,0,0,0,0,0,0,0,0,0,0,0,0,0],"sum_hessian":[8.5468756E2,4.1613068E2,4.385569E2,2.4925627E2,1.6687442E2,4.35861E2,2.695876E0,1.4876076E2,1.8113657E1,3.100714E2,1.25789604E2,1.5343524E0,1.1615236E0,6.903589E0,1.1210069E1,2.4840388E2,6.166751E1,9.556566E0,1.1623304E2,1.3835275E0,9.826542E0,2.085403E2,3.986359E1,2.295434E1,3.8713173E1,8.477442E0,1.0791245E0,1.1459241E2,1.6406288E0,3.096115E0,6.7304263E0,1.9817372E2,1.0366573E1,1.6594202E1,6.3601375E0,1.2119179E1,2.6593994E1,5.3288484E0,3.148593E0,8.436947E0,1.06155464E2],"tree_param":{"num_deleted":"0","num_feature":"5","num_nodes":"41","size_leaf_vector":"1"}},{"base_weights":[-8.023545E-1,-9.192593E-1,-6.9224405E-1,-9.725784E-2,-8.351719E-1,-6.364478E-1,-7.1650004E-1,-8.6506E-2,-5.6392956E-1,-7.355209E-2,-4.4899735E-1,-7.4238616E-1,-5.6994444E-1,-7.348685E-2,-4.074164E-1,-2.6095134E-1,-5.3738892E-2,-7.73026E-2,-6.432027E-1,-4.4780314E-1,-6.8433744E-1,2.5538592E-2,-5.207466E-1,-3.588893E-1,3.3357024E-2,-1.316828E-1,-7.4669234E-2,-5.3959095E-1,6.0679983E-2,-4.6026472E-2,-8.354121E-1,-7.4205436E-2,-3.3864934E-2,-2.2080207E-2,-7.352897E-2,-3.4633286E-2,4.943158E-2,-7.634793E-2,-3.926859E-2,-9.107377E-2,-7.2504394E-3],"categories":[],"categories_nodes":[],"categories_segments":[],"categories_sizes":[],"default_left":[0,0,0,0,0,0,0,0,0,0,0,0,0,0,0,0,0,0,0,0,0,0,0,0,0,0,0,0,0,0,0,0,0,0,0,0,0,0,0,0,0],"id":36,"left_children":[1,3,5,-1,7,9,11,-1,13,-1,15,17,19,-1,21,23,-1,-1,25,27,29,-1,31,33,-1,35,-1,37,-1,-1,39,-1,-1,-1,-1,-1,-1,-1,-1,-1,-1],"loss_changes":[9.5130005E0,8.886719E-1,9.8968506E-2,0E0,7.630005E-1,2.1435204E0,6.310425E-1,0E0,1.871705E-1,0E0,6.680088E-1,2.1040344E-1,3.3651352E-1,0E0,1.0147055E0,1.1382184E0,0E0,0E0,3.1260815E0,2.7617698E0,3.558035E-1,0E0,1.6593146E-1,6.4327025E-1,0E0,1.7115808E0,0E0,4.7851086E-1,0E0,0E0,6.1411095E-1,0E0,0E0,0E0,0E0,0E0,0E0,0E0,0E0,0E0,0E0],"parents":[2147483647,0,0,1,1,2,2,4,4,5,5,6,6,8,8,10,10,11,11,12,12,14,14,15,15,18,18,19,19,20,20,22,22,23,23,25,25,27,27,30,30],"right_children":[2,4,6,-1,8,10,12,-1,14,-1,16,18,20,-1,22,24,-1,-1,26,28,30,-1,32,34,-1,36,-1,38,-1,-1,40,-1,-1,-1,-1,-1,-1,-1,-1,-1,-1],"split_conditions":[5.4E1,4.2E1,6.2E1,-9.725784E-2,4E0,5.9E1,4E0,-8.6506E-2,4.7E1,-7.355209E-2,6E1,8.1E1,7.6E1,-7.348685E-2,4.8E1,4E0,-5.3738892E-2,-7.73026E-2,8.3E1,7.5E1,6E0,2.5538592E-2,5E0,2E0,3.3357024E-2,2E0,-7.4669234E-2,6.6E1,6.0679983E-2,-4.6026472E-2,9.4E1,-7.4205436E-2,-3.3864934E-2,-2.2080207E-2,-7.352897E-2,-3.4633286E-2,4.943158E-2,-7.634793E-2,-3.926859E-2,-9.107377E-2,-7.2504394E-3],"split_indices":[2,2,2,0,0,2,0,0,2,0,2,2,2,0,2,0,0,0,2,2,0,0,0,0,0,0,0,2,0,0,2,0,0,0,0,0,0,0,0,0,0],"split_type":[0,0,0,0,0,0,0,0,0,0,0,0,0,0,0,0,0,0,0,0,0,0,0,0,0,0,0,0,0,0,0,0,0,0,0,0,0,0,0,0,0],"sum_hessian":[7.874513E2,3.7837766E2,4.0907364E2,2.2508633E2,1.5329132E2,1.3220375E2,2.768699E2,1.361047E2,1.7186615E1,8.457799E1,4.762576E1,2.3185231E2,4.5017593E1,6.4485054E0,1.0738109E1,1.6492176E1,3.1133581E1,1.7194197E2,5.9910343E1,2.414827E1,2.0869322E1,1.3849391E0,9.353169E0,1.449989E1,1.9922866E0,1.0463689E1,4.9446655E1,2.2664042E1,1.484228E0,1.0033831E1,1.0835492E1,2.8339496E0,6.5192204E0,1.1768925E1,2.730965E0,8.124583E0,2.3391051E0,7.316442E0,1.5347601E1,9.685431E0,1.1500612E0],"tree_param":{"num_deleted":"0","num_feature":"5","num_nodes":"41","size_leaf_vector":"1"}},{"base_weights":[-7.996661E-1,-9.2835826E-1,-6.813753E-1,-9.692486E-2,-8.623975E-2,-6.859521E-1,-1.853378E-1,-6.933191E-2,-3.832915E-1,2.6836714E-2,-4.365506E-1,-2.8515763E-3,-4.6041486E-1,-5.7992738E-2,-7.7921287E-3,-5.580509E-1,-1.3732515E-1,-6.2188394E-2,-1.9965554E-2,2.5024433E-2,-5.1899727E-2],"categories":[],"categories_nodes":[],"categories_segments":[],"categories_sizes":[],"default_left":[0,0,0,0,0,0,0,0,0,0,0,0,0,0,0,0,0,0,0,0,0],"id":37,"left_children":[1,3,5,-1,-1,7,9,-1,11,-1,13,-1,15,-1,-1,17,19,-1,-1,-1,-1],"loss_changes":[1.0483154E1,9.991455E-2,7.4516296E-1,0E0,0E0,5.8229065E-1,6.7370087E-1,0E0,2.9534888E-1,0E0,1.3598818E-1,0E0,2.1342158E-1,0E0,0E0,2.9910564E-2,6.417287E-1,0E0,0E0,0E0,0E0],"parents":[2147483647,0,0,1,1,2,2,5,5,6,6,8,8,10,10,12,12,15,15,16,16],"right_children":[2,4,6,-1,-1,8,10,-1,12,-1,14,-1,16,-1,-1,18,20,-1,-1,-1,-1],"split_conditions":[5.4E1,4.2E1,1.4E1,-9.692486E-2,-8.623975E-2,9.4E1,6.7E1,-6.933191E-2,9.5E1,2.6836714E-2,8.1E1,-2.8515763E-3,1E2,-5.7992738E-2,-7.7921287E-3,3E0,1.02E2,-6.2188394E-2,-1.9965554E-2,2.5024433E-2,-5.1899727E-2],"split_indices":[2,2,0,0,0,2,2,0,2,0,2,0,2,0,0,0,2,0,0,0,0],"split_type":[0,0,0,0,0,0,0,0,0,0,0,0,0,0,0,0,0,0,0,0,0],"sum_hessian":[7.291873E2,3.459594E2,3.8322794E2,2.0511237E2,1.4084703E2,3.7934497E2,3.882981E0,3.690708E2,1.0274163E1,1.3594496E0,2.5235314E0,2.0792284E0,8.194935E0,1.3619641E0,1.1615672E0,5.734705E0,2.4602296E0,4.243682E0,1.491023E0,1.3915379E0,1.0686918E0],"tree_param":{"num_deleted":"0","num_feature":"5","num_nodes":"21","size_leaf_vector":"1"}},{"base_weights":[-7.851928E-1,-9.175704E-1,-6.66299E-1,-9.6551836E-2,-8.413746E-1,-6.990733E-1,-5.8248496E-1,-8.723166E-2,-5.687727E-1,-6.6720915E-1,-8.3994323E-1,-5.221983E-1,-9.339663E-2,-6.517418E-1,-3.0450717E-1,-6.739247E-1,8.165476E-3,-8.767613E-2,-3.1142274E-1,-9.78933E-2,-5.598668E-1,-3.4884375E-2,-7.464023E-2,-2.8069727E-2,-6.2099714E-2,-6.770423E-1,-3.0775664E-3,4.2836886E-2,-6.942683E-2,2.1129198E-2,-5.116799E-1,-5.7179046E-1,-8.2664285E-3,-3.3655893E-2,4.2656433E-2,-7.12224E-2,-5.6549E-2,-6.651858E-2,-5.310112E-3,-6.5668784E-2,-5.0129473E-2],"categories":[],"categories_nodes":[],"categories_segments":[],"categories_sizes":[],"default_left":[0,0,0,0,0,0,0,0,0,0,0,0,0,0,0,0,0,0,0,0,0,0,0,0,0,0,0,0,0,0,0,0,0,0,0,0,0,0,0,0,0],"id":38,"left_children":[1,3,5,-1,7,9,11,-1,13,15,17,19,-1,21,23,25,-1,-1,27,29,31,-1,-1,33,-1,35,-1,-1,-1,-1,37,39,-1,-1,-1,-1,-1,-1,-1,-1,-1],"loss_changes":[9.988983E0,3.4225464E-1,5.7751465E-1,0E0,5.990219E-1,5.739212E-1,1.7746773E0,0E0,1.5474415E-1,1.1159363E0,5.589237E-1,1.4380798E0,0E0,6.5998554E-2,4.83541E-1,3.9860535E-1,0E0,0E0,1.5252702E0,1.2375376E0,4.3966866E-1,0E0,0E0,7.191174E-1,0E0,4.1409302E-1,0E0,0E0,0E0,0E0,2.5101626E-1,1.6948128E-1,0E0,0E0,0E0,0E0,0E0,0E0,0E0,0E0,0E0],"parents":[2147483647,0,0,1,1,2,2,4,4,5,5,6,6,8,8,9,9,10,10,11,11,13,13,14,14,15,15,18,18,19,19,20,20,23,23,25,25,30,30,31,31],"right_children":[2,4,6,-1,8,10,12,-1,14,16,18,20,-1,22,24,26,-1,-1,28,30,32,-1,-1,34,-1,36,-1,-1,-1,-1,38,40,-1,-1,-1,-1,-1,-1,-1,-1,-1],"split_conditions":[5.4E1,4.2E1,7.5E1,-9.6551836E-2,4E0,7E1,3E0,-8.723166E-2,5.1E1,4E0,6E0,7.6E1,-9.339663E-2,5E0,5.3E1,1.7E1,8.165476E-3,-8.767613E-2,7E0,1E0,1E2,-3.4884375E-2,-7.464023E-2,7E0,-6.2099714E-2,1E0,-3.0775664E-3,4.2836886E-2,-6.942683E-2,2.1129198E-2,2E0,8.2E1,-8.2664285E-3,-3.3655893E-2,4.2656433E-2,-7.12224E-2,-5.6549E-2,-6.651858E-2,-5.310112E-3,-6.5668784E-2,-5.0129473E-2],"split_indices":[2,2,2,0,0,2,4,0,2,4,0,2,0,0,2,0,0,0,0,4,2,0,0,0,0,4,0,0,0,0,4,2,0,0,0,0,0,0,0,0,0],"split_type":[0,0,0,0,0,0,0,0,0,0,0,0,0,0,0,0,0,0,0,0,0,0,0,0,0,0,0,0,0,0,0,0,0,0,0,0,0,0,0,0,0],"sum_hessian":[6.725137E2,3.15034E2,3.5747968E2,1.8619511E2,1.2883888E2,2.5171074E2,1.0576893E2,1.1372989E2,1.5108988E1,2.0995596E2,4.175477E1,9.240516E1,1.3363772E1,1.03829155E1,4.7260723E0,2.0818907E2,1.7668878E0,3.8419476E1,3.335294E0,7.827987E0,8.457717E1,3.5877876E0,6.7951283E0,3.1037767E0,1.6222956E0,2.0713231E2,1.0567676E0,1.0968628E0,2.2384312E0,4.760366E0,3.0676212E0,8.232201E1,2.2551603E0,2.003815E0,1.0999619E0,1.533756E2,5.375671E1,1.9607397E0,1.1068815E0,3.357396E1,4.8748047E1],"tree_param":{"num_deleted":"0","num_feature":"5","num_nodes":"41","size_leaf_vector":"1"}},{"base_weights":[-7.5328237E-1,-7.792633E-1,-6.3814807E-1,-8.122785E-2,-6.494611E-1,-5.646548E-1,-7.8795105E-2,-6.5405086E-2,-1.8620493E-2,-6.263322E-2,-4.1017553E-1,-2.6725662E-1,-5.166958E-2,-3.158181E-2,-1.4926567E-2],"categories":[],"categories_nodes":[],"categories_segments":[],"categories_sizes":[],"default_left":[0,0,0,0,0,0,0,0,0,0,0,0,0,0,0],"id":39,"left_children":[1,3,5,-1,7,9,-1,-1,-1,-1,11,13,-1,-1,-1],"loss_changes":[1.369812E0,1.6354675E0,8.81073E-1,0E0,1.0643768E-1,5.46566E-1,0E0,0E0,0E0,0E0,2.7233696E-1,3.0694544E-2,0E0,0E0,0E0],"parents":[2147483647,0,0,1,1,2,2,4,4,5,5,10,10,11,11],"right_children":[2,4,6,-1,8,10,-1,-1,-1,-1,12,14,-1,-1,-1],"split_conditions":[3E0,1E0,1E0,-8.122785E-2,5E0,6E0,-7.8795105E-2,-6.5405086E-2,-1.8620493E-2,-6.263322E-2,8E0,7E0,-5.166958E-2,-3.158181E-2,-1.4926567E-2],"split_indices":[0,4,4,0,4,0,0,0,0,0,0,0,0,0,0],"split_type":[0,0,0,0,0,0,0,0,0,0,0,0,0,0,0],"sum_hessian":[6.2317883E2,5.037382E2,1.19440636E2,3.9740152E2,1.06336655E2,8.332885E1,3.6111786E1,1.04885635E2,1.4510156E0,5.7369186E1,2.5959667E1,1.2584261E1,1.3375407E1,7.7273088E0,4.8569527E0],"tree_param":{"num_deleted":"0","num_feature":"5","num_nodes":"15","size_leaf_vector":"1"}},{"base_weights":[-7.4065137E-1,-9.169712E-1,-6.0920477E-1,-9.707486E-2,-8.11057E-1,-6.3495684E-1,-5.367226E-1,-8.842793E-2,-6.950012E-1,-6.0026616E-1,-8.123769E-1,-7.867494E-2,-5.7625663E-1,-3.1146818E-1,-7.222324E-2,-5.6336766E-1,-6.492592E-1,-8.542829E-2,-2.6877496E-1,-1.6314043E-3,-1.6281178E-2,-5.3804374E-1,-7.6152265E-1,3.6700435E-2,-6.8459235E-2,-6.26209E-2,-4.0580416E-1,-6.718419E-1,-4.3166506E-1,4.1735128E-2,-6.661502E-2,-4.625707E-1,-6.364904E-1,-8.239067E-1,-1.1350331E-2,-2.9204456E-2,-4.527399E-2,-7.256005E-2,-5.2461274E-2,-2.0180063E-2,-7.533051E-2,-5.7012707E-2,-2.4821356E-2,-6.891235E-2,-4.283064E-2,-9.029185E-2,-8.105665E-3],"categories":[],"categories_nodes":[],"categories_segments":[],"categories_sizes":[],"default_left":[0,0,0,0,0,0,0,0,0,0,0,0,0,0,0,0,0,0,0,0,0,0,0,0,0,0,0,0,0,0,0,0,0,0,0,0,0,0,0,0,0,0,0,0,0,0,0],"id":40,"left_children":[1,3,5,-1,7,9,11,-1,13,15,17,19,21,23,-1,25,27,-1,29,-1,-1,31,33,-1,-1,-1,35,37,39,-1,-1,41,43,45,-1,-1,-1,-1,-1,-1,-1,-1,-1,-1,-1,-1,-1],"loss_changes":[1.2870392E1,6.109314E-1,2.8437042E-1,0E0,1.3961029E-1,9.9975586E-1,1.6616688E0,0E0,1.8241501E-1,6.576538E-3,6.062927E-1,4.271722E-2,2.0348167E-1,1.3509614E0,0E0,9.8402405E-1,1.1255264E-1,0E0,1.3918803E0,0E0,0E0,2.6442719E-1,4.079008E-1,0E0,0E0,0E0,7.331371E-2,1.9256973E-1,6.243048E-1,0E0,0E0,9.244461E-1,3.334427E-2,5.815029E-1,0E0,0E0,0E0,0E0,0E0,0E0,0E0,0E0,0E0,0E0,0E0,0E0,0E0],"parents":[2147483647,0,0,1,1,2,2,4,4,5,5,6,6,8,8,9,9,10,10,11,11,12,12,13,13,15,15,16,16,18,18,21,21,22,22,26,26,27,27,28,28,31,31,32,32,33,33],"right_children":[2,4,6,-1,8,10,12,-1,14,16,18,20,22,24,-1,26,28,-1,30,-1,-1,32,34,-1,-1,-1,36,38,40,-1,-1,42,44,46,-1,-1,-1,-1,-1,-1,-1,-1,-1,-1,-1,-1,-1],"split_conditions":[5.2E1,4.2E1,7.5E1,-9.707486E-2,1E0,7E1,7.6E1,-8.842793E-2,4.3E1,6.2E1,6E0,1E0,5E0,2E0,-7.222324E-2,5.9E1,6.9E1,-8.542829E-2,7E0,-1.6314043E-3,-1.6281178E-2,8.6E1,1.4E1,3.6700435E-2,-6.8459235E-2,-6.26209E-2,6E1,2E0,2E0,4.1735128E-2,-6.661502E-2,8.2E1,9.4E1,9.4E1,-1.1350331E-2,-2.9204456E-2,-4.527399E-2,-7.256005E-2,-5.2461274E-2,-2.0180063E-2,-7.533051E-2,-5.7012707E-2,-2.4821356E-2,-6.891235E-2,-4.283064E-2,-9.029185E-2,-8.105665E-3],"split_indices":[2,2,2,0,0,2,2,0,2,2,0,1,0,0,0,2,2,0,0,0,0,2,0,0,0,0,2,0,0,0,0,2,2,2,0,0,0,0,0,0,0,0,0,0,0,0,0],"split_type":[0,0,0,0,0,0,0,0,0,0,0,0,0,0,0,0,0,0,0,0,0,0,0,0,0,0,0,0,0,0,0,0,0,0,0,0,0,0,0,0,0,0,0,0,0,0,0],"sum_hessian":[5.7841986E2,2.4448988E2,3.3392993E2,1.5674034E2,8.774954E1,2.4066452E2,9.326543E1,4.9744877E1,3.800467E1,2.0497028E2,3.569424E1,7.647732E0,8.561769E1,3.3440394E0,3.466063E1,1.2404569E2,8.092458E1,3.2608917E1,3.0853226E0,5.077941E0,2.569791E0,7.421441E1,1.1403286E1,1.192341E0,2.1516984E0,8.6551765E1,3.7493927E1,7.1424324E1,9.500262E0,1.1131086E0,1.972214E0,4.5234554E1,2.8979853E1,1.0154319E1,1.248967E0,1.3060642E1,2.4433285E1,4.944268E1,2.1981646E1,6.489712E0,3.0105505E0,2.9015806E1,1.6218748E1,2.1287724E1,7.69213E0,8.983344E0,1.170975E0],"tree_param":{"num_deleted":"0","num_feature":"5","num_nodes":"47","size_leaf_vector":"1"}},{"base_weights":[-7.234063E-1,-7.454546E-1,-6.2613654E-1,-7.888845E-2,-5.811013E-1,-5.467928E-1,-7.8831695E-2,-5.300837E-1,-8.528996E-2,-5.5466765E-1,-2.790754E-1,-5.3549093E-1,-8.620947E-3,-5.2851766E-1,-7.997806E-2,2.6783014E-2,-6.43494E-2,-5.040002E-2,-6.733293E-2,-5.442724E-1,-1.6173072E-3,-5.725321E-2,-4.1408516E-2],"categories":[],"categories_nodes":[],"categories_segments":[],"categories_sizes":[],"default_left":[0,0,0,0,0,0,0,0,0,0,0,0,0,0,0,0,0,0,0,0,0,0,0],"id":41,"left_children":[1,3,5,-1,7,9,-1,11,-1,13,15,17,-1,19,-1,-1,-1,-1,-1,21,-1,-1,-1],"loss_changes":[6.923523E-1,2.6490326E0,9.34494E-1,0E0,8.6231995E-1,2.313614E-3,0E0,1.5172958E-1,0E0,3.4820557E-2,9.9786437E-1,1.34010315E-2,0E0,5.356178E-1,0E0,0E0,0E0,0E0,0E0,3.5476685E-3,0E0,0E0,0E0],"parents":[2147483647,0,0,1,1,2,2,4,4,5,5,7,7,9,9,10,10,11,11,13,13,19,19],"right_children":[2,4,6,-1,8,10,-1,12,-1,14,16,18,-1,20,-1,-1,-1,-1,-1,22,-1,-1,-1],"split_conditions":[3E0,1E0,1E0,-7.888845E-2,2E0,1.4E1,-7.8831695E-2,5E0,-8.528996E-2,1E1,1.8E1,3E0,-8.620947E-3,9E0,-7.997806E-2,2.6783014E-2,-6.43494E-2,-5.040002E-2,-6.733293E-2,6E0,-1.6173072E-3,-5.725321E-2,-4.1408516E-2],"split_indices":[0,4,4,0,0,0,0,4,0,0,0,4,0,0,0,0,0,0,0,0,0,0,0],"split_type":[0,0,0,0,0,0,0,0,0,0,0,0,0,0,0,0,0,0,0,0,0,0,0],"sum_hessian":[5.394691E2,4.3435056E2,1.05118546E2,3.4055884E2,9.379171E1,7.352118E1,3.1597364E1,8.145297E1,1.2338734E1,7.037915E1,3.1420324E0,8.026876E1,1.1842154E0,6.644649E1,3.9326615E0,1.3624167E0,1.7796156E0,6.9131386E1,1.1137368E1,6.440373E1,2.042757E0,5.0125313E1,1.4278418E1],"tree_param":{"num_deleted":"0","num_feature":"5","num_nodes":"23","size_leaf_vector":"1"}},{"base_weights":[-7.124318E-1,-8.7509423E-1,-5.7531685E-1,-9.4487846E-2,-7.560329E-1,-5.7933587E-1,-3.3486E-3,-7.980397E-2,-4.17976E-1,-5.046963E-1,-6.1273474E-1,-1.2197361E-1,-5.279772E-1,-6.5515065E-1,-3.4070224E-1,-6.630427E-1,-5.4250187E-1,5.3393304E-2,-6.615886E-2,-7.0094615E-2,7.197571E-3,-3.5467467E-1,-7.432423E-1,-3.9642125E-1,-1.05027676E-1,-6.009255E-1,-7.829433E-2,-1.3338888E-1,-6.156736E-1,-1.8839242E-2,-5.004209E-2,-8.3392516E-2,-5.0188985E-2,-3.147239E-2,-8.138876E-2,1.4354209E-2,-6.869443E-2,-6.911713E-2,-3.0396422E-2,3.7025955E-2,-7.082411E-2,-6.2405188E-2,-4.675375E-3],"categories":[],"categories_nodes":[],"categories_segments":[],"categories_sizes":[],"default_left":[0,0,0,0,0,0,0,0,0,0,0,0,0,0,0,0,0,0,0,0,0,0,0,0,0,0,0,0,0,0,0,0,0,0,0,0,0,0,0,0,0,0,0],"id":42,"left_children":[1,3,5,-1,7,9,-1,-1,11,13,15,17,19,21,23,25,27,-1,-1,-1,-1,29,31,33,35,37,-1,39,41,-1,-1,-1,-1,-1,-1,-1,-1,-1,-1,-1,-1,-1,-1],"loss_changes":[1.0718445E1,1.181778E0,5.8148956E-1,0E0,9.350662E-1,3.7339783E-1,0E0,0E0,3.2546997E-1,2.0054455E0,2.9223633E-1,1.9617198E0,9.251683E-1,9.5461655E-1,5.5324507E-1,2.9668808E-1,2.387785E0,0E0,0E0,0E0,0E0,2.0494914E-1,3.4042168E-1,9.8117065E-1,1.5483729E0,1.7236118E0,0E0,4.256076E0,3.0311394E-1,0E0,0E0,0E0,0E0,0E0,0E0,0E0,0E0,0E0,0E0,0E0,0E0,0E0,0E0],"parents":[2147483647,0,0,1,1,2,2,4,4,5,5,8,8,9,9,10,10,11,11,12,12,13,13,14,14,15,15,16,16,21,21,22,22,23,23,24,24,25,25,27,27,28,28],"right_children":[2,4,6,-1,8,10,-1,-1,12,14,16,18,20,22,24,26,28,-1,-1,-1,-1,30,32,34,36,38,-1,40,42,-1,-1,-1,-1,-1,-1,-1,-1,-1,-1,-1,-1,-1,-1],"split_conditions":[5.4E1,4.3E1,1E2,-9.4487846E-2,4E0,6.2E1,-3.3486E-3,-7.980397E-2,5E0,5.8E1,7.5E1,4.8E1,5.2E1,5.5E1,3E0,7E1,7.7E1,5.3393304E-2,-6.615886E-2,-7.0094615E-2,7.197571E-3,1E0,5.7E1,2E0,6.1E1,6.8E1,-7.829433E-2,1E0,1.4E1,-1.8839242E-2,-5.004209E-2,-8.3392516E-2,-5.0188985E-2,-3.147239E-2,-8.138876E-2,1.4354209E-2,-6.869443E-2,-6.911713E-2,-3.0396422E-2,3.7025955E-2,-7.082411E-2,-6.2405188E-2,-4.675375E-3],"split_indices":[2,2,2,0,0,2,0,0,0,2,2,2,2,2,0,2,2,0,0,0,0,0,2,0,2,2,0,0,0,0,0,0,0,0,0,0,0,0,0,0,0,0,0],"split_type":[0,0,0,0,0,0,0,0,0,0,0,0,0,0,0,0,0,0,0,0,0,0,0,0,0,0,0,0,0,0,0,0,0,0,0,0,0,0,0,0,0,0,0],"sum_hessian":[5.0214606E2,2.2721437E2,2.7493167E2,1.3887874E2,8.833564E1,2.7283865E2,2.093E0,7.736199E1,1.0973647E1,8.9325485E1,1.8351318E2,3.5445242E0,7.4291224E0,4.5023895E1,4.430159E1,1.0200564E2,8.150754E1,1.604622E0,1.9399022E0,5.6359267E0,1.793196E0,1.1346789E1,3.3677105E1,3.5278786E1,9.022806E0,7.115437E1,3.0851263E1,1.2794542E1,6.8713E1,6.3708615E0,4.975928E0,2.269482E1,1.09822855E1,3.0971594E1,4.307192E0,6.850076E0,2.1727297E0,5.3552437E1,1.7601936E1,7.0093265E0,5.7852154E0,6.762028E1,1.0927237E0],"tree_param":{"num_deleted":"0","num_feature":"5","num_nodes":"43","size_leaf_vector":"1"}},{"base_weights":[-6.686291E-1,-8.8158774E-1,-5.21037E-1,-9.35732E-2,-7.7711046E-1,-5.64437E-1,-4.355032E-1,-8.088852E-2,-5.014402E-1,-6.301033E-1,-3.029508E-1,-2.4819372E-3,-6.068703E-1,-5.4812926E-1,-8.173792E-3,-6.8428457E-1,-3.9678153E-1,-3.519018E-1,4.7564205E-2,1.5993059E-1,-3.169357E-2,-4.204654E-1,-7.964679E-1,-6.086503E-1,-8.635924E-3,-6.550718E-1,-8.5577995E-2,-4.3529972E-1,1.9510154E-2,-2.6167175E-1,-6.361341E-2,3.2144555E-1,-1.2127878E-1,-6.958854E-2,-2.0196283E-1,-4.8553047E-1,-8.556462E-2,-1.871928E-2,-6.778311E-2,-7.1356975E-2,-5.014136E-2,-5.0770726E-2,6.732699E-4,-3.1120015E-2,-1.4045499E-2,-5.3260075E-3,5.9382137E-2,5.5122156E-2,-4.7833476E-2,4.342007E-2,-3.2914557E-2,-6.783823E-2,1.6810685E-2],"categories":[],"categories_nodes":[],"categories_segments":[],"categories_sizes":[],"default_left":[0,0,0,0,0,0,0,0,0,0,0,0,0,0,0,0,0,0,0,0,0,0,0,0,0,0,0,0,0,0,0,0,0,0,0,0,0,0,0,0,0,0,0,0,0,0,0,0,0,0,0,0,0],"id":43,"left_children":[1,3,5,-1,7,9,11,-1,13,15,17,19,21,23,-1,25,27,29,-1,31,-1,33,35,37,-1,39,-1,41,-1,43,-1,45,47,-1,49,51,-1,-1,-1,-1,-1,-1,-1,-1,-1,-1,-1,-1,-1,-1,-1,-1,-1],"loss_changes":[1.4322937E1,3.53714E-1,7.944565E-1,0E0,2.173729E-1,2.9432297E0,7.323015E0,0E0,1.5078926E-1,1.5610619E0,1.637119E0,1.5312912E0,2.1643105E0,1.935656E-1,0E0,2.1865845E-2,7.620158E-1,7.787738E-1,0E0,9.3746233E-1,0E0,2.1328092E0,2.0906067E-1,9.532213E-2,0E0,5.7349014E-1,0E0,9.05807E-1,0E0,1.3444567E-1,0E0,1.3419744E0,2.1709085E0,0E0,1.9612161E0,1.0895027E0,0E0,0E0,0E0,0E0,0E0,0E0,0E0,0E0,0E0,0E0,0E0,0E0,0E0,0E0,0E0,0E0,0E0],"parents":[2147483647,0,0,1,1,2,2,4,4,5,5,6,6,8,8,9,9,10,10,11,11,12,12,13,13,15,15,16,16,17,17,19,19,21,21,22,22,23,23,25,25,27,27,29,29,31,31,32,32,34,34,35,35],"right_children":[2,4,6,-1,8,10,12,-1,14,16,18,20,22,24,-1,26,28,30,-1,32,-1,34,36,38,-1,40,-1,42,-1,44,-1,46,48,-1,50,52,-1,-1,-1,-1,-1,-1,-1,-1,-1,-1,-1,-1,-1,-1,-1,-1,-1],"split_conditions":[5.2E1,4.2E1,1E0,-9.35732E-2,4E0,3E0,6.4E1,-8.088852E-2,5.1E1,7.5E1,9.1E1,2E0,1E0,1E0,-8.173792E-3,7E1,9.7E1,7.6E1,4.7564205E-2,2E0,-3.169357E-2,7.5E1,6.9E1,4.4E1,-8.635924E-3,6.3E1,-8.5577995E-2,2E0,1.9510154E-2,6E0,-6.361341E-2,5.8E1,5.7E1,-6.958854E-2,7.7E1,6.8E1,-8.556462E-2,-1.871928E-2,-6.778311E-2,-7.1356975E-2,-5.014136E-2,-5.0770726E-2,6.732699E-4,-3.1120015E-2,-1.4045499E-2,-5.3260075E-3,5.9382137E-2,5.5122156E-2,-4.7833476E-2,4.342007E-2,-3.2914557E-2,-6.783823E-2,1.6810685E-2],"split_indices":[2,2,4,0,0,0,2,0,2,2,2,0,0,4,0,2,2,2,0,4,0,2,2,2,0,2,0,0,0,0,0,2,2,0,2,2,0,0,0,0,0,0,0,0,0,0,0,0,0,0,0,0,0],"split_type":[0,0,0,0,0,0,0,0,0,0,0,0,0,0,0,0,0,0,0,0,0,0,0,0,0,0,0,0,0,0,0,0,0,0,0,0,0,0,0,0,0,0,0,0,0,0,0,0,0,0,0,0,0],"sum_hessian":[4.693084E2,1.9007652E2,2.7923187E2,1.19954926E2,7.01216E1,1.815261E2,9.770578E1,6.1140118E1,8.981478E0,1.439633E2,3.7562798E1,2.7990952E1,6.971483E1,7.8070064E0,1.1744717E0,1.15264206E2,2.8699095E1,3.5856487E1,1.7063082E0,1.878175E1,9.209202E0,3.677589E1,3.293894E1,6.6211367E0,1.1858693E0,1.0260595E2,1.2658256E1,2.7193935E1,1.5051593E0,2.867438E1,7.1821084E0,1.1838897E1,6.9428535E0,1.5302486E1,2.1473404E1,6.7383747E0,2.6200562E1,1.4561205E0,5.1650167E0,7.167521E1,3.093074E1,2.3238722E1,3.955213E0,1.924407E1,9.430309E0,5.321965E0,6.516932E0,2.2192295E0,4.723624E0,3.175529E0,1.8297876E1,5.1739683E0,1.5644063E0],"tree_param":{"num_deleted":"0","num_feature":"5","num_nodes":"53","size_leaf_vector":"1"}},{"base_weights":[-6.68012E-1,-8.4606194E-1,-5.2712756E-1,-9.291994E-2,-7.2570294E-1,-4.763867E-1,-5.942167E-1,-7.667783E-2,-4.1624853E-1,-6.1761725E-1,-4.343684E-1,-7.829229E-2,-5.1895463E-1,-5.1876545E-1,-1.4534402E-1,-3.0652413E-1,-7.606636E-2,-2.8625652E-1,-4.8517796E-1,-1.2304525E-2,-5.56778E-1,8.383746E-3,-8.230584E-2,1.5157105E-1,-5.4713726E-2,-3.7202793E-1,5.947541E-4,-4.8200265E-1,8.320846E-2,-5.001591E-1,2.2638796E-2,-5.72587E-1,-3.0524887E-3,-8.838102E-3,3.1582143E-2,-1.4037326E-2,-7.207318E-2,-3.391959E-2,-6.052223E-2,-3.6906872E-3,5.2695163E-2,-5.4395534E-2,-2.9654771E-2,-5.8058806E-2,-4.3830317E-3],"categories":[],"categories_nodes":[],"categories_segments":[],"categories_sizes":[],"default_left":[0,0,0,0,0,0,0,0,0,0,0,0,0,0,0,0,0,0,0,0,0,0,0,0,0,0,0,0,0,0,0,0,0,0,0,0,0,0,0,0,0,0,0,0,0],"id":44,"left_children":[1,3,5,-1,7,9,11,-1,13,15,17,-1,19,21,23,25,-1,27,29,-1,31,-1,-1,33,-1,35,-1,37,39,41,-1,43,-1,-1,-1,-1,-1,-1,-1,-1,-1,-1,-1,-1,-1],"loss_changes":[1.0583954E1,1.2527161E0,5.615921E-1,0E0,7.389488E-1,6.000328E-1,1.0538216E0,0E0,2.562635E-1,1.1543894E0,7.351265E-1,0E0,1.076477E0,1.5862713E0,6.397878E-1,2.3751903E-1,0E0,2.3619227E0,1.0197182E0,0E0,5.60812E-1,0E0,0E0,1.6456568E-1,0E0,6.678165E-1,0E0,1.6657925E-1,6.5751857E-1,5.8413696E-1,0E0,2.598076E-1,0E0,0E0,0E0,0E0,0E0,0E0,0E0,0E0,0E0,0E0,0E0,0E0,0E0],"parents":[2147483647,0,0,1,1,2,2,4,4,5,5,6,6,8,8,9,9,10,10,12,12,13,13,14,14,15,15,17,17,18,18,20,20,23,23,25,25,27,27,28,28,29,29,31,31],"right_children":[2,4,6,-1,8,10,12,-1,14,16,18,-1,20,22,24,26,-1,28,30,-1,32,-1,-1,34,-1,36,-1,38,40,42,-1,44,-1,-1,-1,-1,-1,-1,-1,-1,-1,-1,-1,-1,-1],"split_conditions":[5.4E1,4.2E1,7E1,-9.291994E-2,4E0,5.7E1,7.5E1,-7.667783E-2,5.1E1,5.5E1,6E1,-7.829229E-2,7.6E1,5E0,5.3E1,3E0,-7.606636E-2,5.9E1,1.1E1,-1.2304525E-2,1E2,8.383746E-3,-8.230584E-2,5.2E1,-5.4713726E-2,1E0,5.947541E-4,1E0,4E0,6.8E1,2.2638796E-2,1.4E1,-3.0524887E-3,-8.838102E-3,3.1582143E-2,-1.4037326E-2,-7.207318E-2,-3.391959E-2,-6.052223E-2,-3.6906872E-3,5.2695163E-2,-5.4395534E-2,-2.9654771E-2,-5.8058806E-2,-4.3830317E-3],"split_indices":[2,2,2,0,0,2,2,0,2,2,2,0,2,0,2,0,0,2,0,0,2,0,0,2,0,0,0,0,0,2,0,0,0,0,0,0,0,0,0,0,0,0,0,0,0],"split_type":[0,0,0,0,0,0,0,0,0,0,0,0,0,0,0,0,0,0,0,0,0,0,0,0,0,0,0,0,0,0,0,0,0,0,0,0,0,0,0,0,0,0,0,0,0],"sum_hessian":[4.3871216E2,1.9158347E2,2.471287E2,1.0933832E2,8.224515E1,1.4532056E2,1.0180815E2,7.130293E1,1.0942219E1,3.0180386E1,1.1514017E2,2.6346464E1,7.5461685E1,7.27445E0,3.6677687E0,1.0496254E1,1.9684132E1,3.1104172E1,8.4035995E1,6.9514794E0,6.85102E1,2.683902E0,4.590548E0,2.4672768E0,1.2004919E0,8.519669E0,1.9765856E0,2.0132946E1,1.0971225E1,8.259418E1,1.441817E0,6.642666E1,2.083548E0,1.1902958E0,1.2769811E0,5.9616914E0,2.5579774E0,1.1063528E1,9.069418E0,9.355614E0,1.6156108E0,6.6597664E1,1.599651E1,6.533993E1,1.0867312E0],"tree_param":{"num_deleted":"0","num_feature":"5","num_nodes":"45","size_leaf_vector":"1"}},{"base_weights":[-6.2005013E-1,-8.5891795E-1,-4.6565726E-1,-9.22268E-2,-7.404951E-1,-5.163586E-1,-3.3404174E-1,-8.550532E-2,-5.752765E-1,-5.27897E-1,3.6864758E-2,2.7060723E-1,-4.0046328E-1,-4.6351266E-1,-6.7948186E-1,-5.3608775E-1,4.0115003E-2,6.1704934E-2,-2.3583901E-1,-3.3296388E-1,-7.8458324E-2,-3.576278E-1,-7.346606E-2,-8.1429854E-2,9.444971E-3,-5.031591E-1,-7.194874E-1,-5.954677E-2,2.2082256E-2,-3.039469E-1,-5.8987733E-2,-4.2158425E-2,3.1393107E-3,-5.532464E-2,-3.5457503E-2,-8.569989E-2,-1.7538974E-3,-3.3332717E-2,-7.841115E-3],"categories":[],"categories_nodes":[],"categories_segments":[],"categories_sizes":[],"default_left":[0,0,0,0,0,0,0,0,0,0,0,0,0,0,0,0,0,0,0,0,0,0,0,0,0,0,0,0,0,0,0,0,0,0,0,0,0,0,0],"id":45,"left_children":[1,3,5,-1,7,9,11,-1,13,15,-1,17,19,21,23,25,-1,-1,27,29,-1,31,-1,-1,-1,33,35,-1,-1,37,-1,-1,-1,-1,-1,-1,-1,-1,-1],"loss_changes":[1.4847916E1,5.2591705E-1,1.5179176E0,0E0,6.670456E-1,2.0432892E0,3.0513372E0,0E0,1.2643814E-2,1.5780716E0,0E0,1.5227873E0,1.4611053E0,2.1724892E-1,1.3717661E0,7.128372E-1,0E0,0E0,7.739581E-1,2.5485754E-1,0E0,3.6085248E-1,0E0,0E0,0E0,9.515381E-1,2.3755112E0,0E0,0E0,3.342681E-1,0E0,0E0,0E0,0E0,0E0,0E0,0E0,0E0,0E0],"parents":[2147483647,0,0,1,1,2,2,4,4,5,5,6,6,8,8,9,9,11,11,12,12,13,13,14,14,15,15,18,18,19,19,21,21,25,25,26,26,29,29],"right_children":[2,4,6,-1,8,10,12,-1,14,16,-1,18,20,22,24,26,-1,-1,28,30,-1,32,-1,-1,-1,34,36,-1,-1,38,-1,-1,-1,-1,-1,-1,-1,-1,-1],"split_conditions":[5.2E1,4.2E1,7.5E1,-9.22268E-2,1E0,4E0,7.6E1,-8.550532E-2,4.8E1,1.7E1,3.6864758E-2,1E0,3E0,5E0,6E0,7E1,4.0115003E-2,6.1704934E-2,2E0,7E0,-7.8458324E-2,4E0,-7.346606E-2,-8.1429854E-2,9.444971E-3,1E0,4E0,-5.954677E-2,2.2082256E-2,4E0,-5.8987733E-2,-4.2158425E-2,3.1393107E-3,-5.532464E-2,-3.5457503E-2,-8.569989E-2,-1.7538974E-3,-3.3332717E-2,-7.841115E-3],"split_indices":[2,2,2,0,0,4,2,0,2,0,0,4,4,0,0,2,0,0,4,0,0,0,0,0,0,4,0,0,0,0,0,0,0,0,0,0,0,0,0],"split_type":[0,0,0,0,0,0,0,0,0,0,0,0,0,0,0,0,0,0,0,0,0,0,0,0,0,0,0,0,0,0,0,0,0,0,0,0,0,0,0],"sum_hessian":[4.1245142E2,1.601356E2,2.523158E2,9.9904175E1,6.023143E1,1.8003783E2,7.227798E1,3.3103245E1,2.7128185E1,1.7811908E2,1.9187479E0,6.8496966E0,6.542828E1,1.5718078E1,1.1410108E1,1.7698172E2,1.1373497E0,3.9376786E0,2.9120183E0,5.723712E1,8.191158E0,1.2971551E1,2.746526E0,9.672949E0,1.7371583E0,1.5321594E2,2.376578E1,1.4590408E0,1.4529775E0,5.339007E1,3.8470488E0,1.1068194E1,1.9033568E0,1.1255164E2,4.0664307E1,1.9688017E1,4.0777636E0,4.681377E1,6.5763016E0],"tree_param":{"num_deleted":"0","num_feature":"5","num_nodes":"39","size_leaf_vector":"1"}},{"base_weights":[-5.9046066E-1,-8.30219E-1,-4.1472334E-1,-9.1343924E-2,-6.798876E-1,-4.4789922E-1,-2.9594475E-1,-5.285686E-1,-7.510566E-1,-5.141776E-1,-2.8574213E-1,6.489559E-2,-4.1741624E-1,-6.930328E-2,-2.9266435E-1,-7.780654E-2,-4.1489044E-1,-4.6502206E-1,-7.776376E-2,-3.0182393E-2,-3.3927903E-1,4.9991587E-1,-1.8001877E-1,-7.3009335E-2,-3.350089E-1,-4.2358175E-1,9.963148E-3,-1.5122728E-2,-6.1437618E-2,-4.933012E-1,1.3674403E-3,2.4978487E-1,-6.986128E-2,-3.953877E-1,2.1044249E-2,7.9274245E-2,-1.7713299E-2,-4.128356E-1,2.6676294E-1,2.2189583E-1,-4.3594187E-1,5.681679E-3,-6.608553E-2,-6.0204107E-2,-4.2158507E-2,1.4903212E-2,3.2258146E-2,-4.3666895E-2,1.2978578E-2,2.6040897E-2,-5.6604415E-2,-2.6878608E-2,-5.727504E-2,5.550852E-2,-1.5813494E-2,7.412451E-2,-3.9152738E-2,-6.511801E-2,-3.2592118E-2],"categories":[],"categories_nodes":[],"categories_segments":[],"categories_sizes":[],"default_left":[0,0,0,0,0,0,0,0,0,0,0,0,0,0,0,0,0,0,0,0,0,0,0,0,0,0,0,0,0,0,0,0,0,0,0,0,0,0,0,0,0,0,0,0,0,0,0,0,0,0,0,0,0,0,0,0,0,0,0],"id":46,"left_children":[1,3,5,-1,7,9,11,13,15,17,19,21,23,-1,25,-1,27,29,-1,31,33,35,37,-1,39,41,-1,-1,-1,43,-1,45,-1,47,49,-1,-1,51,53,55,57,-1,-1,-1,-1,-1,-1,-1,-1,-1,-1,-1,-1,-1,-1,-1,-1,-1,-1],"loss_changes":[1.6033035E1,1.423233E0,7.591591E-1,0E0,2.721634E-1,1.7332153E0,2.3218136E0,6.9928026E-1,3.9312363E-2,1.2303886E0,7.149973E-1,1.5869915E0,7.681098E-1,0E0,6.216414E-1,0E0,1.7578232E-1,1.442873E0,0E0,2.0980492E0,8.9239025E-1,1.1963133E0,1.1216891E0,0E0,1.9489949E0,1.0234883E0,0E0,0E0,0E0,5.275669E-1,0E0,1.0461777E-2,0E0,8.7805986E-1,1.1087983E0,0E0,0E0,2.3685694E-3,5.703355E-1,2.1120663E0,4.5636272E-1,0E0,0E0,0E0,0E0,0E0,0E0,0E0,0E0,0E0,0E0,0E0,0E0,0E0,0E0,0E0,0E0,0E0,0E0],"parents":[2147483647,0,0,1,1,2,2,4,4,5,5,6,6,7,7,8,8,9,9,10,10,11,11,12,12,14,14,16,16,17,17,19,19,20,20,21,21,22,22,24,24,25,25,29,29,31,31,33,33,34,34,37,37,38,38,39,39,40,40],"right_children":[2,4,6,-1,8,10,12,14,16,18,20,22,24,-1,26,-1,28,30,-1,32,34,36,38,-1,40,42,-1,-1,-1,44,-1,46,-1,48,50,-1,-1,52,54,56,58,-1,-1,-1,-1,-1,-1,-1,-1,-1,-1,-1,-1,-1,-1,-1,-1,-1,-1],"split_conditions":[5.4E1,4.4E1,3E0,-9.1343924E-2,4.8E1,7.5E1,6.1E1,1E0,5E0,7E1,7.7E1,4E0,6.5E1,-6.930328E-2,4.7E1,-7.780654E-2,8E0,6.9E1,-7.776376E-2,1E0,2E0,5.9E1,5.9E1,-7.3009335E-2,6.8E1,2E0,9.963148E-3,-1.5122728E-2,-6.1437618E-2,5.9E1,1.3674403E-3,7.6E1,-6.986128E-2,9.7E1,9E1,7.9274245E-2,-1.7713299E-2,5.8E1,6E1,5E0,4E0,5.681679E-3,-6.608553E-2,-6.0204107E-2,-4.2158507E-2,1.4903212E-2,3.2258146E-2,-4.3666895E-2,1.2978578E-2,2.6040897E-2,-5.6604415E-2,-2.6878608E-2,-5.727504E-2,5.550852E-2,-1.5813494E-2,7.412451E-2,-3.9152738E-2,-6.511801E-2,-3.2592118E-2],"split_indices":[2,2,0,0,2,2,2,0,0,2,2,0,2,0,2,0,0,2,0,0,0,2,2,0,2,0,0,0,0,2,0,2,0,2,2,0,0,2,2,0,0,0,0,0,0,0,0,0,0,0,0,0,0,0,0,0,0,0,0],"split_type":[0,0,0,0,0,0,0,0,0,0,0,0,0,0,0,0,0,0,0,0,0,0,0,0,0,0,0,0,0,0,0,0,0,0,0,0,0,0,0,0,0,0,0,0,0,0,0,0,0,0,0,0,0,0,0,0,0,0,0],"sum_hessian":[3.8769244E2,1.6240257E2,2.2528989E2,1.0126707E2,6.1135498E1,1.7393692E2,5.1352955E1,2.2251495E1,3.8884003E1,1.2192975E2,5.2007175E1,1.3050677E1,3.830228E1,1.19692135E1,1.0282283E1,3.4775486E1,4.1085153E0,1.0508783E2,1.6841915E1,9.278723E0,4.2728455E1,4.3258524E0,8.724825E0,6.3497915E0,3.1952488E1,7.649674E0,2.6326087E0,2.52684E0,1.581675E0,9.919721E1,5.890617E0,6.981065E0,2.2976575E0,3.688716E1,5.841295E0,2.900496E0,1.4253561E0,5.7858253E0,2.9390001E0,4.718637E0,2.723385E1,2.7805486E0,4.8691254E0,3.6483788E1,6.2713425E1,4.206448E0,2.7746167E0,3.4355194E1,2.5319638E0,4.5447655E0,1.2965289E0,4.4542723E0,1.3315527E0,1.5683622E0,1.3706378E0,2.4424143E0,2.2762227E0,7.5482254E0,1.9685625E1],"tree_param":{"num_deleted":"0","num_feature":"5","num_nodes":"59","size_leaf_vector":"1"}},{"base_weights":[-6.090076E-1,-8.8430333E-1,-4.43393E-1,-9.417984E-2,-7.776067E-2,-4.5316973E-1,-1.0606412E-1,-4.7646868E-1,-3.2124445E-1,2.5912711E-2,-2.2478975E-1,-6.0840243E-1,-4.4283706E-1,3.86697E-2,-3.552636E-1,-1.4518072E-3,-4.1023698E-1,-6.6724974E-1,7.7949236E-3,-2.414984E-1,-5.0786126E-1,-5.5713173E-2,-1.8577735E-1,-1.451691E-2,-5.1239587E-2,-5.4319497E-2,-7.913E-2,-1.951286E-2,-3.93837E-2,-5.7683297E-2,-4.0776562E-2,5.2635055E-2,-3.0141309E-2],"categories":[],"categories_nodes":[],"categories_segments":[],"categories_sizes":[],"default_left":[0,0,0,0,0,0,0,0,0,0,0,0,0,0,0,0,0,0,0,0,0,0,0,0,0,0,0,0,0,0,0,0,0],"id":47,"left_children":[1,3,5,-1,-1,7,9,11,13,-1,15,17,19,-1,21,-1,23,25,-1,27,29,-1,31,-1,-1,-1,-1,-1,-1,-1,-1,-1,-1],"loss_changes":[1.6313736E1,1.05796814E-1,7.130623E-1,0E0,0E0,5.3539276E-1,3.966988E-1,5.660515E-1,1.0209734E0,0E0,2.4463475E-1,1.4888163E0,1.8898144E0,0E0,1.1120377E0,0E0,1.709038E-2,7.5987816E-2,0E0,2.016964E-1,5.6069565E-1,0E0,1.8725553E0,0E0,0E0,0E0,0E0,0E0,0E0,0E0,0E0,0E0,0E0],"parents":[2147483647,0,0,1,1,2,2,5,5,6,6,7,7,8,8,10,10,11,11,12,12,14,14,16,16,17,17,19,19,20,20,22,22],"right_children":[2,4,6,-1,-1,8,10,12,14,-1,16,18,20,-1,22,-1,24,26,-1,28,30,-1,32,-1,-1,-1,-1,-1,-1,-1,-1,-1,-1],"split_conditions":[5.2E1,4.2E1,9.4E1,-9.417984E-2,-7.776067E-2,4E0,9.5E1,5.7E1,5.3E1,2.5912711E-2,1E0,3E0,6.2E1,3.86697E-2,6.6E1,-1.4518072E-3,4E0,5.5E1,7.7949236E-3,2E0,7.5E1,-5.5713173E-2,6.8E1,-1.451691E-2,-5.1239587E-2,-5.4319497E-2,-7.913E-2,-1.951286E-2,-3.93837E-2,-5.7683297E-2,-4.0776562E-2,5.2635055E-2,-3.0141309E-2],"split_indices":[2,2,2,0,0,0,2,2,2,0,0,0,2,0,2,0,0,2,0,0,2,0,2,0,0,0,0,0,0,0,0,0,0],"split_type":[0,0,0,0,0,0,0,0,0,0,0,0,0,0,0,0,0,0,0,0,0,0,0,0,0,0,0,0,0,0,0,0,0],"sum_hessian":[3.6541235E2,1.3562605E2,2.297863E2,8.304768E1,5.2578365E1,2.2298029E2,6.806012E0,1.872916E2,3.5688698E1,1.3796723E0,5.42634E0,3.457335E1,1.5271825E2,1.1610062E0,3.452769E1,3.0482874E0,2.3780527E0,3.1868776E1,2.7045724E0,3.843218E1,1.14286064E2,1.471458E1,1.9813112E1,1.3350531E0,1.0429995E0,1.8623466E1,1.324531E1,3.1212425E1,7.2197523E0,6.484281E1,4.944325E1,2.2716496E0,1.7541462E1],"tree_param":{"num_deleted":"0","num_feature":"5","num_nodes":"33","size_leaf_vector":"1"}},{"base_weights":[-5.859844E-1,-6.348737E-1,-4.3600088E-1,-6.947091E-2,-3.7991413E-1,-3.1867042E-1,-6.4484425E-2,-4.5014225E-2,-1.2687401E-1,-2.7949226E-1,-4.8689973E-2,1.9448576E-2,-2.5647923E-1,-3.088904E-2,-1.3883327E-2,-1.4132445E-2,-5.583449E-2],"categories":[],"categories_nodes":[],"categories_segments":[],"categories_sizes":[],"default_left":[0,0,0,0,0,0,0,0,0,0,0,0,0,0,0,0,0],"id":48,"left_children":[1,3,5,-1,7,9,-1,-1,11,13,-1,-1,15,-1,-1,-1,-1],"loss_changes":[2.2618027E0,3.6858597E0,1.9582253E0,0E0,8.566389E-1,2.4958324E-1,0E0,0E0,5.731303E-1,1.6308284E-1,0E0,0E0,2.4728286E-1,0E0,0E0,0E0,0E0],"parents":[2147483647,0,0,1,1,2,2,4,4,5,5,8,8,9,9,12,12],"right_children":[2,4,6,-1,8,10,-1,-1,12,14,-1,-1,16,-1,-1,-1,-1],"split_conditions":[1E0,3E0,2E0,-6.947091E-2,7E0,3E0,-6.4484425E-2,-4.5014225E-2,8E0,1E0,-4.8689973E-2,1.9448576E-2,1.8E1,-3.088904E-2,-1.3883327E-2,-1.4132445E-2,-5.583449E-2],"split_indices":[4,0,0,0,0,4,0,0,0,0,0,0,0,0,0,0,0],"split_type":[0,0,0,0,0,0,0,0,0,0,0,0,0,0,0,0,0],"sum_hessian":[3.452094E2,2.5790775E2,8.730168E1,2.0748837E2,5.0419373E1,5.7515003E1,2.9786676E1,3.8856346E1,1.15630245E1,4.8809383E1,8.70562E0,3.1792884E0,8.383737E0,3.9382336E1,9.427049E0,7.1314306E0,1.252306E0],"tree_param":{"num_deleted":"0","num_feature":"5","num_nodes":"17","size_leaf_vector":"1"}},{"base_weights":[-5.505093E-1,-8.962423E-2,-4.4394112E-1,-5.7081765E-1,-4.0597215E-1,-6.1607665E-1,-4.397009E-1,-3.770804E-1,-5.265251E-1,-2.986413E-1,-6.6615003E-1,-2.3551637E-1,-5.8742028E-2,-4.395239E-1,-2.4255638E-1,3.854136E-2,-5.886561E-1,-4.934117E-2,-4.3401225E-3,-7.506373E-2,-3.9389747E-1,-5.22891E-1,2.9113472E-1,-5.4058313E-1,-1.0293515E-1,-4.9119464E-1,-2.009505E-2,-4.6661544E-1,-7.6099944E-1,-6.358433E-2,4.984343E-2,-1.2334195E-2,-6.0056854E-2,5.4956514E-2,-1.2722214E-2,5.234105E-3,-5.76093E-2,4.6278127E-2,-3.6430765E-2,-2.8410707E-2,-7.963314E-2,2.5054464E-2,-6.6762544E-2,-8.601795E-2,-2.6831672E-2,4.1091363E-3,-9.072952E-2],"categories":[],"categories_nodes":[],"categories_segments":[],"categories_sizes":[],"default_left":[0,0,0,0,0,0,0,0,0,0,0,0,0,0,0,0,0,0,0,0,0,0,0,0,0,0,0,0,0,0,0,0,0,0,0,0,0,0,0,0,0,0,0,0,0,0,0],"id":49,"left_children":[1,-1,3,5,7,9,11,13,15,17,19,21,-1,23,25,-1,27,-1,-1,-1,29,31,33,35,37,39,41,43,45,-1,-1,-1,-1,-1,-1,-1,-1,-1,-1,-1,-1,-1,-1,-1,-1,-1,-1],"loss_changes":[1.1684547E1,0E0,9.853668E-1,5.9825897E-2,4.908104E-1,4.199581E-1,3.983457E-1,1.2641239E0,2.251893E0,3.3243114E-1,4.5921993E-1,1.5353152E0,0E0,3.6933994E0,2.9749677E0,0E0,3.5699558E-1,0E0,0E0,0E0,2.4492626E0,1.2052119E-1,4.8816657E-1,1.8099117E0,4.1144123E0,1.3812938E0,5.341195E0,1.517807E0,1.4982405E0,0E0,0E0,0E0,0E0,0E0,0E0,0E0,0E0,0E0,0E0,0E0,0E0,0E0,0E0,0E0,0E0,0E0,0E0],"parents":[2147483647,0,0,2,2,3,3,4,4,5,5,6,6,7,7,8,8,9,9,10,10,11,11,13,13,14,14,16,16,20,20,21,21,22,22,23,23,24,24,25,25,26,26,27,27,28,28],"right_children":[2,-1,4,6,8,10,12,14,16,18,20,22,-1,24,26,-1,28,-1,-1,-1,30,32,34,36,38,40,42,44,46,-1,-1,-1,-1,-1,-1,-1,-1,-1,-1,-1,-1,-1,-1,-1,-1,-1,-1],"split_conditions":[4.3E1,-8.962423E-2,5.4E1,1E0,2E0,4.5E1,4.9E1,1E0,5.7E1,4.4E1,5.2E1,4.7E1,-5.8742028E-2,1E0,6.6E1,3.854136E-2,1E0,-4.934117E-2,-4.3401225E-3,-7.506373E-2,1E0,4.4E1,4.8E1,5.5E1,6.3E1,6.1E1,1E0,6.8E1,6.4E1,-6.358433E-2,4.984343E-2,-1.2334195E-2,-6.0056854E-2,5.4956514E-2,-1.2722214E-2,5.234105E-3,-5.76093E-2,4.6278127E-2,-3.6430765E-2,-2.8410707E-2,-7.963314E-2,2.5054464E-2,-6.6762544E-2,-8.601795E-2,-2.6831672E-2,4.1091363E-3,-9.072952E-2],"split_indices":[2,0,2,1,4,2,2,1,2,2,2,2,0,4,2,0,1,0,0,0,4,2,2,2,2,2,4,2,2,0,0,0,0,0,0,0,0,0,0,0,0,0,0,0,0,0,0],"split_type":[0,0,0,0,0,0,0,0,0,0,0,0,0,0,0,0,0,0,0,0,0,0,0,0,0,0,0,0,0,0,0,0,0,0,0,0,0,0,0,0,0,0,0,0,0,0,0],"sum_hessian":[3.2693356E2,7.528399E1,2.5164958E2,5.4730206E1,1.9691937E2,3.7936543E1,1.6793665E1,1.6217937E2,3.474E1,6.117744E0,3.1818796E1,8.138544E0,8.655121E0,1.09216095E2,5.2963276E1,1.8840015E0,3.2856E1,2.940647E0,3.1770973E0,2.294211E1,8.876687E0,5.270022E0,2.8685226E0,8.353041E1,2.5685684E1,2.4439734E1,2.8523544E1,2.1405619E1,1.1450381E1,7.2093806E0,1.6673069E0,1.2790191E0,3.9910028E0,1.5793114E0,1.2892112E0,4.6931286E0,7.883728E1,7.873546E0,1.7812138E1,1.5709337E1,8.730395E0,2.0548315E1,7.97523E0,6.053475E0,1.5352144E1,1.8772366E0,9.573145E0],"tree_param":{"num_deleted":"0","num_feature":"5","num_nodes":"47","size_leaf_vector":"1"}},{"base_weights":[-5.3177166E-1,-8.9495665E-1,-4.3201244E-1,-9.069936E-2,-3.7220195E-2,-5.364419E-1,-3.642113E-1,-5.6201726E-1,7.232103E-2,-5.7201374E-2,-4.024034E-1,-6.223974E-1,-3.1593904E-1,-7.112611E-3,-1.0710264E-2,-4.7167158E-1,-3.0958167E-1,-3.5908705E-1,-6.57553E-2,-3.6269993E-1,1.371585E-2,-2.1454428E-1,4.5577198E-1,-3.8630378E-1,-6.9535565E-1,2.4226865E-1,-4.2659733E-1,-6.078973E-2,1.6940689E-2,-2.1244051E-2,-5.2408922E-2,8.646304E-3,-5.0497424E-2,-1.0839089E-2,8.243384E-2,-5.046777E-2,-2.2283679E-2,-7.458686E-2,-3.9441742E-2,5.627917E-2,-2.3570973E-2,-3.499655E-2,-8.571709E-2],"categories":[],"categories_nodes":[],"categories_segments":[],"categories_sizes":[],"default_left":[0,0,0,0,0,0,0,0,0,0,0,0,0,0,0,0,0,0,0,0,0,0,0,0,0,0,0,0,0,0,0,0,0,0,0,0,0,0,0,0,0,0,0],"id":50,"left_children":[1,3,5,-1,-1,7,9,11,-1,13,15,17,19,21,-1,23,25,27,-1,29,-1,31,33,35,37,39,41,-1,-1,-1,-1,-1,-1,-1,-1,-1,-1,-1,-1,-1,-1,-1,-1],"loss_changes":[1.0868523E1,7.7762604E-2,1.543869E0,0E0,0E0,3.4536324E0,1.7598877E0,1.189127E0,0E0,4.4200752E-2,7.224026E-1,4.4758415E-1,4.8210955E-1,1.0626189E0,0E0,1.1718788E0,4.0185375E0,1.5366466E0,0E0,3.4389067E-1,0E0,7.0972306E-1,8.024804E-1,9.87586E-1,3.572464E-3,1.8553901E0,1.3625116E0,0E0,0E0,0E0,0E0,0E0,0E0,0E0,0E0,0E0,0E0,0E0,0E0,0E0,0E0,0E0,0E0],"parents":[2147483647,0,0,1,1,2,2,5,5,6,6,7,7,9,9,10,10,11,11,12,12,13,13,15,15,16,16,17,17,19,19,21,21,22,22,23,23,24,24,25,25,26,26],"right_children":[2,4,6,-1,-1,8,10,12,-1,14,16,18,20,22,-1,24,26,28,-1,30,-1,32,34,36,38,40,42,-1,-1,-1,-1,-1,-1,-1,-1,-1,-1,-1,-1,-1,-1,-1,-1],"split_conditions":[4.2E1,7E0,5.9E1,-9.069936E-2,-3.7220195E-2,3E0,6.1E1,3E0,7.232103E-2,6E1,7.5E1,4.5E1,5.8E1,1E0,-1.0710264E-2,7E1,7.7E1,1E0,-6.57553E-2,5.3E1,1.371585E-2,1E0,1E0,6.6E1,4E0,1E0,3E0,-6.078973E-2,1.6940689E-2,-2.1244051E-2,-5.2408922E-2,8.646304E-3,-5.0497424E-2,-1.0839089E-2,8.243384E-2,-5.046777E-2,-2.2283679E-2,-7.458686E-2,-3.9441742E-2,5.627917E-2,-2.3570973E-2,-3.499655E-2,-8.571709E-2],"split_indices":[2,0,2,0,0,4,2,0,0,2,2,2,2,4,0,2,2,0,0,2,0,0,0,2,0,0,4,0,0,0,0,0,0,0,0,0,0,0,0,0,0,0,0],"split_type":[0,0,0,0,0,0,0,0,0,0,0,0,0,0,0,0,0,0,0,0,0,0,0,0,0,0,0,0,0,0,0,0,0,0,0,0,0,0,0,0,0,0,0],"sum_hessian":[3.096493E2,6.5008224E1,2.4464105E2,6.2826557E1,2.1816642E0,9.3585556E1,1.510555E2,9.226606E1,1.3194942E0,1.6988663E1,1.3406683E2,7.285934E1,1.9406729E1,9.048598E0,7.940065E0,7.443688E1,5.962996E1,9.902832E0,6.29565E1,1.777211E1,1.6346192E0,6.618961E0,2.4296377E0,5.584931E1,1.858757E1,1.024478E1,4.9385178E1,6.630845E0,3.2719874E0,1.04029255E1,7.3691835E0,3.5951598E0,3.023801E0,1.2390072E0,1.1906304E0,3.1181807E1,2.4667503E1,1.4650061E1,3.9375095E0,6.026251E0,4.2185287E0,4.346265E1,5.922528E0],"tree_param":{"num_deleted":"0","num_feature":"5","num_nodes":"43","size_leaf_vector":"1"}},{"base_weights":[-4.9672738E-1,-5.342627E-1,-3.555602E-1,-6.0061353E-1,-3.3481798E-1,-2.8872192E-1,-6.9849616E-1,-6.249562E-2,-4.034362E-2,-2.8544554E-1,-6.229493E-2,-2.6434007E-1,-3.647115E-2,-7.701941E-2,-1.13928765E-2,-2.3070171E-1,-5.3952754E-1,-2.3284821E-1,-6.554744E-2,-2.6585653E-1,-7.400755E-2,-5.906132E-1,-1.5241134E-2,-2.9260364E-1,2.0041487E-3,-2.2466581E-2,-3.218442E-2,-8.513992E-3,-3.8652525E-3,-8.103329E-2,-2.3920767E-3,-2.1171173E-2,-3.3706766E-2,2.521786E-2,-1.4135847E-2],"categories":[],"categories_nodes":[],"categories_segments":[],"categories_sizes":[],"default_left":[0,0,0,0,0,0,0,0,0,0,0,0,0,0,0,0,0,0,0,0,0,0,0,0,0,0,0,0,0,0,0,0,0,0,0],"id":51,"left_children":[1,3,5,7,9,11,13,-1,-1,15,-1,17,-1,-1,-1,19,21,23,-1,25,27,29,-1,31,33,-1,-1,-1,-1,-1,-1,-1,-1,-1,-1],"loss_changes":[1.3735275E0,2.857132E0,1.287447E0,5.741615E-1,6.750097E-1,7.4858665E-3,3.2685423E-1,0E0,0E0,6.1308384E-1,0E0,4.1504955E-1,0E0,0E0,0E0,2.3026443E-1,8.109665E-2,6.2092686E-1,0E0,1.2267113E-2,5.269088E-4,8.8906527E-1,0E0,5.5405617E-2,3.928348E-1,0E0,0E0,0E0,0E0,0E0,0E0,0E0,0E0,0E0,0E0],"parents":[2147483647,0,0,1,1,2,2,3,3,4,4,5,5,6,6,9,9,11,11,15,15,16,16,17,17,19,19,20,20,21,21,23,23,24,24],"right_children":[2,4,6,8,10,12,14,-1,-1,16,-1,18,-1,-1,-1,20,22,24,-1,26,28,30,-1,32,34,-1,-1,-1,-1,-1,-1,-1,-1,-1,-1],"split_conditions":[3E0,1E0,2E0,2E0,2E0,1E0,4E0,-6.249562E-2,-4.034362E-2,3E0,-6.229493E-2,1.5E1,-3.647115E-2,-7.701941E-2,-1.13928765E-2,1E0,1E0,7E0,-6.554744E-2,2E0,2E0,4E0,-1.5241134E-2,4E0,8E0,-2.2466581E-2,-3.218442E-2,-8.513992E-3,-3.8652525E-3,-8.103329E-2,-2.3920767E-3,-2.1171173E-2,-3.3706766E-2,2.521786E-2,-1.4135847E-2],"split_indices":[0,4,4,0,0,4,4,0,0,4,0,0,0,0,0,0,0,0,0,4,4,4,0,0,0,0,0,0,0,0,0,0,0,0,0],"split_type":[0,0,0,0,0,0,0,0,0,0,0,0,0,0,0,0,0,0,0,0,0,0,0,0,0,0,0,0,0,0,0,0,0,0,0],"sum_hessian":[2.9406747E2,2.3010075E2,6.3966724E1,1.7115114E2,5.894961E1,5.507459E1,8.892138E0,1.5041235E2,2.0738781E1,5.2025517E1,6.9240956E0,4.5086773E1,9.987816E0,7.6378064E0,1.2543311E0,4.437301E1,7.6525087E0,4.3203587E1,1.8831847E0,3.5673E1,8.700007E0,6.2959876E0,1.3565212E0,3.4244556E1,8.959031E0,2.344041E1,1.223259E1,5.545677E0,3.1543298E0,4.2271066E0,2.0688808E0,1.4190201E1,2.0054356E1,2.9872007E0,5.9718304E0],"tree_param":{"num_deleted":"0","num_feature":"5","num_nodes":"35","size_leaf_vector":"1"}},{"base_weights":[-4.3960732E-1,-4.8693225E-1,-3.0577588E-1,-5.3271063E-2,-3.1044582E-1,-1.9200878E-1,-5.270328E-2,-3.576764E-2,-1.4568125E-1,-1.4982006E-1,-3.96483E-1,-5.4916684E-3,-5.2952595E-2,-2.2078861E-1,-1.116558E-2,-4.2708587E-2,-1.3145435E-2,-2.489967E-2,-8.385849E-3,-4.1799695E-4,-3.0548929E-3],"categories":[],"categories_nodes":[],"categories_segments":[],"categories_sizes":[],"default_left":[0,0,0,0,0,0,0,0,0,0,0,0,0,0,0,0,0,0,0,0,0],"id":52,"left_children":[1,3,5,-1,7,9,-1,-1,11,13,15,-1,-1,17,19,-1,-1,-1,-1,-1,-1],"loss_changes":[1.6316605E0,1.498951E0,1.8151193E0,0E0,2.9671907E-1,3.8788903E-1,0E0,0E0,3.7763017E-1,4.363016E-1,1.0859847E-2,0E0,0E0,9.2834234E-2,2.0589854E-3,0E0,0E0,0E0,0E0,0E0,0E0],"parents":[2147483647,0,0,1,1,2,2,4,4,5,5,8,8,9,9,10,10,13,13,14,14],"right_children":[2,4,6,-1,8,10,-1,-1,12,14,16,-1,-1,18,20,-1,-1,-1,-1,-1,-1],"split_conditions":[1E0,3E0,2E0,-5.3271063E-2,7E0,3E0,-5.270328E-2,-3.576764E-2,1.8E1,2E0,1E0,-5.4916684E-3,-5.2952595E-2,1E0,1E0,-4.2708587E-2,-1.3145435E-2,-2.489967E-2,-8.385849E-3,-4.1799695E-4,-3.0548929E-3],"split_indices":[4,0,0,0,0,4,0,0,0,4,0,0,0,0,0,0,0,0,0,0,0],"split_type":[0,0,0,0,0,0,0,0,0,0,0,0,0,0,0,0,0,0,0,0,0],"sum_hessian":[2.8012933E2,2.0499977E2,7.512956E1,1.6117464E2,4.3825127E1,5.085068E1,2.4278881E1,3.3151306E1,1.067382E1,4.358964E1,7.261043E0,9.55702E0,1.1167994E0,2.844041E1,1.514923E1,5.96123E0,1.2998129E0,2.2903738E1,5.536672E0,1.2029528E1,3.1197023E0],"tree_param":{"num_deleted":"0","num_feature":"5","num_nodes":"21","size_leaf_vector":"1"}},{"base_weights":[-4.4871947E-1,-8.5431266E-1,-3.4407344E-1,-8.675367E-2,-3.515984E-2,-5.1398975E-1,-2.9209813E-1,-5.4317576E-1,-3.1719804E-1,-3.006687E-1,2.3820033E-2,-3.1879023E-1,-5.9775647E-2,-7.2397694E-2,-2.7404295E-2,-3.1432372E-1,8.5549325E-2,-5.43166E-2,6.1442055E-2,6.920338E-2,-3.7606597E-1,-2.0449816E-1,-3.6863086E-1,2.3946233E-2,-1.2146477E-1,7.200726E-2,-6.437287E-2,-5.3767513E-2,-1.7673166E-2,-3.4365334E-2,8.987707E-4,-8.4432356E-2,-3.3480648E-2,-5.085017E-2,2.5997138E-2],"categories":[],"categories_nodes":[],"categories_segments":[],"categories_sizes":[],"default_left":[0,0,0,0,0,0,0,0,0,0,0,0,0,0,0,0,0,0,0,0,0,0,0,0,0,0,0,0,0,0,0,0,0,0,0],"id":53,"left_children":[1,3,5,-1,-1,7,9,11,13,15,-1,17,-1,-1,19,21,23,-1,25,-1,27,29,31,-1,33,-1,-1,-1,-1,-1,-1,-1,-1,-1,-1],"loss_changes":[1.1145203E1,5.795288E-2,1.7566891E0,0E0,0E0,1.1062527E-1,8.3360195E-1,3.1760883E-1,1.0134671E0,8.9933777E-1,0E0,9.087868E-1,0E0,0E0,1.8049785E0,8.788729E-1,2.3412639E-1,0E0,2.6493669E0,0E0,5.9471607E-2,1.6424718E0,1.4198074E0,0E0,6.3527256E-1,0E0,0E0,0E0,0E0,0E0,0E0,0E0,0E0,0E0,0E0],"parents":[2147483647,0,0,1,1,2,2,5,5,6,6,7,7,8,8,9,9,11,11,14,14,15,15,16,16,18,18,20,20,21,21,22,22,24,24],"right_children":[2,4,6,-1,-1,8,10,12,14,16,-1,18,-1,-1,20,22,24,-1,26,-1,28,30,32,-1,34,-1,-1,-1,-1,-1,-1,-1,-1,-1,-1],"split_conditions":[4.2E1,7E0,5.4E1,-8.675367E-2,-3.515984E-2,4E0,1.4E1,4.5E1,4.7E1,9.4E1,2.3820033E-2,1E0,-5.9775647E-2,-7.2397694E-2,4.9E1,6.2E1,1E0,-5.43166E-2,2E0,6.920338E-2,5.1E1,5.9E1,6.3E1,2.3946233E-2,3E0,7.200726E-2,-6.437287E-2,-5.3767513E-2,-1.7673166E-2,-3.4365334E-2,8.987707E-4,-8.4432356E-2,-3.3480648E-2,-5.085017E-2,2.5997138E-2],"split_indices":[2,0,2,0,0,0,0,2,2,2,0,0,0,0,2,2,0,0,0,0,2,2,2,0,0,0,0,0,0,0,0,0,0,0,0],"split_type":[0,0,0,0,0,0,0,0,0,0,0,0,0,0,0,0,0,0,0,0,0,0,0,0,0,0,0,0,0,0,0,0,0,0,0],"sum_hessian":[2.6851334E2,5.360071E1,2.1491263E2,5.151977E1,2.0809422E0,4.825841E1,1.666542E2,4.0492805E1,7.765605E0,1.6442975E2,2.2244601E0,9.260966E0,3.123184E1,2.607396E0,5.1582093E0,1.5899452E2,5.4352245E0,5.5546474E0,3.706319E0,1.3623238E0,3.7958853E0,5.418384E1,1.04810684E2,3.027536E0,2.4076884E0,1.9054726E0,1.8008463E0,1.1589333E0,2.6369522E0,3.243331E1,2.1750528E1,5.367152E0,9.9443535E1,1.0297222E0,1.3779662E0],"tree_param":{"num_deleted":"0","num_feature":"5","num_nodes":"35","size_leaf_vector":"1"}},{"base_weights":[-4.055633E-1,-8.416557E-1,-2.9877234E-1,-8.5587256E-2,-3.2593735E-2,-4.5258462E-1,-2.2687823E-1,-4.7967538E-1,-2.745021E-1,3.0236312E-3,-2.998907E-1,-5.0423723E-1,-6.7797996E-2,-5.7604555E-2,-7.1788065E-2,-1.9162555E-1,4.6564218E-1,-4.2901725E-1,-1.5399571E-1,-5.256574E-1,-2.921263E-1,-2.880542E-2,2.0883625E-2,-1.7740463E-1,3.6603E-2,-2.6851577E-1,8.1625395E-2,8.6750656E-1,-3.2182775E-2,-8.3585165E-2,-3.7409085E-1,4.029829E-2,-4.897971E-1,-4.579792E-2,-7.6874174E-2,-7.074557E-2,7.587527E-3,1.3067603E-2,-3.693964E-2,-5.276229E-2,-7.981002E-3,7.1650214E-2,-3.4249756E-2,1.0798252E-1,3.5525884E-2,1.1542998E-2,-4.310308E-2,4.933091E-2,-6.604399E-3,-1.7806895E-2,-7.243898E-2],"categories":[],"categories_nodes":[],"categories_segments":[],"categories_sizes":[],"default_left":[0,0,0,0,0,0,0,0,0,0,0,0,0,0,0,0,0,0,0,0,0,0,0,0,0,0,0,0,0,0,0,0,0,0,0,0,0,0,0,0,0,0,0,0,0,0,0,0,0,0,0],"id":54,"left_children":[1,3,5,-1,-1,7,9,11,13,15,17,19,21,23,-1,25,27,29,31,33,35,-1,-1,37,-1,39,41,43,-1,-1,45,47,49,-1,-1,-1,-1,-1,-1,-1,-1,-1,-1,-1,-1,-1,-1,-1,-1,-1,-1],"loss_changes":[1.1782616E1,8.969498E-2,2.2098522E0,0E0,0E0,1.8484211E-1,2.426725E0,5.2835464E-1,1.0165431E0,3.3150682E0,2.0004406E0,8.4163666E-2,3.2122773E-1,4.9501112E-1,0E0,5.6656426E-1,3.728756E0,9.75132E-1,3.4817662E0,4.0917015E-1,1.1312137E0,0E0,0E0,4.7885066E-1,0E0,9.584454E-1,1.9847144E0,4.3077517E-1,0E0,0E0,1.5154934E0,1.6964084E0,1.2988458E0,0E0,0E0,0E0,0E0,0E0,0E0,0E0,0E0,0E0,0E0,0E0,0E0,0E0,0E0,0E0,0E0,0E0,0E0],"parents":[2147483647,0,0,1,1,2,2,5,5,6,6,7,7,8,8,9,9,10,10,11,11,12,12,13,13,15,15,16,16,17,17,18,18,19,19,20,20,23,23,25,25,26,26,27,27,30,30,31,31,32,32],"right_children":[2,4,6,-1,-1,8,10,12,14,16,18,20,22,24,-1,26,28,30,32,34,36,-1,-1,38,-1,40,42,44,-1,-1,46,48,50,-1,-1,-1,-1,-1,-1,-1,-1,-1,-1,-1,-1,-1,-1,-1,-1,-1,-1],"split_conditions":[4.2E1,7E0,5.7E1,-8.5587256E-2,-3.2593735E-2,4E0,6.2E1,2E0,8E0,1E0,7.5E1,1E0,5.4E1,5.5E1,-7.1788065E-2,3E0,2E0,6.3E1,8.6E1,5.5E1,5.2E1,-2.880542E-2,2.0883625E-2,4.8E1,3.6603E-2,5.9E1,4E0,6E1,-3.2182775E-2,-8.3585165E-2,6.4E1,7.6E1,1E0,-4.579792E-2,-7.6874174E-2,-7.074557E-2,7.587527E-3,1.3067603E-2,-3.693964E-2,-5.276229E-2,-7.981002E-3,7.1650214E-2,-3.4249756E-2,1.0798252E-1,3.5525884E-2,1.1542998E-2,-4.310308E-2,4.933091E-2,-6.604399E-3,-1.7806895E-2,-7.243898E-2],"split_indices":[2,0,2,0,0,0,2,4,0,4,2,4,2,2,0,0,4,2,2,2,2,0,0,2,0,2,0,2,0,0,2,2,4,0,0,0,0,0,0,0,0,0,0,0,0,0,0,0,0,0,0],"split_type":[0,0,0,0,0,0,0,0,0,0,0,0,0,0,0,0,0,0,0,0,0,0,0,0,0,0,0,0,0,0,0,0,0,0,0,0,0,0,0,0,0,0,0,0,0,0,0,0,0,0,0],"sum_hessian":[2.5740442E2,4.928056E1,2.0812384E2,4.7316597E1,1.9639605E0,6.4606895E1,1.4351695E2,5.4606358E1,1.0000536E1,3.482343E1,1.0869352E2,5.132161E1,3.2847497E0,7.4741554E0,2.526381E0,2.4922808E1,9.900621E0,5.66309E1,5.2062622E1,4.5271606E1,6.0500007E0,1.8057388E0,1.4790109E0,6.279578E0,1.194577E0,1.9463339E1,5.4594693E0,6.4880033E0,3.4126182E0,5.045049E0,5.158585E1,3.3537746E1,1.8524876E1,3.766825E1,7.603357E0,2.4088867E0,3.641114E0,2.533519E0,3.7460592E0,7.4449105E0,1.2018427E1,1.9103944E0,3.549075E0,3.8034997E0,2.6845033E0,5.2680917E0,4.631776E1,5.6842694E0,2.7853476E1,8.710012E0,9.814863E0],"tree_param":{"num_deleted":"0","num_feature":"5","num_nodes":"51","size_leaf_vector":"1"}},{"base_weights":[-4.382852E-1,-8.793492E-2,-3.271517E-1,-4.8376483E-1,-2.5841108E-1,-3.5440007E-1,-5.589037E-1,-1.2240939E-1,-4.5755988E-1,-2.7099824E-1,-7.3952876E-2,-6.691642E-2,-4.2522338E-1,-2.0636564E-1,3.1612564E-2,2.40016E-1,-6.7963743E-1,-1.7047709E-1,-3.0001006E-1,-4.8135985E-2,-2.4702916E-1,-1.6527951E-1,-5.9441984E-1,-4.03114E-1,2.8087682E-1,-1.3940023E-1,3.8006586E-1,-5.739876E-1,-8.5952766E-2,-6.7008766E-3,-3.040942E-2,-3.569343E-2,-1.4212826E-2,-5.733449E-3,-5.72036E-2,-1.8650124E-2,1.9583669E-2,-7.44748E-2,-7.8174705E-4,-6.2020225E-3,-8.106304E-2,8.487635E-2,6.9676205E-3,1.3810872E-2,-5.3133663E-2,7.098414E-2,1.960901E-2,-7.5649075E-2,-1.835934E-2],"categories":[],"categories_nodes":[],"categories_segments":[],"categories_sizes":[],"default_left":[0,0,0,0,0,0,0,0,0,0,0,0,0,0,0,0,0,0,0,0,0,0,0,0,0,0,0,0,0,0,0,0,0,0,0,0,0,0,0,0,0,0,0,0,0,0,0,0,0],"id":55,"left_children":[1,-1,3,5,7,9,11,13,15,17,-1,-1,19,21,23,25,27,29,31,-1,33,35,37,39,41,43,45,47,-1,-1,-1,-1,-1,-1,-1,-1,-1,-1,-1,-1,-1,-1,-1,-1,-1,-1,-1,-1,-1],"loss_changes":[1.1896542E1,0E0,2.029602E0,3.841915E-1,3.7692862E0,5.943196E-1,2.4843788E-1,1.1093943E0,8.985119E0,1.2769699E-2,0E0,0E0,7.202363E-2,7.839525E-1,3.4676683E0,8.229684E-1,3.3254623E-1,7.9506114E-2,9.029436E-2,0E0,3.757553E-1,4.3058026E-1,4.2736745E-1,1.5749015E0,2.3713026E0,5.778763E-1,5.1921785E-1,2.0261831E0,0E0,0E0,0E0,0E0,0E0,0E0,0E0,0E0,0E0,0E0,0E0,0E0,0E0,0E0,0E0,0E0,0E0,0E0,0E0,0E0,0E0],"parents":[2147483647,0,0,2,2,3,3,4,4,5,5,6,6,7,7,8,8,9,9,12,12,13,13,14,14,15,15,16,16,17,17,18,18,20,20,21,21,22,22,23,23,24,24,25,25,26,26,27,27],"right_children":[2,-1,4,6,8,10,12,14,16,18,-1,-1,20,22,24,26,28,30,32,-1,34,36,38,40,42,44,46,48,-1,-1,-1,-1,-1,-1,-1,-1,-1,-1,-1,-1,-1,-1,-1,-1,-1,-1,-1,-1,-1],"split_conditions":[4.3E1,-8.793492E-2,5.7E1,5E1,1E0,1E0,5.4E1,1E0,6.4E1,4.5E1,-7.3952876E-2,-6.691642E-2,1E0,8.8E1,6.5E1,5.9E1,8.3E1,1E0,1E0,-4.8135985E-2,1E0,8.4E1,9.7E1,6.1E1,6.9E1,2E0,6E1,7.6E1,-8.5952766E-2,-6.7008766E-3,-3.040942E-2,-3.569343E-2,-1.4212826E-2,-5.733449E-3,-5.72036E-2,-1.8650124E-2,1.9583669E-2,-7.44748E-2,-7.8174705E-4,-6.2020225E-3,-8.106304E-2,8.487635E-2,6.9676205E-3,1.3810872E-2,-5.3133663E-2,7.098414E-2,1.960901E-2,-7.5649075E-2,-1.835934E-2],"split_indices":[2,0,2,2,4,4,2,1,2,2,0,0,1,2,2,2,2,1,1,0,4,2,2,2,2,4,2,2,0,0,0,0,0,0,0,0,0,0,0,0,0,0,0,0,0,0,0,0,0],"split_type":[0,0,0,0,0,0,0,0,0,0,0,0,0,0,0,0,0,0,0,0,0,0,0,0,0,0,0,0,0,0,0,0,0,0,0,0,0,0,0,0,0,0,0,0,0,0,0,0,0],"sum_hessian":[2.4757143E2,4.843425E1,1.9913718E2,5.890199E1,1.4023518E2,2.3742208E1,3.515978E1,8.428819E1,5.5946995E1,2.0916315E1,2.8258932E0,1.7072533E1,1.8087246E1,5.4332233E1,2.9955956E1,1.3490552E1,4.2456444E1,6.224743E0,1.4691573E1,1.2460499E1,5.626748E0,5.0419834E1,3.912399E0,1.0691809E1,1.9264147E1,3.6383502E0,9.852201E0,2.9387741E1,1.3068701E1,4.3543715E0,1.8703715E0,9.871603E0,4.8199697E0,4.2958355E0,1.330913E0,4.8077976E1,2.3418589E0,2.8996994E0,1.0126995E0,6.4474463E0,4.2443624E0,4.4039183E0,1.4860229E1,2.5092857E0,1.1290646E0,2.504521E0,7.347681E0,1.938691E1,1.0000833E1],"tree_param":{"num_deleted":"0","num_feature":"5","num_nodes":"49","size_leaf_vector":"1"}},{"base_weights":[-3.6020562E-1,-8.24473E-2,-2.4979016E-1,-2.877313E-1,-6.31039E-2,-3.2045692E-1,-8.823854E-2,-2.1673758E-1,9.9371865E-2,-4.6276388E-1,-2.8485867E-1,6.837596E-1,-2.9258895E-1,-2.8800033E-2,-6.360076E-2,7.161682E-2,-2.4151757E-2,-2.6647016E-1,-5.9436965E-1,-2.0100208E-1,-4.2418984E-1,1.7156343E-1,1.4055766E-1,-1.1689541E-2,-7.387548E-2,-1.6432016E-1,6.525042E-2,1.9774821E-1,-3.70723E-1,-4.6380248E-2,-1.6137334E-2,-6.697098E-2,-1.8550053E-2,-1.087271E-2,-3.4764733E-2,-7.925253E-2,-3.6621813E-2,-6.254683E-2,9.215249E-2,-1.3211073E-2,5.1962685E-2,1.5328503E-2,-5.0282586E-2,-6.0612448E-2,4.1456074E-2,-1.6921936E-2,-6.0655933E-2],"categories":[],"categories_nodes":[],"categories_segments":[],"categories_sizes":[],"default_left":[0,0,0,0,0,0,0,0,0,0,0,0,0,0,0,0,0,0,0,0,0,0,0,0,0,0,0,0,0,0,0,0,0,0,0,0,0,0,0,0,0,0,0,0,0,0,0],"id":56,"left_children":[1,-1,3,5,7,9,11,13,15,17,19,21,23,25,-1,-1,27,29,31,33,35,37,-1,39,-1,41,-1,43,45,-1,-1,-1,-1,-1,-1,-1,-1,-1,-1,-1,-1,-1,-1,-1,-1,-1,-1],"loss_changes":[1.2024702E1,0E0,1.3572607E0,1.0234919E0,8.7222975E-1,5.673704E-1,3.9994552E0,1.3866975E0,1.3314732E0,5.1370287E-1,1.2350531E0,1.7332656E0,2.465743E0,1.3407053E0,0E0,0E0,1.2528877E0,1.7930067E-1,3.3048916E-1,9.425216E-1,5.9713984E-1,3.124453E0,0E0,9.088306E-1,0E0,1.3609544E0,0E0,1.9947301E0,1.9841355E-1,0E0,0E0,0E0,0E0,0E0,0E0,0E0,0E0,0E0,0E0,0E0,0E0,0E0,0E0,0E0,0E0,0E0,0E0],"parents":[2147483647,0,0,2,2,3,3,4,4,5,5,6,6,7,7,8,8,9,9,10,10,11,11,12,12,13,13,16,16,17,17,18,18,19,19,20,20,21,21,23,23,25,25,27,27,28,28],"right_children":[2,-1,4,6,8,10,12,14,16,18,20,22,24,26,-1,-1,28,30,32,34,36,38,-1,40,-1,42,-1,44,46,-1,-1,-1,-1,-1,-1,-1,-1,-1,-1,-1,-1,-1,-1,-1,-1,-1,-1],"split_conditions":[4.3E1,-8.24473E-2,4E0,8.1E1,6.6E1,5.2E1,8.3E1,6E1,6.8E1,4.7E1,6.7E1,2E0,1E0,5.9E1,-6.360076E-2,7.161682E-2,7E0,4.4E1,2E0,1E0,6.8E1,8.2E1,1.4055766E-1,9.7E1,-7.387548E-2,5.3E1,6.525042E-2,7.1E1,8.6E1,-4.6380248E-2,-1.6137334E-2,-6.697098E-2,-1.8550053E-2,-1.087271E-2,-3.4764733E-2,-7.925253E-2,-3.6621813E-2,-6.254683E-2,9.215249E-2,-1.3211073E-2,5.1962685E-2,1.5328503E-2,-5.0282586E-2,-6.0612448E-2,4.1456074E-2,-1.6921936E-2,-6.0655933E-2],"split_indices":[2,0,0,2,2,2,2,2,2,2,2,0,0,2,0,0,0,2,0,0,2,2,0,2,0,2,0,2,2,0,0,0,0,0,0,0,0,0,0,0,0,0,0,0,0,0,0],"split_type":[0,0,0,0,0,0,0,0,0,0,0,0,0,0,0,0,0,0,0,0,0,0,0,0,0,0,0,0,0,0,0,0,0,0,0,0,0,0,0,0,0,0,0,0,0,0,0],"sum_hessian":[2.375895E2,4.440623E1,1.9318326E2,1.6010344E2,3.3079826E1,1.3701976E2,2.3083668E1,1.6830906E1,1.624892E1,2.5016125E1,1.1200364E2,4.340405E0,1.8743263E1,1.2359471E1,4.4714346E0,1.9106349E0,1.4338286E1,1.1254494E1,1.3761631E1,7.1446266E1,4.055738E1,3.2628164E0,1.0775884E0,1.2131593E1,6.611671E0,1.0941819E1,1.4176521E0,9.0032015E0,5.335085E0,2.7249563E0,8.529538E0,1.1081707E1,2.679924E0,4.4921383E1,2.6524881E1,3.7921638E0,3.6765217E1,1.6622438E0,1.6005725E0,1.050257E1,1.6290225E0,5.9274874E0,5.014332E0,1.5310253E0,7.472176E0,3.8031342E0,1.5319507E0],"tree_param":{"num_deleted":"0","num_feature":"5","num_nodes":"47","size_leaf_vector":"1"}},{"base_weights":[-3.404442E-1,-7.970126E-2,-2.4579899E-1,-2.940082E-1,-1.01858735E-1,-3.077017E-1,6.133556E-2,-2.187171E-2,-6.735669E-2,-2.7318433E-1,-5.911699E-2,8.907355E-2,-2.3492056E-1,-2.849013E-1,2.1500126E-2,-1.15133874E-1,4.0574223E-1,-4.0681475E-1,6.51446E-2,-3.5139386E-2,-2.4845438E-2,3.9084766E-2,-6.0983032E-2,2.9604657E-2,-2.8773988E-2,6.640857E-2,1.2919483E-2,-5.773574E-2,-4.430534E-4,5.512419E-2,-6.735297E-2],"categories":[],"categories_nodes":[],"categories_segments":[],"categories_sizes":[],"default_left":[0,0,0,0,0,0,0,0,0,0,0,0,0,0,0,0,0,0,0,0,0,0,0,0,0,0,0,0,0,0,0],"id":57,"left_children":[1,-1,3,5,7,9,-1,11,-1,13,-1,15,17,19,21,23,25,27,29,-1,-1,-1,-1,-1,-1,-1,-1,-1,-1,-1,-1],"loss_changes":[9.806108E0,0E0,1.310482E0,1.9800711E0,2.2714772E0,1.2347088E0,0E0,1.0820239E0,0E0,4.5175838E-1,0E0,2.0025172E0,8.3357805E-1,2.1368408E-1,1.6060274E0,1.4454592E0,7.7713037E-1,6.896031E-1,2.7270892E0,0E0,0E0,0E0,0E0,0E0,0E0,0E0,0E0,0E0,0E0,0E0,0E0],"parents":[2147483647,0,0,2,2,3,3,4,4,5,5,7,7,9,9,11,11,12,12,13,13,14,14,15,15,16,16,17,17,18,18],"right_children":[2,-1,4,6,8,10,-1,12,-1,14,-1,16,18,20,22,24,26,28,30,-1,-1,-1,-1,-1,-1,-1,-1,-1,-1,-1,-1],"split_conditions":[4.2E1,-7.970126E-2,7.5E1,4E0,3E0,7E1,6.133556E-2,8.6E1,-6.735669E-2,6.9E1,-5.911699E-2,8.1E1,1E0,5.4E1,1E0,7.6E1,8.3E1,9.4E1,1E0,-3.5139386E-2,-2.4845438E-2,3.9084766E-2,-6.0983032E-2,2.9604657E-2,-2.8773988E-2,6.640857E-2,1.2919483E-2,-5.773574E-2,-4.430534E-4,5.512419E-2,-6.735297E-2],"split_indices":[2,0,2,4,4,2,0,2,0,2,0,2,1,2,1,2,2,2,4,0,0,0,0,0,0,0,0,0,0,0,0],"split_type":[0,0,0,0,0,0,0,0,0,0,0,0,0,0,0,0,0,0,0,0,0,0,0,0,0,0,0,0,0,0,0],"sum_hessian":[2.3046375E2,3.829717E1,1.9216656E2,1.4317209E2,4.899448E1,1.4169458E2,1.4775077E0,4.3891876E1,5.102605E0,1.2806416E2,1.3630416E1,2.9244635E1,1.4647243E1,1.2319885E2,4.8653173E0,1.8166306E1,1.1078328E1,9.0863285E0,5.560914E0,4.056044E1,8.263841E1,3.3098617E0,1.5554557E0,5.159717E0,1.3006589E1,5.00316E0,6.075168E0,6.076206E0,3.0101223E0,3.506888E0,2.0540261E0],"tree_param":{"num_deleted":"0","num_feature":"5","num_nodes":"31","size_leaf_vector":"1"}},{"base_weights":[-3.3434194E-1,-7.947356E-1,-2.3606841E-1,-8.1277065E-2,-2.2833273E-2,-2.748181E-1,-2.2915479E-2,-3.249536E-1,-1.10157005E-1,9.1675624E-2,-7.5744495E-2,-4.0645963E-1,-1.2926996E-1,5.7385303E-2,-4.910395E-1,6.0302764E-1,-6.2309254E-2,-2.3895831E-1,-4.3865994E-1,7.830534E-2,-3.2311872E-1,1.547632E-1,-5.2210033E-2,-3.725493E-2,-7.370306E-2,1.3724156E-1,8.8089126E-1,-6.850336E-2,4.3927476E-2,-3.480274E-2,3.489913E-2,-5.9746783E-2,-3.6760464E-2,-7.147128E-2,2.4654545E-2,-5.2459933E-2,-7.144283E-3,-9.137867E-3,8.345505E-2,-3.7510287E-2,3.363119E-2,-5.9214085E-2,9.337058E-2,1.5921222E-1,-1.6970998E-2,1.3586253E-2,-6.085187E-2],"categories":[],"categories_nodes":[],"categories_segments":[],"categories_sizes":[],"default_left":[0,0,0,0,0,0,0,0,0,0,0,0,0,0,0,0,0,0,0,0,0,0,0,0,0,0,0,0,0,0,0,0,0,0,0,0,0,0,0,0,0,0,0,0,0,0,0],"id":58,"left_children":[1,3,5,-1,-1,7,9,11,13,15,-1,17,19,21,23,25,27,29,31,33,35,37,-1,39,-1,41,43,-1,45,-1,-1,-1,-1,-1,-1,-1,-1,-1,-1,-1,-1,-1,-1,-1,-1,-1,-1],"loss_changes":[9.918102E0,2.1145248E-1,1.5257778E0,0E0,0E0,1.2591877E0,2.562954E0,1.8572216E0,2.461195E0,2.1256673E0,0E0,3.4858513E-1,1.5010343E0,1.6255189E0,1.2844093E0,6.8556595E-1,1.4383963E0,1.1315392E0,5.625038E-1,2.6464784E0,9.340608E-1,4.126769E0,0E0,7.8047955E-1,0E0,2.593563E0,3.0485954E0,0E0,1.2298388E0,0E0,0E0,0E0,0E0,0E0,0E0,0E0,0E0,0E0,0E0,0E0,0E0,0E0,0E0,0E0,0E0,0E0,0E0],"parents":[2147483647,0,0,1,1,2,2,5,5,6,6,7,7,8,8,9,9,11,11,12,12,13,13,14,14,15,15,16,16,17,17,18,18,19,19,20,20,21,21,23,23,25,25,26,26,28,28],"right_children":[2,4,6,-1,-1,8,10,12,14,16,-1,18,20,22,24,26,28,30,32,34,36,38,-1,40,-1,42,44,-1,46,-1,-1,-1,-1,-1,-1,-1,-1,-1,-1,-1,-1,-1,-1,-1,-1,-1,-1],"split_conditions":[4.3E1,7E0,8.1E1,-8.1277065E-2,-2.2833273E-2,3E0,3E0,1E0,1E0,8.3E1,-7.5744495E-2,5E1,6.4E1,7.4E1,6.1E1,8.2E1,8.4E1,4.9E1,5.7E1,5.2E1,2E0,6.6E1,-5.2210033E-2,5.7E1,-7.370306E-2,2E0,1E0,-6.850336E-2,7E0,-3.480274E-2,3.489913E-2,-5.9746783E-2,-3.6760464E-2,-7.147128E-2,2.4654545E-2,-5.2459933E-2,-7.144283E-3,-9.137867E-3,8.345505E-2,-3.7510287E-2,3.363119E-2,-5.9214085E-2,9.337058E-2,1.5921222E-1,-1.6970998E-2,1.3586253E-2,-6.085187E-2],"split_indices":[2,0,2,0,0,0,4,4,4,2,0,2,2,2,2,2,2,2,2,2,4,2,0,2,0,0,0,0,0,0,0,0,0,0,0,0,0,0,0,0,0,0,0,0,0,0,0],"split_type":[0,0,0,0,0,0,0,0,0,0,0,0,0,0,0,0,0,0,0,0,0,0,0,0,0,0,0,0,0,0,0,0,0,0,0,0,0,0,0,0,0,0,0,0,0,0,0],"sum_hessian":[2.2235785E2,3.786767E1,1.8449019E2,3.6277576E1,1.5900936E0,1.5586563E2,2.8624556E1,1.1873891E2,3.7126724E1,2.5518677E1,3.105879E0,8.3064E1,3.56749E1,2.6374475E1,1.0752248E1,5.231106E0,2.028757E1,1.4751226E1,6.831278E1,1.7515339E1,1.8159561E1,2.3207561E1,3.1669142E0,4.1844883E0,6.56776E0,2.512795E0,2.7183108E0,2.162651E0,1.812492E1,1.2787175E1,1.9640508E0,1.8826729E1,4.948605E1,2.4970498E0,1.501829E1,9.483258E0,8.676302E0,1.7673721E1,5.53384E0,2.1951327E0,1.9893554E0,1.4455416E0,1.0672535E0,1.3135983E0,1.4047126E0,1.6580374E1,1.5445473E0],"tree_param":{"num_deleted":"0","num_feature":"5","num_nodes":"47","size_leaf_vector":"1"}},{"base_weights":[-3.0496222E-1,-6.053207E-1,-1.8013602E-1,-7.3330325E-1,-4.4437248E-1,-1.2502076E-1,-2.7107605E-1,-7.520151E-2,-1.9603837E-2,-6.1889596E-2,-2.4305828E-1,-2.83633E-1,4.0063363E-2,-3.1307265E-2,-7.828637E-1,-1.4170519E-1,-6.519285E-2,-3.8596857E-1,6.8337865E-2,-1.1501433E-1,2.5870806E-1,4.3424112E-1,-2.3383819E-1,-4.660102E-1,-9.1672756E-2,-2.7102474E-3,-3.2851213E-1,-2.3513253E-1,-6.835636E-1,3.354704E-1,-7.092582E-2,2.7331564E-1,-1.8189198E-1,6.223706E-1,9.712732E-2,1.8489824E-1,1.0440145E-1,-3.9359912E-1,-1.19482495E-1,-6.803896E-2,3.364336E-2,1.9261448E-2,-5.9676137E-2,-4.154581E-2,-1.5138614E-2,-2.9635755E-2,1.635509E-2,-8.3947934E-2,-4.606696E-2,6.990621E-2,5.806829E-3,5.157237E-3,3.9887257E-2,-5.6636132E-2,-9.327912E-3,1.4314487E-3,1.1731272E-1,4.5249116E-2,-3.3773683E-2,9.40479E-2,-7.583113E-4,-2.5835676E-2,-6.7786925E-2,5.090365E-4,-5.2917656E-2],"categories":[],"categories_nodes":[],"categories_segments":[],"categories_sizes":[],"default_left":[0,0,0,0,0,0,0,0,0,0,0,0,0,0,0,0,0,0,0,0,0,0,0,0,0,0,0,0,0,0,0,0,0,0,0,0,0,0,0,0,0,0,0,0,0,0,0,0,0,0,0,0,0,0,0,0,0,0,0,0,0,0,0,0,0],"id":59,"left_children":[1,3,5,7,9,11,13,-1,-1,-1,15,17,19,21,23,25,-1,27,29,31,33,35,37,39,-1,41,43,45,47,49,-1,51,53,55,57,59,-1,61,63,-1,-1,-1,-1,-1,-1,-1,-1,-1,-1,-1,-1,-1,-1,-1,-1,-1,-1,-1,-1,-1,-1,-1,-1,-1,-1],"loss_changes":[8.019709E0,9.765339E-1,7.409024E-1,1.9119835E-1,9.227338E-1,2.5801806E0,7.028517E0,0E0,0E0,0E0,5.636353E-1,1.8329883E0,1.6894307E0,3.8901913E0,3.4878922E-1,3.6167577E-1,0E0,1.5903206E0,2.761286E0,8.114072E-1,1.151137E0,1.7122493E0,4.7640324E-1,1.5135427E0,0E0,1.160943E0,2.872014E-2,7.1758664E-1,5.105543E-2,9.398309E-1,0E0,1.1052075E-1,8.2003516E-1,2.0454953E0,2.5420637E0,1.4774098E0,0E0,2.676232E-1,9.2819214E-1,0E0,0E0,0E0,0E0,0E0,0E0,0E0,0E0,0E0,0E0,0E0,0E0,0E0,0E0,0E0,0E0,0E0,0E0,0E0,0E0,0E0,0E0,0E0,0E0,0E0,0E0],"parents":[2147483647,0,0,1,1,2,2,3,3,4,4,5,5,6,6,10,10,11,11,12,12,13,13,14,14,15,15,17,17,18,18,19,19,20,20,21,21,22,22,23,23,25,25,26,26,27,27,28,28,29,29,31,31,32,32,33,33,34,34,35,35,37,37,38,38],"right_children":[2,4,6,8,10,12,14,-1,-1,-1,16,18,20,22,24,26,-1,28,30,32,34,36,38,40,-1,42,44,46,48,50,-1,52,54,56,58,60,-1,62,64,-1,-1,-1,-1,-1,-1,-1,-1,-1,-1,-1,-1,-1,-1,-1,-1,-1,-1,-1,-1,-1,-1,-1,-1,-1,-1],"split_conditions":[5.2E1,4.2E1,1E0,7E0,1E0,6.5E1,2E0,-7.520151E-2,-1.9603837E-2,-6.1889596E-2,1E0,3E0,2E0,6.2E1,6.6E1,4.8E1,-6.519285E-2,1E0,6.1E1,6.7E1,3E0,1E0,7.3E1,6.3E1,-9.1672756E-2,5E0,5E1,6.3E1,5.8E1,4E0,-7.092582E-2,6.6E1,6.9E1,7.8E1,7.6E1,5.4E1,1.0440145E-1,7E1,3E0,-6.803896E-2,3.364336E-2,1.9261448E-2,-5.9676137E-2,-4.154581E-2,-1.5138614E-2,-2.9635755E-2,1.635509E-2,-8.3947934E-2,-4.606696E-2,6.990621E-2,5.806829E-3,5.157237E-3,3.9887257E-2,-5.6636132E-2,-9.327912E-3,1.4314487E-3,1.1731272E-1,4.5249116E-2,-3.3773683E-2,9.40479E-2,-7.583113E-4,-2.5835676E-2,-6.7786925E-2,5.090365E-4,-5.2917656E-2],"split_indices":[2,2,4,0,0,2,0,0,0,0,4,0,0,2,2,2,0,0,2,2,0,0,2,2,0,0,2,2,2,0,0,2,2,2,2,2,0,2,4,0,0,0,0,0,0,0,0,0,0,0,0,0,0,0,0,0,0,0,0,0,0,0,0,0,0],"split_type":[0,0,0,0,0,0,0,0,0,0,0,0,0,0,0,0,0,0,0,0,0,0,0,0,0,0,0,0,0,0,0,0,0,0,0,0,0,0,0,0,0,0,0,0,0,0,0,0,0,0,0,0,0,0,0,0,0,0,0,0,0,0,0,0,0],"sum_hessian":[2.1580933E2,6.2227467E1,1.5358186E2,3.2682724E1,2.9544743E1,9.7105E1,5.6476864E1,3.1196503E1,1.4862205E0,1.4714314E1,1.4830427E1,4.9157005E1,4.7947994E1,3.9181694E1,1.7295168E1,1.2963531E1,1.8668969E0,3.8009228E1,1.11477785E1,2.8329063E1,1.961893E1,1.1531258E1,2.7650438E1,6.4676285E0,1.0827539E1,8.01467E0,4.9488597E0,2.6412277E1,1.15969515E1,8.720536E0,2.427242E0,3.7085128E0,2.462055E1,5.158089E0,1.4460842E1,9.109508E0,2.4217505E0,1.0516478E1,1.7133959E1,5.224077E0,1.2435514E0,6.540054E0,1.4746165E0,2.4169154E0,2.5319445E0,2.3118652E1,3.2936246E0,5.196028E0,6.4009237E0,3.1161537E0,5.6043825E0,1.8507295E0,1.8577832E0,3.6018033E0,2.1018747E1,2.9391484E0,2.2189407E0,7.9355264E0,6.525316E0,1.0604925E0,8.049015E0,8.419647E0,2.0968301E0,1.389621E1,3.23775E0],"tree_param":{"num_deleted":"0","num_feature":"5","num_nodes":"65","size_leaf_vector":"1"}},{"base_weights":[-2.5561345E-1,-2.7091068E-1,-8.196789E-2,-3.1247503E-1,-1.6387841E-1,1.7096046E-1,-6.5873533E-1,-3.3104796E-2,-1.1800004E-1,-9.476677E-2,-3.6299962E-1,4.2388567E-1,-3.7966153E-1,-1.5765896E-2,-7.773345E-2,3.981767E-4,-2.9095206E-2,-3.169711E-2,-1.708606E-2,-4.8346937E-2,-2.4894047E-1,5.4781873E-2,7.3532425E-2,-4.578004E-1,-6.830594E-3,-5.20882E-3,4.4994303E-3,-3.7149125E-1,2.6771033E-2,-2.2579595E-2,3.9965183E-2,-1.1466321E-2,-5.884561E-2,-1.1362252E-2,-6.984807E-2],"categories":[],"categories_nodes":[],"categories_segments":[],"categories_sizes":[],"default_left":[0,0,0,0,0,0,0,0,0,0,0,0,0,0,0,0,0,0,0,0,0,0,0,0,0,0,0,0,0,0,0,0,0,0,0],"id":60,"left_children":[1,3,5,7,9,11,13,-1,15,17,19,21,23,-1,-1,-1,-1,25,-1,-1,27,-1,29,31,-1,-1,-1,33,-1,-1,-1,-1,-1,-1,-1],"loss_changes":[5.3697205E-1,8.07539E-1,2.8080812E0,4.5915794E-1,7.375754E-1,2.0603075E0,2.2442484E-1,0E0,2.87629E-1,2.009319E-1,7.3391795E-2,3.8602197E-1,8.600408E-2,0E0,0E0,0E0,0E0,4.1029222E-2,0E0,0E0,6.8856114E-1,0E0,4.534273E-1,9.7418785E-2,0E0,0E0,0E0,5.900761E-1,0E0,0E0,0E0,0E0,0E0,0E0,0E0],"parents":[2147483647,0,0,1,1,2,2,3,3,4,4,5,5,6,6,8,8,9,9,10,10,11,11,12,12,17,17,20,20,22,22,23,23,27,27],"right_children":[2,4,6,8,10,12,14,-1,16,18,20,22,24,-1,-1,-1,-1,26,-1,-1,28,-1,30,32,-1,-1,-1,34,-1,-1,-1,-1,-1,-1,-1],"split_conditions":[6E0,1E0,1E0,4E0,2E0,1E1,7E0,-3.3104796E-2,5E0,2E0,3E0,8E0,1.7E1,-1.5765896E-2,-7.773345E-2,3.981767E-4,-2.9095206E-2,1E0,-1.708606E-2,-4.8346937E-2,3E0,5.4781873E-2,9E0,1.2E1,-6.830594E-3,-5.20882E-3,4.4994303E-3,2E0,2.6771033E-2,-2.2579595E-2,3.9965183E-2,-1.1466321E-2,-5.884561E-2,-1.1362252E-2,-6.984807E-2],"split_indices":[0,4,4,0,0,0,0,0,0,4,0,0,0,0,0,0,0,0,0,0,4,0,0,0,0,0,0,4,0,0,0,0,0,0,0],"split_type":[0,0,0,0,0,0,0,0,0,0,0,0,0,0,0,0,0,0,0,0,0,0,0,0,0,0,0,0,0,0,0,0,0,0,0],"sum_hessian":[2.0950943E2,1.9203226E2,1.7477161E1,1.3693587E2,5.50964E1,1.2638445E1,4.838716E0,1.2435713E2,1.2578729E1,4.1996162E1,1.3100241E1,8.818078E0,3.8203669E0,1.3718885E0,3.4668274E0,7.949196E0,4.6295323E0,2.3737831E1,1.825833E1,4.795963E0,8.304277E0,6.097534E0,2.7205436E0,2.677953E0,1.142414E0,1.9005392E1,4.73244E0,6.9392366E0,1.3650408E0,1.5789417E0,1.141602E0,1.2562637E0,1.4216893E0,4.633036E0,2.3062007E0],"tree_param":{"num_deleted":"0","num_feature":"5","num_nodes":"35","size_leaf_vector":"1"}},{"base_weights":[-2.4964653E-1,-2.5528085E-1,1.5434176E-2,-2.4105749E-1,-5.9825428E-2,-2.5850075E-1,1.18322305E-1,-2.9370987E-1,-1.681406E-1,3.0843575E-2,-3.7372315E-1,-3.3307504E-2,-1.0372469E-1,-6.0899828E-2,-4.8928308E-1,-5.3735096E-2,-1.5840797E-3,-1.9906907E-4,-4.5534674E-2,-3.6278754E-4,-3.8077857E-2,-6.402644E-2,-3.4399133E-2],"categories":[],"categories_nodes":[],"categories_segments":[],"categories_sizes":[],"default_left":[0,0,0,0,0,0,0,0,0,0,0,0,0,0,0,0,0,0,0,0,0,0,0],"id":61,"left_children":[1,3,-1,5,-1,7,9,11,13,-1,15,-1,17,19,21,-1,-1,-1,-1,-1,-1,-1,-1],"loss_changes":[5.087166E-1,8.4960365E-1,0E0,1.2673302E0,0E0,5.502291E-1,1.0337343E0,9.6973133E-1,1.8707434E0,0E0,1.7820477E-1,0E0,8.7551874E-1,7.774435E-1,7.968378E-2,0E0,0E0,0E0,0E0,0E0,0E0,0E0,0E0],"parents":[2147483647,0,0,1,1,3,3,5,5,6,6,7,7,8,8,10,10,12,12,13,13,14,14],"right_children":[2,4,-1,6,-1,8,10,12,14,-1,16,-1,18,20,22,-1,-1,-1,-1,-1,-1,-1,-1],"split_conditions":[1.4E1,8E0,1.5434176E-2,6E0,-5.9825428E-2,1E0,1E0,3E0,2E0,3.0843575E-2,2E0,-3.3307504E-2,5E0,3E0,3E0,-5.3735096E-2,-1.5840797E-3,-1.9906907E-4,-4.5534674E-2,-3.6278754E-4,-3.8077857E-2,-6.402644E-2,-3.4399133E-2],"split_indices":[0,0,0,0,0,4,4,0,0,0,4,0,0,4,0,0,0,0,0,0,0,0,0],"split_type":[0,0,0,0,0,0,0,0,0,0,0,0,0,0,0,0,0,0,0,0,0,0,0],"sum_hessian":[2.0518346E2,2.027242E2,2.4592512E0,1.9628687E2,6.4373274E0,1.8746838E2,8.818485E0,1.3328358E2,5.4184803E1,6.6299877E0,2.1884973E0,1.0978322E2,2.3500366E1,4.1512093E1,1.2672712E1,1.1577069E0,1.0307903E0,1.9006826E1,4.49354E0,3.6066067E1,5.4460254E0,4.544012E0,8.1287E0],"tree_param":{"num_deleted":"0","num_feature":"5","num_nodes":"23","size_leaf_vector":"1"}},{"base_weights":[-2.9155853E-1,-6.3104016E-1,-1.5712705E-1,-7.987075E-2,-4.3092534E-1,-1.2990764E-1,-5.0834304E-1,-7.165949E-1,-1.3379139E-1,-1.6758338E-1,5.738447E-2,-1.4971118E-1,-8.116633E-2,-7.989495E-2,-4.1975352E-1,4.335706E-2,-2.0956835E-1,-1.819907E-1,5.0403446E-2,1.6385521E-1,-6.845121E-2,-3.9699923E-2,1.222052E-2,2.4633838E-2,-7.344541E-2,-3.562191E-1,7.2171755E-2,-4.3822154E-1,-1.5843578E-1,2.7936456E-1,-6.600206E-2,-1.6534043E-2,-5.3803273E-2,-2.7940005E-2,3.0856064E-2,-5.6777157E-2,1.3377614E-3,2.2558436E-2,-1.8216679E-2,5.6710064E-2,2.7130928E-4],"categories":[],"categories_nodes":[],"categories_segments":[],"categories_sizes":[],"default_left":[0,0,0,0,0,0,0,0,0,0,0,0,0,0,0,0,0,0,0,0,0,0,0,0,0,0,0,0,0,0,0,0,0,0,0,0,0,0,0,0,0],"id":62,"left_children":[1,3,5,-1,7,9,11,13,15,17,19,21,-1,-1,23,-1,25,27,-1,29,-1,-1,-1,-1,-1,31,33,35,37,39,-1,-1,-1,-1,-1,-1,-1,-1,-1,-1,-1],"loss_changes":[9.094784E0,1.5620975E0,1.3262978E0,0E0,2.2869997E0,9.7288895E-1,9.806788E-1,8.912563E-3,7.353196E-1,1.1938918E0,1.9768574E0,4.4315642E-1,0E0,0E0,1.2637165E0,0E0,5.999306E-1,6.080363E-1,0E0,2.2257655E0,0E0,0E0,0E0,0E0,0E0,2.3409224E-1,5.507138E-1,5.273334E-1,9.9217606E-1,1.5519712E0,0E0,0E0,0E0,0E0,0E0,0E0,0E0,0E0,0E0,0E0,0E0],"parents":[2147483647,0,0,1,1,2,2,4,4,5,5,6,6,7,7,8,8,9,9,10,10,11,11,14,14,16,16,17,17,19,19,25,25,26,26,27,27,28,28,29,29],"right_children":[2,4,6,-1,8,10,12,14,16,18,20,22,-1,-1,24,-1,26,28,-1,30,-1,-1,-1,-1,-1,32,34,36,38,40,-1,-1,-1,-1,-1,-1,-1,-1,-1,-1,-1],"split_conditions":[5.2E1,4.2E1,9E1,-7.987075E-2,1E0,7.9E1,1E0,4.9E1,4.3E1,4E0,6E0,1E0,-8.116633E-2,-7.989495E-2,5E1,4.335706E-2,4E0,5.4E1,5.0403446E-2,3E0,-6.845121E-2,-3.9699923E-2,1.222052E-2,2.4633838E-2,-7.344541E-2,4.8E1,4.7E1,1E0,5.5E1,8.3E1,-6.600206E-2,-1.6534043E-2,-5.3803273E-2,-2.7940005E-2,3.0856064E-2,-5.6777157E-2,1.3377614E-3,2.2558436E-2,-1.8216679E-2,5.6710064E-2,2.7130928E-4],"split_indices":[2,2,2,0,0,2,0,2,2,4,0,4,0,0,2,0,0,2,0,4,0,0,0,0,0,2,2,4,2,2,0,0,0,0,0,0,0,0,0,0,0],"split_type":[0,0,0,0,0,0,0,0,0,0,0,0,0,0,0,0,0,0,0,0,0,0,0,0,0,0,0,0,0,0,0,0,0,0,0,0,0,0,0,0,0],"sum_hessian":[2.0045789E2,5.5814545E1,1.4464334E2,2.8741808E1,2.7072737E1,1.3551105E2,9.1322975E0,1.3082914E1,1.3989822E1,1.1290439E2,2.260666E1,4.868995E0,4.263302E0,8.917399E0,4.1655145E0,1.0920078E0,1.2897815E1,1.1124698E2,1.6574048E0,2.0450865E1,2.1557956E0,2.3090649E0,2.5599306E0,1.4062628E0,2.7592518E0,8.308657E0,4.589158E0,7.8837E0,1.0336328E2,1.8515818E1,1.9350475E0,4.9847584E0,3.3238988E0,1.7719123E0,2.8172457E0,5.9263616E0,1.9573386E0,5.5206757E0,9.7842606E1,8.561456E0,9.954362E0],"tree_param":{"num_deleted":"0","num_feature":"5","num_nodes":"41","size_leaf_vector":"1"}},{"base_weights":[-2.5161186E-1,-5.264823E-1,-1.260829E-1,-7.097119E-1,-3.6567986E-1,-1.0528139E-1,-4.2110592E-1,-2.6629528E-2,-7.290398E-2,-1.9435951E-1,-4.2886686E-1,-1.694292E-1,3.2651164E-2,3.5732742E-2,-7.0138924E-2,3.102489E-2,-5.46916E-2,-5.4962117E-2,-3.385941E-1,-1.1376476E-1,-5.0678074E-1,7.530207E-1,-7.953728E-2,1.562841E-1,-2.6075039E-2,8.225937E-3,-4.2598683E-1,-1.5006141E-1,1.590757E-1,-2.9449356E-1,-5.9977114E-2,9.953516E-2,1.1276117E-2,-3.9795792E-1,1.2333208E-2,-1.2327867E-3,3.3152714E-2,-5.7363905E-2,-1.0003501E-2,-4.040537E-3,-3.4510802E-2,6.2979707E-3,4.82067E-2,-7.0057206E-2,1.9985262E-2,-5.7530083E-2,3.3570506E-2,9.772747E-3,-9.952209E-3],"categories":[],"categories_nodes":[],"categories_segments":[],"categories_sizes":[],"default_left":[0,0,0,0,0,0,0,0,0,0,0,0,0,0,0,0,0,0,0,0,0,0,0,0,0,0,0,0,0,0,0,0,0,0,0,0,0,0,0,0,0,0,0,0,0,0,0,0,0],"id":63,"left_children":[1,3,5,7,9,11,13,-1,-1,15,17,19,21,-1,-1,23,-1,-1,25,27,29,31,33,35,-1,-1,37,39,41,43,-1,-1,-1,45,47,-1,-1,-1,-1,-1,-1,-1,-1,-1,-1,-1,-1,-1,-1],"loss_changes":[6.698601E0,1.5422592E0,7.897346E-1,4.171753E-2,2.9154968E-1,1.1406665E0,2.1309686E0,0E0,0E0,9.0377843E-1,8.066702E-2,1.5897589E0,3.4188945E0,0E0,0E0,3.2415468E-1,0E0,0E0,6.4587414E-1,7.823849E-1,6.294227E-2,7.7155614E-1,1.0833887E0,1.8286905E-1,0E0,0E0,6.1226606E-1,1.4428902E0,2.6383165E-1,1.2764964E0,0E0,0E0,0E0,1.271105E0,2.9228428E-1,0E0,0E0,0E0,0E0,0E0,0E0,0E0,0E0,0E0,0E0,0E0,0E0,0E0,0E0],"parents":[2147483647,0,0,1,1,2,2,3,3,4,4,5,5,6,6,9,9,10,10,11,11,12,12,15,15,18,18,19,19,20,20,21,21,22,22,23,23,26,26,27,27,28,28,29,29,33,33,34,34],"right_children":[2,4,6,8,10,12,14,-1,-1,16,18,20,22,-1,-1,24,-1,-1,26,28,30,32,34,36,-1,-1,38,40,42,44,-1,-1,-1,46,48,-1,-1,-1,-1,-1,-1,-1,-1,-1,-1,-1,-1,-1,-1],"split_conditions":[5.4E1,4.2E1,3E0,2E1,4.6E1,7.5E1,6.6E1,-2.6629528E-2,-7.290398E-2,1E0,4.9E1,7E1,7.6E1,3.5732742E-2,-7.0138924E-2,4.5E1,-5.46916E-2,-5.4962117E-2,5E1,6.8E1,7.2E1,1E0,7.9E1,4.4E1,-2.6075039E-2,8.225937E-3,1E0,6.2E1,2E0,7.1E1,-5.9977114E-2,9.953516E-2,1.1276117E-2,2E0,1E0,-1.2327867E-3,3.3152714E-2,-5.7363905E-2,-1.0003501E-2,-4.040537E-3,-3.4510802E-2,6.2979707E-3,4.82067E-2,-7.0057206E-2,1.9985262E-2,-5.7530083E-2,3.3570506E-2,9.772747E-3,-9.952209E-3],"split_indices":[2,2,4,2,2,2,2,0,0,1,2,2,2,0,0,2,0,0,2,2,2,4,2,2,0,0,1,2,4,2,0,0,0,4,4,0,0,0,0,0,0,0,0,0,0,0,0,0,0],"split_type":[0,0,0,0,0,0,0,0,0,0,0,0,0,0,0,0,0,0,0,0,0,0,0,0,0,0,0,0,0,0,0,0,0,0,0,0,0,0,0,0,0,0,0,0,0,0,0,0,0],"sum_hessian":[1.9506248E2,6.0152527E1,1.3490996E2,2.6520098E1,3.3632427E1,1.27291725E2,7.6182375E0,1.724931E0,2.4795166E1,1.016036E1,2.3472067E1,8.672874E1,4.056298E1,1.9440712E0,5.674166E0,6.7543807E0,3.4059799E0,7.864109E0,1.5607959E1,7.5592834E1,1.1135908E1,4.696208E0,3.586677E1,5.050547E0,1.7038331E0,2.693881E0,1.2914078E1,6.711443E1,8.478398E0,4.6613855E0,6.474523E0,3.0044515E0,1.6917566E0,7.285097E0,